<?xml version="1.0"?>
<!----------------------------------------------------------------------------
 A frontal cat face detector using the full set of Haar features, i.e.
 horizontal, vertical, and diagonal features.

 Contributed by Joseph Howse (josephhowse@nummist.com).

 More information can be found in the following publications and
 presentations:

 Joseph Howse. OpenCV for Secret Agents (book). Packt Publishing, January
   2015.
 Joseph Howse. "Training Detectors and Recognizers in Python and OpenCV"
   (tutorial). ISMAR 2014. September 9, 2014.
   http://nummist.com/opencv/Howse_ISMAR_20140909.pdf
 Joseph Howse. "Training Intelligent Camera Systems with Python and OpenCV"
   (webcast). O’Reilly Media. June 17, 2014.
   http://www.oreilly.com/pub/e/3077

 Build scripts and demo applications can be found in the following repository:
 https://bitbucket.org/Joe_Howse/angora-blue

 KNOWN LIMITATIONS:

<<<<<<< HEAD
 Sometimes, the detector mistakenly thinks that a human face is a cat face. In
 situations where either a human or a cat might be encountered, use both a
 human face detector and a cat face detector. Then, if a detected human face
 and a detected cat face intersect, reject the cat face.

=======
>>>>>>> origin/master
 An upright subject is assumed. In situations where the cat's face might be
 sideways or upside down (e.g. the cat is rolling over), try various rotations
 of the input image.

<<<<<<< HEAD
=======
 CHANGELOG:

 2016-08-06: Re-trained with more negative samples and more stages. False
   positives are much rarer now. If you tailored your code for the cascade's
   previous version, now you should re-adjust the arguments of
   CascadeClassifier::detectMultiScale. For example, decrease the value of the
   minNeighbors argument. You do not need to use a human face detector to
   cross-check the positives anymore.
 2014-04-25: First release (at https://bitbucket.org/Joe_Howse/angora-blue)

>>>>>>> origin/master
 //////////////////////////////////////////////////////////////////////////
 | Contributors License Agreement
 | IMPORTANT: READ BEFORE DOWNLOADING, COPYING, INSTALLING OR USING.
 |   By downloading, copying, installing or using the software you agree
 |   to this license.
 |   If you do not agree to this license, do not download, install,
 |   copy or use the software.
 |
<<<<<<< HEAD
 | Copyright (c) 2014, Joseph Howse (Nummist Media Corporation Limited,
=======
 | Copyright (c) 2014-2016, Joseph Howse (Nummist Media Corporation Limited,
>>>>>>> origin/master
 | Halifax, Nova Scotia, Canada). All rights reserved.
 |
 | Redistribution and use in source and binary forms, with or without
 | modification, are permitted provided that the following conditions are
 | met:
 |
 |    * Redistributions of source code must retain the above copyright
 |       notice, this list of conditions and the following disclaimer.
 |    * Redistributions in binary form must reproduce the above
 |      copyright notice, this list of conditions and the following
 |      disclaimer in the documentation and/or other materials provided
 |      with the distribution.
 |    * The name of Contributor may not used to endorse or promote products
 |      derived from this software without specific prior written permission.
 |
 | THIS SOFTWARE IS PROVIDED BY THE COPYRIGHT HOLDERS AND CONTRIBUTORS
 | "AS IS" AND ANY EXPRESS OR IMPLIED WARRANTIES, INCLUDING, BUT NOT
 | LIMITED TO, THE IMPLIED WARRANTIES OF MERCHANTABILITY AND FITNESS FOR
 | A PARTICULAR PURPOSE ARE DISCLAIMED. IN NO EVENT SHALL THE
 | CONTRIBUTORS BE LIABLE FOR ANY DIRECT, INDIRECT, INCIDENTAL, SPECIAL,
 | EXEMPLARY, OR CONSEQUENTIAL DAMAGES (INCLUDING, BUT NOT LIMITED TO,
 | PROCUREMENT OF SUBSTITUTE GOODS OR SERVICES; LOSS OF USE, DATA, OR
 | PROFITS; OR BUSINESS INTERRUPTION) HOWEVER CAUSED AND ON ANY THEORY OF
 | LIABILITY, WHETHER IN CONTRACT, STRICT LIABILITY, OR TORT (INCLUDING
 | NEGLIGENCE OR OTHERWISE) ARISING IN ANY WAY OUT OF THE USE OF THIS
 | SOFTWARE, EVEN IF ADVISED OF THE POSSIBILITY OF SUCH DAMAGE.  Back to
 | Top
 //////////////////////////////////////////////////////////////////////////
 ---------------------------------------------------------------------------->
<opencv_storage>
<cascade>
  <stageType>BOOST</stageType>
  <featureType>HAAR</featureType>
  <height>24</height>
  <width>24</width>
  <stageParams>
    <boostType>GAB</boostType>
<<<<<<< HEAD
    <minHitRate>9.9900001287460327e-01</minHitRate>
=======
    <minHitRate>9.9500000476837158e-01</minHitRate>
>>>>>>> origin/master
    <maxFalseAlarm>5.0000000000000000e-01</maxFalseAlarm>
    <weightTrimRate>9.4999999999999996e-01</weightTrimRate>
    <maxDepth>1</maxDepth>
    <maxWeakCount>100</maxWeakCount></stageParams>
  <featureParams>
    <maxCatCount>0</maxCatCount>
    <featSize>1</featSize>
    <mode>ALL</mode></featureParams>
<<<<<<< HEAD
  <stageNum>15</stageNum>
  <stages>
    <!-- stage 0 -->
    <_>
      <maxWeakCount>28</maxWeakCount>
      <stageThreshold>-2.0972909927368164e+00</stageThreshold>
      <weakClassifiers>
        <_>
          <internalNodes>
            0 -1 388 -1.4772760681807995e-02</internalNodes>
          <leafValues>
            8.4035199880599976e-01 -1.2701500952243805e-01</leafValues></_>
        <_>
          <internalNodes>
            0 -1 736 4.5831585302948952e-03</internalNodes>
          <leafValues>
            -2.3791725933551788e-01 6.1978793144226074e-01</leafValues></_>
        <_>
          <internalNodes>
            0 -1 754 -1.5044892206788063e-02</internalNodes>
          <leafValues>
            5.7160794734954834e-01 -2.0493283867835999e-01</leafValues></_>
        <_>
          <internalNodes>
            0 -1 437 -1.5646889805793762e-02</internalNodes>
          <leafValues>
            7.6283878087997437e-01 -1.6358052194118500e-01</leafValues></_>
        <_>
          <internalNodes>
            0 -1 432 3.0781796202063560e-02</internalNodes>
          <leafValues>
            -1.8158669769763947e-01 7.5050812959671021e-01</leafValues></_>
        <_>
          <internalNodes>
            0 -1 238 1.8483418971300125e-02</internalNodes>
          <leafValues>
            -2.0087972283363342e-01 5.2843624353408813e-01</leafValues></_>
        <_>
          <internalNodes>
            0 -1 680 1.3191045261919498e-02</internalNodes>
          <leafValues>
            -1.5244702994823456e-01 5.8166426420211792e-01</leafValues></_>
        <_>
          <internalNodes>
            0 -1 531 5.3334265947341919e-02</internalNodes>
          <leafValues>
            -1.6860350966453552e-01 7.1358704566955566e-01</leafValues></_>
        <_>
          <internalNodes>
            0 -1 782 8.3916599396616220e-04</internalNodes>
          <leafValues>
            -2.1746076643466949e-01 4.2143425345420837e-01</leafValues></_>
        <_>
          <internalNodes>
            0 -1 333 1.7697989940643311e-02</internalNodes>
          <leafValues>
            -1.3514791429042816e-01 6.1385941505432129e-01</leafValues></_>
        <_>
          <internalNodes>
            0 -1 290 -2.8310909867286682e-02</internalNodes>
          <leafValues>
            5.3606474399566650e-01 -1.5554395318031311e-01</leafValues></_>
        <_>
          <internalNodes>
            0 -1 147 4.1034919559024274e-04</internalNodes>
          <leafValues>
            -2.8903219103813171e-01 3.1018218398094177e-01</leafValues></_>
        <_>
          <internalNodes>
            0 -1 537 3.9831817150115967e-02</internalNodes>
          <leafValues>
            -1.8419378995895386e-01 4.3500679731369019e-01</leafValues></_>
        <_>
          <internalNodes>
            0 -1 558 -5.2749719470739365e-03</internalNodes>
          <leafValues>
            -8.7773287296295166e-01 1.1703799664974213e-01</leafValues></_>
        <_>
          <internalNodes>
            0 -1 811 -3.6777660250663757e-02</internalNodes>
          <leafValues>
            4.1285938024520874e-01 -2.1606418490409851e-01</leafValues></_>
        <_>
          <internalNodes>
            0 -1 324 9.4376102089881897e-02</internalNodes>
          <leafValues>
            -1.0109311342239380e-01 6.0879749059677124e-01</leafValues></_>
        <_>
          <internalNodes>
            0 -1 564 -1.6132533550262451e-02</internalNodes>
          <leafValues>
            5.1245921850204468e-01 -1.5503944456577301e-01</leafValues></_>
        <_>
          <internalNodes>
            0 -1 507 -6.9251265376806259e-03</internalNodes>
          <leafValues>
            4.2284211516380310e-01 -1.5949958562850952e-01</leafValues></_>
        <_>
          <internalNodes>
            0 -1 882 -8.4776207804679871e-03</internalNodes>
          <leafValues>
            4.0007081627845764e-01 -1.6089719533920288e-01</leafValues></_>
        <_>
          <internalNodes>
            0 -1 110 -9.0452972799539566e-03</internalNodes>
          <leafValues>
            -7.6785671710968018e-01 9.3979701399803162e-02</leafValues></_>
        <_>
          <internalNodes>
            0 -1 246 3.0019454658031464e-02</internalNodes>
          <leafValues>
            -1.3505084812641144e-01 4.7249373793601990e-01</leafValues></_>
        <_>
          <internalNodes>
            0 -1 804 3.6142929457128048e-03</internalNodes>
          <leafValues>
            8.1217512488365173e-02 -7.7168470621109009e-01</leafValues></_>
        <_>
          <internalNodes>
            0 -1 806 -4.7642881982028484e-03</internalNodes>
          <leafValues>
            -7.8209573030471802e-01 6.2777772545814514e-02</leafValues></_>
        <_>
          <internalNodes>
            0 -1 816 3.0351843684911728e-02</internalNodes>
          <leafValues>
            -1.1295587569475174e-01 5.8056473731994629e-01</leafValues></_>
        <_>
          <internalNodes>
            0 -1 146 -5.9288680553436279e-02</internalNodes>
          <leafValues>
            5.5029523372650146e-01 -1.1994160711765289e-01</leafValues></_>
        <_>
          <internalNodes>
            0 -1 11 2.2238820791244507e-02</internalNodes>
          <leafValues>
            -1.4121483266353607e-01 4.5770901441574097e-01</leafValues></_>
        <_>
          <internalNodes>
            0 -1 294 -4.1477128863334656e-02</internalNodes>
          <leafValues>
            5.7035386562347412e-01 -1.0164763778448105e-01</leafValues></_>
        <_>
          <internalNodes>
            0 -1 710 -1.1866136919707060e-03</internalNodes>
          <leafValues>
            3.4064662456512451e-01 -1.6186751425266266e-01</leafValues></_></weakClassifiers></_>
    <!-- stage 1 -->
    <_>
      <maxWeakCount>30</maxWeakCount>
      <stageThreshold>-1.5367478132247925e+00</stageThreshold>
      <weakClassifiers>
        <_>
          <internalNodes>
            0 -1 654 8.4006171673536301e-03</internalNodes>
          <leafValues>
            -1.0249307751655579e-01 7.6660197973251343e-01</leafValues></_>
        <_>
          <internalNodes>
            0 -1 443 -1.0703811421990395e-02</internalNodes>
          <leafValues>
            6.9929075241088867e-01 -1.6515852510929108e-01</leafValues></_>
        <_>
          <internalNodes>
            0 -1 1 6.3192001543939114e-03</internalNodes>
          <leafValues>
            -2.2415910661220551e-01 4.3903940916061401e-01</leafValues></_>
        <_>
          <internalNodes>
            0 -1 651 2.0642649382352829e-02</internalNodes>
          <leafValues>
            -1.8032769858837128e-01 5.8923733234405518e-01</leafValues></_>
        <_>
          <internalNodes>
            0 -1 378 4.0111690759658813e-03</internalNodes>
          <leafValues>
            -2.4117745459079742e-01 5.4825514554977417e-01</leafValues></_>
        <_>
          <internalNodes>
            0 -1 173 2.0640484988689423e-02</internalNodes>
          <leafValues>
            -2.4204613268375397e-01 4.0820708870887756e-01</leafValues></_>
        <_>
          <internalNodes>
            0 -1 116 -9.2923976480960846e-03</internalNodes>
          <leafValues>
            3.6315548419952393e-01 -2.0153710246086121e-01</leafValues></_>
        <_>
          <internalNodes>
            0 -1 851 3.5129714757204056e-02</internalNodes>
          <leafValues>
            -1.3475686311721802e-01 6.5953320264816284e-01</leafValues></_>
        <_>
          <internalNodes>
            0 -1 333 2.0278891548514366e-02</internalNodes>
          <leafValues>
            -1.0143157839775085e-01 5.9142571687698364e-01</leafValues></_>
        <_>
          <internalNodes>
            0 -1 737 6.4985908102244139e-04</internalNodes>
          <leafValues>
            -1.9716840982437134e-01 3.4134888648986816e-01</leafValues></_>
        <_>
          <internalNodes>
            0 -1 287 -6.6223340108990669e-03</internalNodes>
          <leafValues>
            -6.9885939359664917e-01 9.7095526754856110e-02</leafValues></_>
        <_>
          <internalNodes>
            0 -1 82 7.4231177568435669e-03</internalNodes>
          <leafValues>
            9.8552420735359192e-02 -6.5358603000640869e-01</leafValues></_>
        <_>
          <internalNodes>
            0 -1 692 -3.0081106349825859e-02</internalNodes>
          <leafValues>
            4.5352721214294434e-01 -1.4968612790107727e-01</leafValues></_>
        <_>
          <internalNodes>
            0 -1 62 -6.0633812099695206e-02</internalNodes>
          <leafValues>
            6.5072047710418701e-01 -9.9382333457469940e-02</leafValues></_>
        <_>
          <internalNodes>
            0 -1 814 -5.1941806450486183e-03</internalNodes>
          <leafValues>
            3.9397239685058594e-01 -1.6142791509628296e-01</leafValues></_>
        <_>
          <internalNodes>
            0 -1 261 6.0986238531768322e-03</internalNodes>
          <leafValues>
            8.6411900818347931e-02 -7.3878693580627441e-01</leafValues></_>
        <_>
          <internalNodes>
            0 -1 108 -8.2402750849723816e-03</internalNodes>
          <leafValues>
            -7.4236625432968140e-01 6.7853815853595734e-02</leafValues></_>
        <_>
          <internalNodes>
            0 -1 908 -3.0396101996302605e-02</internalNodes>
          <leafValues>
            4.9337482452392578e-01 -1.3200622797012329e-01</leafValues></_>
        <_>
          <internalNodes>
            0 -1 188 5.1566954702138901e-02</internalNodes>
          <leafValues>
            -1.3631668686866760e-01 4.2621469497680664e-01</leafValues></_>
        <_>
          <internalNodes>
            0 -1 150 -9.3598978128284216e-04</internalNodes>
          <leafValues>
            3.2463693618774414e-01 -2.0737074315547943e-01</leafValues></_>
        <_>
          <internalNodes>
            0 -1 905 7.0394594222307205e-03</internalNodes>
          <leafValues>
            8.9326366782188416e-02 -6.1088448762893677e-01</leafValues></_>
        <_>
          <internalNodes>
            0 -1 396 -6.5201576799154282e-03</internalNodes>
          <leafValues>
            3.7555626034736633e-01 -1.5273806452751160e-01</leafValues></_>
        <_>
          <internalNodes>
            0 -1 103 3.9127394556999207e-03</internalNodes>
          <leafValues>
            8.3254240453243256e-02 -7.3406547307968140e-01</leafValues></_>
        <_>
          <internalNodes>
            0 -1 39 9.5308097079396248e-03</internalNodes>
          <leafValues>
            -1.7045913636684418e-01 3.2230368256568909e-01</leafValues></_>
        <_>
          <internalNodes>
            0 -1 796 1.5843525528907776e-02</internalNodes>
          <leafValues>
            -1.4033445715904236e-01 3.9502236247062683e-01</leafValues></_>
        <_>
          <internalNodes>
            0 -1 555 5.9641832485795021e-03</internalNodes>
          <leafValues>
            6.4340040087699890e-02 -8.5145986080169678e-01</leafValues></_>
        <_>
          <internalNodes>
            0 -1 601 -4.8106643371284008e-03</internalNodes>
          <leafValues>
            -6.9040679931640625e-01 6.5658122301101685e-02</leafValues></_>
        <_>
          <internalNodes>
            0 -1 731 -9.3304895563051105e-04</internalNodes>
          <leafValues>
            4.1242164373397827e-01 -1.4879603683948517e-01</leafValues></_>
        <_>
          <internalNodes>
            0 -1 779 4.1272714734077454e-03</internalNodes>
          <leafValues>
            -1.2624038755893707e-01 4.6513134241104126e-01</leafValues></_>
        <_>
          <internalNodes>
            0 -1 184 2.2929732222110033e-03</internalNodes>
          <leafValues>
            1.0915581136941910e-01 -5.1519250869750977e-01</leafValues></_></weakClassifiers></_>
    <!-- stage 2 -->
    <_>
      <maxWeakCount>44</maxWeakCount>
      <stageThreshold>-1.6336240768432617e+00</stageThreshold>
      <weakClassifiers>
        <_>
          <internalNodes>
            0 -1 334 2.5117650628089905e-02</internalNodes>
          <leafValues>
            3.5861257463693619e-02 8.1681501865386963e-01</leafValues></_>
        <_>
          <internalNodes>
            0 -1 459 -6.6137146204710007e-03</internalNodes>
          <leafValues>
            4.6177890896797180e-01 -2.3009553551673889e-01</leafValues></_>
        <_>
          <internalNodes>
            0 -1 394 -3.1423813197761774e-03</internalNodes>
          <leafValues>
            4.0471413731575012e-01 -2.0868653059005737e-01</leafValues></_>
        <_>
          <internalNodes>
            0 -1 0 -3.7308693863451481e-03</internalNodes>
          <leafValues>
            3.2831424474716187e-01 -2.6703229546546936e-01</leafValues></_>
        <_>
          <internalNodes>
            0 -1 178 7.8482955694198608e-02</internalNodes>
          <leafValues>
            -1.5199472010135651e-01 4.6242395043373108e-01</leafValues></_>
        <_>
          <internalNodes>
            0 -1 772 -2.6338286697864532e-03</internalNodes>
          <leafValues>
            3.1739279627799988e-01 -2.3944588005542755e-01</leafValues></_>
        <_>
          <internalNodes>
            0 -1 75 9.2347152531147003e-02</internalNodes>
          <leafValues>
            -1.5557752549648285e-01 6.0793381929397583e-01</leafValues></_>
        <_>
          <internalNodes>
            0 -1 315 -1.6786376014351845e-02</internalNodes>
          <leafValues>
            5.2824962139129639e-01 -1.1138658970594406e-01</leafValues></_>
        <_>
          <internalNodes>
            0 -1 755 -3.8150474429130554e-02</internalNodes>
          <leafValues>
            4.3382674455642700e-01 -1.4826944470405579e-01</leafValues></_>
        <_>
          <internalNodes>
            0 -1 318 4.3135927990078926e-03</internalNodes>
          <leafValues>
            1.1878431588411331e-01 -5.8886390924453735e-01</leafValues></_>
        <_>
          <internalNodes>
            0 -1 412 7.1479372680187225e-02</internalNodes>
          <leafValues>
            -1.0972832888364792e-01 5.7183718681335449e-01</leafValues></_>
        <_>
          <internalNodes>
            0 -1 104 7.3613431304693222e-03</internalNodes>
          <leafValues>
            9.7729764878749847e-02 -6.5627050399780273e-01</leafValues></_>
        <_>
          <internalNodes>
            0 -1 414 5.1306895911693573e-02</internalNodes>
          <leafValues>
            -1.6079875826835632e-01 4.0451571345329285e-01</leafValues></_>
        <_>
          <internalNodes>
            0 -1 367 -4.7303801402449608e-03</internalNodes>
          <leafValues>
            -6.5826851129531860e-01 8.7291486561298370e-02</leafValues></_>
        <_>
          <internalNodes>
            0 -1 712 -1.8283914541825652e-03</internalNodes>
          <leafValues>
            3.7762144207954407e-01 -1.4564067125320435e-01</leafValues></_>
        <_>
          <internalNodes>
            0 -1 131 5.1737688481807709e-03</internalNodes>
          <leafValues>
            8.7748050689697266e-02 -6.2685465812683105e-01</leafValues></_>
        <_>
          <internalNodes>
            0 -1 647 -3.2173446379601955e-03</internalNodes>
          <leafValues>
            -7.3641878366470337e-01 5.7915702462196350e-02</leafValues></_>
        <_>
          <internalNodes>
            0 -1 819 -5.4384516552090645e-03</internalNodes>
          <leafValues>
            4.2479231953620911e-01 -1.2763169407844543e-01</leafValues></_>
        <_>
          <internalNodes>
            0 -1 159 2.6621888391673565e-03</internalNodes>
          <leafValues>
            -2.1836103498935699e-01 3.1271252036094666e-01</leafValues></_>
        <_>
          <internalNodes>
            0 -1 125 1.2338031083345413e-02</internalNodes>
          <leafValues>
            7.9128213226795197e-02 -8.1891500949859619e-01</leafValues></_>
        <_>
          <internalNodes>
            0 -1 639 -1.0976660996675491e-02</internalNodes>
          <leafValues>
            2.9887822270393372e-01 -1.8205311894416809e-01</leafValues></_>
        <_>
          <internalNodes>
            0 -1 646 1.4158659614622593e-03</internalNodes>
          <leafValues>
            8.9180864393711090e-02 -5.9163159132003784e-01</leafValues></_>
        <_>
          <internalNodes>
            0 -1 141 -2.0067330449819565e-02</internalNodes>
          <leafValues>
            2.6213398575782776e-01 -1.7981344461441040e-01</leafValues></_>
        <_>
          <internalNodes>
            0 -1 95 3.1120348721742630e-03</internalNodes>
          <leafValues>
            8.4207154810428619e-02 -5.7088595628738403e-01</leafValues></_>
        <_>
          <internalNodes>
            0 -1 121 -9.9351592361927032e-03</internalNodes>
          <leafValues>
            -7.2243571281433105e-01 5.1867216825485229e-02</leafValues></_>
        <_>
          <internalNodes>
            0 -1 198 1.3314767275005579e-03</internalNodes>
          <leafValues>
            -1.7091234028339386e-01 2.5805294513702393e-01</leafValues></_>
        <_>
          <internalNodes>
            0 -1 211 3.5102412104606628e-02</internalNodes>
          <leafValues>
            -1.1150742322206497e-01 4.2247176170349121e-01</leafValues></_>
        <_>
          <internalNodes>
            0 -1 780 2.4332102388143539e-02</internalNodes>
          <leafValues>
            -1.2760649621486664e-01 3.5613566637039185e-01</leafValues></_>
        <_>
          <internalNodes>
            0 -1 913 3.4916624426841736e-03</internalNodes>
          <leafValues>
            7.4707798659801483e-02 -6.2106835842132568e-01</leafValues></_>
        <_>
          <internalNodes>
            0 -1 554 3.1960286200046539e-02</internalNodes>
          <leafValues>
            -8.5123799741268158e-02 5.5780071020126343e-01</leafValues></_>
        <_>
          <internalNodes>
            0 -1 210 2.5646466761827469e-02</internalNodes>
          <leafValues>
            9.6616283059120178e-02 -4.8778736591339111e-01</leafValues></_>
        <_>
          <internalNodes>
            0 -1 65 4.8584854230284691e-03</internalNodes>
          <leafValues>
            5.4295353591442108e-02 -6.2732213735580444e-01</leafValues></_>
        <_>
          <internalNodes>
            0 -1 525 -4.3544219806790352e-03</internalNodes>
          <leafValues>
            -5.7990497350692749e-01 5.8335512876510620e-02</leafValues></_>
        <_>
          <internalNodes>
            0 -1 818 1.5392700443044305e-03</internalNodes>
          <leafValues>
            -1.0273179411888123e-01 4.0286800265312195e-01</leafValues></_>
        <_>
          <internalNodes>
            0 -1 625 -3.5907807759940624e-03</internalNodes>
          <leafValues>
            -5.7972615957260132e-01 7.4733175337314606e-02</leafValues></_>
        <_>
          <internalNodes>
            0 -1 742 -2.6264857500791550e-02</internalNodes>
          <leafValues>
            3.9446443319320679e-01 -1.1581628769636154e-01</leafValues></_>
        <_>
          <internalNodes>
            0 -1 458 1.6059044748544693e-02</internalNodes>
          <leafValues>
            -1.0167770087718964e-01 3.6267307400703430e-01</leafValues></_>
        <_>
          <internalNodes>
            0 -1 233 -4.1905373334884644e-02</internalNodes>
          <leafValues>
            4.7364938259124756e-01 -8.8032789528369904e-02</leafValues></_>
        <_>
          <internalNodes>
            0 -1 42 2.0880695432424545e-02</internalNodes>
          <leafValues>
            -1.2106557935476303e-01 3.8552695512771606e-01</leafValues></_>
        <_>
          <internalNodes>
            0 -1 959 3.2229241915047169e-03</internalNodes>
          <leafValues>
            6.9974288344383240e-02 -6.0391223430633545e-01</leafValues></_>
        <_>
          <internalNodes>
            0 -1 830 7.0135584101080894e-03</internalNodes>
          <leafValues>
            -1.0977950692176819e-01 3.7435680627822876e-01</leafValues></_>
        <_>
          <internalNodes>
            0 -1 798 -6.5330024808645248e-03</internalNodes>
          <leafValues>
            -6.9873285293579102e-01 5.8301825076341629e-02</leafValues></_>
        <_>
          <internalNodes>
            0 -1 766 -6.3728205859661102e-03</internalNodes>
          <leafValues>
            2.4119727313518524e-01 -1.5554191172122955e-01</leafValues></_>
        <_>
          <internalNodes>
            0 -1 598 -3.9798039942979813e-03</internalNodes>
          <leafValues>
            3.2675772905349731e-01 -1.1990765482187271e-01</leafValues></_></weakClassifiers></_>
    <!-- stage 3 -->
    <_>
      <maxWeakCount>48</maxWeakCount>
      <stageThreshold>-1.6315091848373413e+00</stageThreshold>
      <weakClassifiers>
        <_>
          <internalNodes>
            0 -1 398 -1.6997709870338440e-02</internalNodes>
          <leafValues>
            7.5603079795837402e-01 1.9442643970251083e-03</leafValues></_>
        <_>
          <internalNodes>
            0 -1 858 -1.5086915343999863e-02</internalNodes>
          <leafValues>
            6.3829183578491211e-01 -1.4418891072273254e-01</leafValues></_>
        <_>
          <internalNodes>
            0 -1 734 7.5988154858350754e-03</internalNodes>
          <leafValues>
            -1.6574914753437042e-01 4.6998679637908936e-01</leafValues></_>
        <_>
          <internalNodes>
            0 -1 440 -7.5363442301750183e-03</internalNodes>
          <leafValues>
            4.4424122571945190e-01 -1.8298716843128204e-01</leafValues></_>
        <_>
          <internalNodes>
            0 -1 441 1.0129272937774658e-02</internalNodes>
          <leafValues>
            -2.0301033556461334e-01 5.5256271362304688e-01</leafValues></_>
        <_>
          <internalNodes>
            0 -1 732 3.0099015682935715e-02</internalNodes>
          <leafValues>
            -9.0159557759761810e-02 5.2430152893066406e-01</leafValues></_>
        <_>
          <internalNodes>
            0 -1 880 1.0154332034289837e-02</internalNodes>
          <leafValues>
            -2.1865487098693848e-01 3.7318554520606995e-01</leafValues></_>
        <_>
          <internalNodes>
            0 -1 753 -5.7211541570723057e-03</internalNodes>
          <leafValues>
            2.9541808366775513e-01 -2.3727707564830780e-01</leafValues></_>
        <_>
          <internalNodes>
            0 -1 609 -2.3081460967659950e-03</internalNodes>
          <leafValues>
            -6.5867960453033447e-01 8.6644835770130157e-02</leafValues></_>
        <_>
          <internalNodes>
            0 -1 892 3.4120366908609867e-03</internalNodes>
          <leafValues>
            7.3793835937976837e-02 -6.1988431215286255e-01</leafValues></_>
        <_>
          <internalNodes>
            0 -1 423 1.1280932230874896e-03</internalNodes>
          <leafValues>
            -1.7844060063362122e-01 2.9092252254486084e-01</leafValues></_>
        <_>
          <internalNodes>
            0 -1 252 3.4356258809566498e-02</internalNodes>
          <leafValues>
            -1.4515927433967590e-01 3.3726382255554199e-01</leafValues></_>
        <_>
          <internalNodes>
            0 -1 583 4.2802840471267700e-02</internalNodes>
          <leafValues>
            -1.0719767957925797e-01 4.7673487663269043e-01</leafValues></_>
        <_>
          <internalNodes>
            0 -1 395 -2.2776997648179531e-03</internalNodes>
          <leafValues>
            3.6087805032730103e-01 -1.2924250960350037e-01</leafValues></_>
        <_>
          <internalNodes>
            0 -1 390 6.0573252849280834e-03</internalNodes>
          <leafValues>
            6.6139653325080872e-02 -7.4114394187927246e-01</leafValues></_>
        <_>
          <internalNodes>
            0 -1 271 -1.0843809694051743e-02</internalNodes>
          <leafValues>
            4.1086801886558533e-01 -1.3518220186233521e-01</leafValues></_>
        <_>
          <internalNodes>
            0 -1 265 2.5435941293835640e-02</internalNodes>
          <leafValues>
            -1.2997664511203766e-01 3.8705968856811523e-01</leafValues></_>
        <_>
          <internalNodes>
            0 -1 649 1.6918467590585351e-03</internalNodes>
          <leafValues>
            9.5908589661121368e-02 -6.5462106466293335e-01</leafValues></_>
        <_>
          <internalNodes>
            0 -1 690 2.5078756734728813e-03</internalNodes>
          <leafValues>
            5.6727513670921326e-02 -6.1011266708374023e-01</leafValues></_>
        <_>
          <internalNodes>
            0 -1 77 -1.0462226346135139e-02</internalNodes>
          <leafValues>
            3.6109340190887451e-01 -1.2214753031730652e-01</leafValues></_>
        <_>
          <internalNodes>
            0 -1 157 -1.6778277233242989e-02</internalNodes>
          <leafValues>
            -5.3534448146820068e-01 8.2928635179996490e-02</leafValues></_>
        <_>
          <internalNodes>
            0 -1 831 -1.5040259808301926e-02</internalNodes>
          <leafValues>
            2.8428143262863159e-01 -1.4685547351837158e-01</leafValues></_>
        <_>
          <internalNodes>
            0 -1 907 -6.6617773845791817e-03</internalNodes>
          <leafValues>
            -5.6624877452850342e-01 7.8970976173877716e-02</leafValues></_>
        <_>
          <internalNodes>
            0 -1 695 8.1638405099511147e-03</internalNodes>
          <leafValues>
            -1.6379712522029877e-01 2.6822853088378906e-01</leafValues></_>
        <_>
          <internalNodes>
            0 -1 52 1.9468305632472038e-02</internalNodes>
          <leafValues>
            -1.2091565877199173e-01 3.3373209834098816e-01</leafValues></_>
        <_>
          <internalNodes>
            0 -1 164 -6.4643016085028648e-03</internalNodes>
          <leafValues>
            -6.3222587108612061e-01 6.6180422902107239e-02</leafValues></_>
        <_>
          <internalNodes>
            0 -1 284 3.5924967378377914e-02</internalNodes>
          <leafValues>
            -1.0186699032783508e-01 4.2578670382499695e-01</leafValues></_>
        <_>
          <internalNodes>
            0 -1 354 1.6905765980482101e-02</internalNodes>
          <leafValues>
            -1.3217522203922272e-01 3.3241125941276550e-01</leafValues></_>
        <_>
          <internalNodes>
            0 -1 515 5.7176817208528519e-03</internalNodes>
          <leafValues>
            6.6569112241268158e-02 -6.5681034326553345e-01</leafValues></_>
        <_>
          <internalNodes>
            0 -1 276 -1.0900674387812614e-03</internalNodes>
          <leafValues>
            3.9689606428146362e-01 -1.1235479265451431e-01</leafValues></_>
        <_>
          <internalNodes>
            0 -1 760 -2.3833939805626869e-02</internalNodes>
          <leafValues>
            3.8570886850357056e-01 -1.0193232446908951e-01</leafValues></_>
        <_>
          <internalNodes>
            0 -1 344 -1.4802538789808750e-02</internalNodes>
          <leafValues>
            3.4205844998359680e-01 -1.4262656867504120e-01</leafValues></_>
        <_>
          <internalNodes>
            0 -1 448 3.9707131683826447e-02</internalNodes>
          <leafValues>
            -9.5635637640953064e-02 4.4075250625610352e-01</leafValues></_>
        <_>
          <internalNodes>
            0 -1 547 6.4531993120908737e-03</internalNodes>
          <leafValues>
            5.7593464851379395e-02 -7.0275545120239258e-01</leafValues></_>
        <_>
          <internalNodes>
            0 -1 922 -4.7811353579163551e-03</internalNodes>
          <leafValues>
            2.7453303337097168e-01 -1.3652370870113373e-01</leafValues></_>
        <_>
          <internalNodes>
            0 -1 896 3.3349171280860901e-03</internalNodes>
          <leafValues>
            5.8540347963571548e-02 -7.1738266944885254e-01</leafValues></_>
        <_>
          <internalNodes>
            0 -1 127 -1.0832921601831913e-02</internalNodes>
          <leafValues>
            -6.2031352519989014e-01 4.7055520117282867e-02</leafValues></_>
        <_>
          <internalNodes>
            0 -1 696 -3.5385387018322945e-03</internalNodes>
          <leafValues>
            2.7126258611679077e-01 -1.3402579724788666e-01</leafValues></_>
        <_>
          <internalNodes>
            0 -1 785 -2.1408915519714355e-02</internalNodes>
          <leafValues>
            3.6707195639610291e-01 -1.0640451312065125e-01</leafValues></_>
        <_>
          <internalNodes>
            0 -1 617 6.6339373588562012e-02</internalNodes>
          <leafValues>
            -1.0504902899265289e-01 3.3936560153961182e-01</leafValues></_>
        <_>
          <internalNodes>
            0 -1 581 2.2766939364373684e-03</internalNodes>
          <leafValues>
            7.2598882019519806e-02 -5.3970605134963989e-01</leafValues></_>
        <_>
          <internalNodes>
            0 -1 626 1.6875732690095901e-03</internalNodes>
          <leafValues>
            8.7735749781131744e-02 -4.0284165740013123e-01</leafValues></_>
        <_>
          <internalNodes>
            0 -1 623 8.4530832245945930e-03</internalNodes>
          <leafValues>
            -9.3997113406658173e-02 4.1698867082595825e-01</leafValues></_>
        <_>
          <internalNodes>
            0 -1 429 5.5649573914706707e-03</internalNodes>
          <leafValues>
            -8.7597280740737915e-02 3.8827970623970032e-01</leafValues></_>
        <_>
          <internalNodes>
            0 -1 429 -3.5470342263579369e-03</internalNodes>
          <leafValues>
            3.3585703372955322e-01 -1.3658957183361053e-01</leafValues></_>
        <_>
          <internalNodes>
            0 -1 954 4.2132395319640636e-03</internalNodes>
          <leafValues>
            7.2930902242660522e-02 -5.1745194196701050e-01</leafValues></_>
        <_>
          <internalNodes>
            0 -1 527 3.4532562131062150e-04</internalNodes>
          <leafValues>
            -1.7970138788223267e-01 2.1011430025100708e-01</leafValues></_>
        <_>
          <internalNodes>
            0 -1 828 -4.0376763790845871e-03</internalNodes>
          <leafValues>
            2.7334249019622803e-01 -1.3640886545181274e-01</leafValues></_></weakClassifiers></_>
    <!-- stage 4 -->
    <_>
      <maxWeakCount>57</maxWeakCount>
      <stageThreshold>-1.5859905481338501e+00</stageThreshold>
      <weakClassifiers>
        <_>
          <internalNodes>
            0 -1 376 -1.5983805060386658e-02</internalNodes>
          <leafValues>
            7.4085760116577148e-01 5.4202862083911896e-02</leafValues></_>
        <_>
          <internalNodes>
            0 -1 654 1.4518834650516510e-02</internalNodes>
          <leafValues>
            -1.6582691669464111e-01 5.1249128580093384e-01</leafValues></_>
        <_>
          <internalNodes>
            0 -1 820 -1.0167414322495461e-02</internalNodes>
          <leafValues>
            4.5000806450843811e-01 -1.3064502179622650e-01</leafValues></_>
        <_>
          <internalNodes>
            0 -1 493 2.7079641819000244e-02</internalNodes>
          <leafValues>
            -1.6735902428627014e-01 6.3848841190338135e-01</leafValues></_>
        <_>
          <internalNodes>
            0 -1 774 1.9515088060870767e-03</internalNodes>
          <leafValues>
            -1.1798944324254990e-01 3.9749121665954590e-01</leafValues></_>
        <_>
          <internalNodes>
            0 -1 332 1.3693260028958321e-02</internalNodes>
          <leafValues>
            -8.5312500596046448e-02 5.4718613624572754e-01</leafValues></_>
        <_>
          <internalNodes>
            0 -1 254 6.0192337259650230e-03</internalNodes>
          <leafValues>
            5.7217631489038467e-02 -6.6589832305908203e-01</leafValues></_>
        <_>
          <internalNodes>
            0 -1 139 -5.6810788810253143e-03</internalNodes>
          <leafValues>
            -5.7089996337890625e-01 8.1808418035507202e-02</leafValues></_>
        <_>
          <internalNodes>
            0 -1 898 4.8240914475172758e-04</internalNodes>
          <leafValues>
            -2.2115968167781830e-01 2.1608626842498779e-01</leafValues></_>
        <_>
          <internalNodes>
            0 -1 699 -6.6948928870260715e-03</internalNodes>
          <leafValues>
            -6.5513664484024048e-01 7.3252275586128235e-02</leafValues></_>
        <_>
          <internalNodes>
            0 -1 607 -1.4181779697537422e-02</internalNodes>
          <leafValues>
            3.2152280211448669e-01 -1.5524932742118835e-01</leafValues></_>
        <_>
          <internalNodes>
            0 -1 172 1.6027893871068954e-02</internalNodes>
          <leafValues>
            -1.3886103034019470e-01 3.2296729087829590e-01</leafValues></_>
        <_>
          <internalNodes>
            0 -1 379 3.8102023303508759e-02</internalNodes>
          <leafValues>
            -8.4586337208747864e-02 5.0823771953582764e-01</leafValues></_>
        <_>
          <internalNodes>
            0 -1 627 -6.8796845152974129e-03</internalNodes>
          <leafValues>
            2.8458747267723083e-01 -1.6626659035682678e-01</leafValues></_>
        <_>
          <internalNodes>
            0 -1 316 -5.7869823649525642e-03</internalNodes>
          <leafValues>
            -6.7561829090118408e-01 6.7125916481018066e-02</leafValues></_>
        <_>
          <internalNodes>
            0 -1 84 -1.0403458960354328e-02</internalNodes>
          <leafValues>
            -6.8244606256484985e-01 5.5120140314102173e-02</leafValues></_>
        <_>
          <internalNodes>
            0 -1 253 7.2765655815601349e-02</internalNodes>
          <leafValues>
            -1.2289700657129288e-01 3.4603855013847351e-01</leafValues></_>
        <_>
          <internalNodes>
            0 -1 145 -5.2832886576652527e-02</internalNodes>
          <leafValues>
            3.6294373869895935e-01 -1.1915811896324158e-01</leafValues></_>
        <_>
          <internalNodes>
            0 -1 791 -2.0185699686408043e-03</internalNodes>
          <leafValues>
            3.0245268344879150e-01 -1.5617357194423676e-01</leafValues></_>
        <_>
          <internalNodes>
            0 -1 606 -2.8552478179335594e-03</internalNodes>
          <leafValues>
            -6.5382599830627441e-01 6.9692179560661316e-02</leafValues></_>
        <_>
          <internalNodes>
            0 -1 167 -3.6076260730624199e-03</internalNodes>
          <leafValues>
            -5.5573904514312744e-01 6.0684457421302795e-02</leafValues></_>
        <_>
          <internalNodes>
            0 -1 85 -1.2505692429840565e-03</internalNodes>
          <leafValues>
            2.2487366199493408e-01 -1.7713856697082520e-01</leafValues></_>
        <_>
          <internalNodes>
            0 -1 643 1.6213182359933853e-02</internalNodes>
          <leafValues>
            6.7865289747714996e-02 -5.5539685487747192e-01</leafValues></_>
        <_>
          <internalNodes>
            0 -1 24 -2.7728214859962463e-02</internalNodes>
          <leafValues>
            -5.8333241939544678e-01 5.7263575494289398e-02</leafValues></_>
        <_>
          <internalNodes>
            0 -1 267 -1.2375607620924711e-03</internalNodes>
          <leafValues>
            2.9786622524261475e-01 -1.2998357415199280e-01</leafValues></_>
        <_>
          <internalNodes>
            0 -1 622 2.4766498245298862e-03</internalNodes>
          <leafValues>
            8.8138826191425323e-02 -4.3225872516632080e-01</leafValues></_>
        <_>
          <internalNodes>
            0 -1 382 1.0034437291324139e-03</internalNodes>
          <leafValues>
            -1.1115902662277222e-01 3.2714295387268066e-01</leafValues></_>
        <_>
          <internalNodes>
            0 -1 374 -6.4956350252032280e-03</internalNodes>
          <leafValues>
            -7.0529288053512573e-01 6.1914756894111633e-02</leafValues></_>
        <_>
          <internalNodes>
            0 -1 409 -1.2748142704367638e-02</internalNodes>
          <leafValues>
            3.6699298024177551e-01 -1.0546508431434631e-01</leafValues></_>
        <_>
          <internalNodes>
            0 -1 494 -5.6289080530405045e-03</internalNodes>
          <leafValues>
            -8.3690512180328369e-01 4.8901058733463287e-02</leafValues></_>
        <_>
          <internalNodes>
            0 -1 846 -3.0219005420804024e-03</internalNodes>
          <leafValues>
            2.2210697829723358e-01 -1.6297030448913574e-01</leafValues></_>
        <_>
          <internalNodes>
            0 -1 938 2.9230308718979359e-03</internalNodes>
          <leafValues>
            8.0248229205608368e-02 -4.7586214542388916e-01</leafValues></_>
        <_>
          <internalNodes>
            0 -1 620 -1.6901228576898575e-02</internalNodes>
          <leafValues>
            3.2134863734245300e-01 -1.1946766823530197e-01</leafValues></_>
        <_>
          <internalNodes>
            0 -1 452 -1.6434368444606662e-03</internalNodes>
          <leafValues>
            3.5056352615356445e-01 -1.0065372288227081e-01</leafValues></_>
        <_>
          <internalNodes>
            0 -1 104 6.0744080692529678e-03</internalNodes>
          <leafValues>
            7.7158488333225250e-02 -5.0687175989151001e-01</leafValues></_>
        <_>
          <internalNodes>
            0 -1 677 -6.2521770596504211e-02</internalNodes>
          <leafValues>
            3.5145899653434753e-01 -1.0493072122335434e-01</leafValues></_>
        <_>
          <internalNodes>
            0 -1 738 1.4936760999262333e-03</internalNodes>
          <leafValues>
            -1.1596123874187469e-01 3.1784045696258545e-01</leafValues></_>
        <_>
          <internalNodes>
            0 -1 935 -4.6554272994399071e-03</internalNodes>
          <leafValues>
            -5.8499008417129517e-01 6.5426386892795563e-02</leafValues></_>
        <_>
          <internalNodes>
            0 -1 718 5.1631154492497444e-03</internalNodes>
          <leafValues>
            4.6380143612623215e-02 -6.5920770168304443e-01</leafValues></_>
        <_>
          <internalNodes>
            0 -1 431 5.7699503377079964e-03</internalNodes>
          <leafValues>
            -1.0032630711793900e-01 3.4062737226486206e-01</leafValues></_>
        <_>
          <internalNodes>
            0 -1 306 -9.6255233511328697e-03</internalNodes>
          <leafValues>
            2.2360336780548096e-01 -1.5362788736820221e-01</leafValues></_>
        <_>
          <internalNodes>
            0 -1 372 -2.8061982244253159e-02</internalNodes>
          <leafValues>
            2.5125834345817566e-01 -1.2988410890102386e-01</leafValues></_>
        <_>
          <internalNodes>
            0 -1 807 7.1229478344321251e-03</internalNodes>
          <leafValues>
            5.3426012396812439e-02 -6.4893049001693726e-01</leafValues></_>
        <_>
          <internalNodes>
            0 -1 46 1.4473337680101395e-02</internalNodes>
          <leafValues>
            -1.2796792387962341e-01 2.5788536667823792e-01</leafValues></_>
        <_>
          <internalNodes>
            0 -1 240 -4.4487215578556061e-02</internalNodes>
          <leafValues>
            4.8267531394958496e-01 -7.5288593769073486e-02</leafValues></_>
        <_>
          <internalNodes>
            0 -1 408 3.3553102985024452e-03</internalNodes>
          <leafValues>
            6.5222866833209991e-02 -5.3387296199798584e-01</leafValues></_>
        <_>
          <internalNodes>
            0 -1 6 2.6522833853960037e-02</internalNodes>
          <leafValues>
            4.7097213566303253e-02 -5.7117742300033569e-01</leafValues></_>
        <_>
          <internalNodes>
            0 -1 407 5.3791850805282593e-03</internalNodes>
          <leafValues>
            4.9663346260786057e-02 -5.0957924127578735e-01</leafValues></_>
        <_>
          <internalNodes>
            0 -1 684 -8.8640749454498291e-03</internalNodes>
          <leafValues>
            3.3878505229949951e-01 -8.6965307593345642e-02</leafValues></_>
        <_>
          <internalNodes>
            0 -1 78 2.7605522423982620e-02</internalNodes>
          <leafValues>
            4.4678669422864914e-02 -6.9978964328765869e-01</leafValues></_>
        <_>
          <internalNodes>
            0 -1 944 -1.1171739548444748e-02</internalNodes>
          <leafValues>
            -7.3840415477752686e-01 3.0841451138257980e-02</leafValues></_>
        <_>
          <internalNodes>
            0 -1 731 -1.0616163490340114e-03</internalNodes>
          <leafValues>
            3.0718466639518738e-01 -9.7260892391204834e-02</leafValues></_>
        <_>
          <internalNodes>
            0 -1 169 -7.2728879749774933e-03</internalNodes>
          <leafValues>
            -7.1966600418090820e-01 4.3096855282783508e-02</leafValues></_>
        <_>
          <internalNodes>
            0 -1 924 -1.1083125136792660e-02</internalNodes>
          <leafValues>
            3.8436344265937805e-01 -8.1930950284004211e-02</leafValues></_>
        <_>
          <internalNodes>
            0 -1 674 -7.1662524715065956e-03</internalNodes>
          <leafValues>
            2.0970225334167480e-01 -1.5484949946403503e-01</leafValues></_>
        <_>
          <internalNodes>
            0 -1 20 8.2661323249340057e-03</internalNodes>
          <leafValues>
            5.9242360293865204e-02 -5.1503551006317139e-01</leafValues></_>
        <_>
          <internalNodes>
            0 -1 748 7.3844827711582184e-03</internalNodes>
          <leafValues>
            3.3728431910276413e-02 -7.2390365600585938e-01</leafValues></_></weakClassifiers></_>
    <!-- stage 5 -->
    <_>
      <maxWeakCount>61</maxWeakCount>
      <stageThreshold>-1.5647197961807251e+00</stageThreshold>
      <weakClassifiers>
        <_>
          <internalNodes>
            0 -1 443 -7.5000515207648277e-03</internalNodes>
          <leafValues>
            6.9735616445541382e-01 -7.0126228965818882e-03</leafValues></_>
        <_>
          <internalNodes>
            0 -1 713 -2.5447460357099771e-03</internalNodes>
          <leafValues>
            5.4742383956909180e-01 -1.3766847550868988e-01</leafValues></_>
        <_>
          <internalNodes>
            0 -1 278 6.3486215658485889e-03</internalNodes>
          <leafValues>
            -1.5121677517890930e-01 6.0269719362258911e-01</leafValues></_>
        <_>
          <internalNodes>
            0 -1 860 2.5572092272341251e-03</internalNodes>
          <leafValues>
            -2.1577885746955872e-01 3.9897701144218445e-01</leafValues></_>
        <_>
          <internalNodes>
            0 -1 510 -6.5959235653281212e-03</internalNodes>
          <leafValues>
            3.2995587587356567e-01 -2.0266638696193695e-01</leafValues></_>
        <_>
          <internalNodes>
            0 -1 857 1.5824008733034134e-02</internalNodes>
          <leafValues>
            -1.4384938776493073e-01 5.4570239782333374e-01</leafValues></_>
        <_>
          <internalNodes>
            0 -1 335 3.4904260188341141e-02</internalNodes>
          <leafValues>
            -1.0439507663249969e-01 5.3645384311676025e-01</leafValues></_>
        <_>
          <internalNodes>
            0 -1 2 7.4804951436817646e-03</internalNodes>
          <leafValues>
            -1.7777608335018158e-01 3.0247840285301208e-01</leafValues></_>
        <_>
          <internalNodes>
            0 -1 61 -5.1247365772724152e-02</internalNodes>
          <leafValues>
            5.7459318637847900e-01 -1.0999230295419693e-01</leafValues></_>
        <_>
          <internalNodes>
            0 -1 629 -5.0416901707649231e-02</internalNodes>
          <leafValues>
            4.6202743053436279e-01 -8.9995197951793671e-02</leafValues></_>
        <_>
          <internalNodes>
            0 -1 177 1.2860384769737720e-02</internalNodes>
          <leafValues>
            -1.5580976009368896e-01 2.6711037755012512e-01</leafValues></_>
        <_>
          <internalNodes>
            0 -1 645 2.3457493633031845e-02</internalNodes>
          <leafValues>
            5.4399158805608749e-02 -7.5605469942092896e-01</leafValues></_>
        <_>
          <internalNodes>
            0 -1 775 -3.4703868441283703e-03</internalNodes>
          <leafValues>
            2.3663245141506195e-01 -1.6793093085289001e-01</leafValues></_>
        <_>
          <internalNodes>
            0 -1 256 4.2368983849883080e-03</internalNodes>
          <leafValues>
            6.2613829970359802e-02 -6.2294322252273560e-01</leafValues></_>
        <_>
          <internalNodes>
            0 -1 727 -8.7803313508629799e-03</internalNodes>
          <leafValues>
            3.0670607089996338e-01 -1.2937802076339722e-01</leafValues></_>
        <_>
          <internalNodes>
            0 -1 38 7.3221437633037567e-03</internalNodes>
          <leafValues>
            8.7675094604492188e-02 -4.8196199536323547e-01</leafValues></_>
        <_>
          <internalNodes>
            0 -1 176 5.7109566405415535e-03</internalNodes>
          <leafValues>
            -1.6586679220199585e-01 2.4693855643272400e-01</leafValues></_>
        <_>
          <internalNodes>
            0 -1 393 -1.0330275399610400e-03</internalNodes>
          <leafValues>
            2.8573888540267944e-01 -1.2924034893512726e-01</leafValues></_>
        <_>
          <internalNodes>
            0 -1 558 -4.1551878675818443e-03</internalNodes>
          <leafValues>
            -6.7751622200012207e-01 5.5871110409498215e-02</leafValues></_>
        <_>
          <internalNodes>
            0 -1 770 -8.7040066719055176e-03</internalNodes>
          <leafValues>
            2.6861536502838135e-01 -1.4459304511547089e-01</leafValues></_>
        <_>
          <internalNodes>
            0 -1 196 3.9226360619068146e-02</internalNodes>
          <leafValues>
            -1.0390799492597580e-01 3.5152482986450195e-01</leafValues></_>
        <_>
          <internalNodes>
            0 -1 115 -4.7440445050597191e-03</internalNodes>
          <leafValues>
            2.5985953211784363e-01 -1.4647118747234344e-01</leafValues></_>
        <_>
          <internalNodes>
            0 -1 375 -3.9255903102457523e-03</internalNodes>
          <leafValues>
            -5.1697838306427002e-01 7.4196860194206238e-02</leafValues></_>
        <_>
          <internalNodes>
            0 -1 273 -1.0538822039961815e-02</internalNodes>
          <leafValues>
            3.7007546424865723e-01 -1.1099486052989960e-01</leafValues></_>
        <_>
          <internalNodes>
            0 -1 336 -6.4126476645469666e-03</internalNodes>
          <leafValues>
            -6.8768596649169922e-01 6.5695002675056458e-02</leafValues></_>
        <_>
          <internalNodes>
            0 -1 614 -6.6444426774978638e-03</internalNodes>
          <leafValues>
            2.3941572010517120e-01 -1.5043427050113678e-01</leafValues></_>
        <_>
          <internalNodes>
            0 -1 784 3.6154527217149734e-02</internalNodes>
          <leafValues>
            -9.1301433742046356e-02 4.3764653801918030e-01</leafValues></_>
        <_>
          <internalNodes>
            0 -1 321 2.0614354871213436e-03</internalNodes>
          <leafValues>
            -1.0028914362192154e-01 3.4935840964317322e-01</leafValues></_>
        <_>
          <internalNodes>
            0 -1 937 -2.6316416915506124e-03</internalNodes>
          <leafValues>
            -4.7376596927642822e-01 7.9684391617774963e-02</leafValues></_>
        <_>
          <internalNodes>
            0 -1 136 -6.9046420976519585e-03</internalNodes>
          <leafValues>
            -5.4207211732864380e-01 5.3584035485982895e-02</leafValues></_>
        <_>
          <internalNodes>
            0 -1 792 -7.9165250062942505e-03</internalNodes>
          <leafValues>
            2.3244017362594604e-01 -1.4517860114574432e-01</leafValues></_>
        <_>
          <internalNodes>
            0 -1 285 6.6963117569684982e-03</internalNodes>
          <leafValues>
            5.6810487061738968e-02 -6.3260114192962646e-01</leafValues></_>
        <_>
          <internalNodes>
            0 -1 810 -1.8640372902154922e-02</internalNodes>
          <leafValues>
            2.3912836611270905e-01 -1.4180511236190796e-01</leafValues></_>
        <_>
          <internalNodes>
            0 -1 451 -1.2744618579745293e-03</internalNodes>
          <leafValues>
            3.5026183724403381e-01 -9.4078496098518372e-02</leafValues></_>
        <_>
          <internalNodes>
            0 -1 385 -6.6458717919886112e-03</internalNodes>
          <leafValues>
            -6.4737498760223389e-01 5.4980348795652390e-02</leafValues></_>
        <_>
          <internalNodes>
            0 -1 759 5.5033955723047256e-03</internalNodes>
          <leafValues>
            3.6262378096580505e-02 -7.0103096961975098e-01</leafValues></_>
        <_>
          <internalNodes>
            0 -1 371 -6.0990457423031330e-03</internalNodes>
          <leafValues>
            3.1506294012069702e-01 -1.0298713296651840e-01</leafValues></_>
        <_>
          <internalNodes>
            0 -1 955 -9.5215532928705215e-04</internalNodes>
          <leafValues>
            -3.3243876695632935e-01 9.4536833465099335e-02</leafValues></_>
        <_>
          <internalNodes>
            0 -1 133 -4.8709083348512650e-03</internalNodes>
          <leafValues>
            -5.5286788940429688e-01 4.8858009278774261e-02</leafValues></_>
        <_>
          <internalNodes>
            0 -1 476 -1.9530812278389931e-03</internalNodes>
          <leafValues>
            2.6475632190704346e-01 -1.2214422971010208e-01</leafValues></_>
        <_>
          <internalNodes>
            0 -1 852 -1.6108162701129913e-02</internalNodes>
          <leafValues>
            2.4747616052627563e-01 -1.4181286096572876e-01</leafValues></_>
        <_>
          <internalNodes>
            0 -1 747 -3.3051617443561554e-02</internalNodes>
          <leafValues>
            4.7526669502258301e-01 -6.3493676483631134e-02</leafValues></_>
        <_>
          <internalNodes>
            0 -1 465 -2.0969051867723465e-02</internalNodes>
          <leafValues>
            3.7475255131721497e-01 -8.7978623807430267e-02</leafValues></_>
        <_>
          <internalNodes>
            0 -1 862 -1.1976938694715500e-03</internalNodes>
          <leafValues>
            2.8161275386810303e-01 -1.0515356063842773e-01</leafValues></_>
        <_>
          <internalNodes>
            0 -1 937 3.0867555178701878e-03</internalNodes>
          <leafValues>
            6.1260223388671875e-02 -5.0152593851089478e-01</leafValues></_>
        <_>
          <internalNodes>
            0 -1 261 5.4881181567907333e-03</internalNodes>
          <leafValues>
            5.0317917019128799e-02 -5.4196691513061523e-01</leafValues></_>
        <_>
          <internalNodes>
            0 -1 302 -3.6943652667105198e-03</internalNodes>
          <leafValues>
            -5.8759558200836182e-01 4.4150535017251968e-02</leafValues></_>
        <_>
          <internalNodes>
            0 -1 91 2.3760091513395309e-02</internalNodes>
          <leafValues>
            -1.0199809074401855e-01 3.0310767889022827e-01</leafValues></_>
        <_>
          <internalNodes>
            0 -1 86 -2.1728422492742538e-02</internalNodes>
          <leafValues>
            3.1364366412162781e-01 -1.0069291293621063e-01</leafValues></_>
        <_>
          <internalNodes>
            0 -1 36 -2.5134570896625519e-02</internalNodes>
          <leafValues>
            -5.1455682516098022e-01 5.5909216403961182e-02</leafValues></_>
        <_>
          <internalNodes>
            0 -1 17 2.5713320821523666e-02</internalNodes>
          <leafValues>
            -1.2262356281280518e-01 2.5486063957214355e-01</leafValues></_>
        <_>
          <internalNodes>
            0 -1 600 3.4806665498763323e-03</internalNodes>
          <leafValues>
            4.3244410306215286e-02 -7.0197206735610962e-01</leafValues></_>
        <_>
          <internalNodes>
            0 -1 96 -3.8689947687089443e-03</internalNodes>
          <leafValues>
            -5.8558273315429688e-01 4.0547560900449753e-02</leafValues></_>
        <_>
          <internalNodes>
            0 -1 787 -1.0773935355246067e-03</internalNodes>
          <leafValues>
            3.0767098069190979e-01 -9.5467783510684967e-02</leafValues></_>
        <_>
          <internalNodes>
            0 -1 789 2.9714959673583508e-03</internalNodes>
          <leafValues>
            -7.1951679885387421e-02 3.9655500650405884e-01</leafValues></_>
        <_>
          <internalNodes>
            0 -1 67 -8.8994875550270081e-03</internalNodes>
          <leafValues>
            -6.3042962551116943e-01 4.7020766884088516e-02</leafValues></_>
        <_>
          <internalNodes>
            0 -1 588 6.7773810587823391e-03</internalNodes>
          <leafValues>
            -7.5779460370540619e-02 3.6968868970870972e-01</leafValues></_>
        <_>
          <internalNodes>
            0 -1 508 -8.9795496314764023e-03</internalNodes>
          <leafValues>
            2.2023639082908630e-01 -1.3685037195682526e-01</leafValues></_>
        <_>
          <internalNodes>
            0 -1 258 -1.4680022373795509e-02</internalNodes>
          <leafValues>
            2.9656830430030823e-01 -9.4061806797981262e-02</leafValues></_>
        <_>
          <internalNodes>
            0 -1 208 -9.5530468970537186e-03</internalNodes>
          <leafValues>
            2.9208987951278687e-01 -1.0542043298482895e-01</leafValues></_>
        <_>
          <internalNodes>
            0 -1 847 -1.4967216411605477e-03</internalNodes>
          <leafValues>
            2.1045146882534027e-01 -1.3942880928516388e-01</leafValues></_></weakClassifiers></_>
    <!-- stage 6 -->
    <_>
      <maxWeakCount>67</maxWeakCount>
      <stageThreshold>-1.5504211187362671e+00</stageThreshold>
      <weakClassifiers>
        <_>
          <internalNodes>
            0 -1 454 -1.0960219427943230e-02</internalNodes>
          <leafValues>
            6.5447217226028442e-01 5.0713799893856049e-02</leafValues></_>
        <_>
          <internalNodes>
            0 -1 864 -1.1516783386468887e-02</internalNodes>
          <leafValues>
            4.6027910709381104e-01 -1.5864185988903046e-01</leafValues></_>
        <_>
          <internalNodes>
            0 -1 751 3.3400617539882660e-03</internalNodes>
          <leafValues>
            -2.1552324295043945e-01 3.4321418404579163e-01</leafValues></_>
        <_>
          <internalNodes>
            0 -1 154 -3.8353595882654190e-03</internalNodes>
          <leafValues>
            3.3496814966201782e-01 -2.3464411497116089e-01</leafValues></_>
        <_>
          <internalNodes>
            0 -1 57 -5.9523088857531548e-03</internalNodes>
          <leafValues>
            2.8272038698196411e-01 -2.0106634497642517e-01</leafValues></_>
        <_>
          <internalNodes>
            0 -1 788 -1.3916005846112967e-03</internalNodes>
          <leafValues>
            3.4103384613990784e-01 -1.5115562081336975e-01</leafValues></_>
        <_>
          <internalNodes>
            0 -1 325 -2.2318472620099783e-03</internalNodes>
          <leafValues>
            3.1695351004600525e-01 -1.6021527349948883e-01</leafValues></_>
        <_>
          <internalNodes>
            0 -1 677 8.3244532346725464e-02</internalNodes>
          <leafValues>
            -8.9079469442367554e-02 5.3136157989501953e-01</leafValues></_>
        <_>
          <internalNodes>
            0 -1 832 4.8591636121273041e-02</internalNodes>
          <leafValues>
            -1.0279218852519989e-01 3.9601847529411316e-01</leafValues></_>
        <_>
          <internalNodes>
            0 -1 921 9.5052458345890045e-03</internalNodes>
          <leafValues>
            5.5167526006698608e-02 -7.4528604745864868e-01</leafValues></_>
        <_>
          <internalNodes>
            0 -1 612 -3.7635704502463341e-03</internalNodes>
          <leafValues>
            -6.5434825420379639e-01 5.7055845856666565e-02</leafValues></_>
        <_>
          <internalNodes>
            0 -1 809 1.7548685718793422e-04</internalNodes>
          <leafValues>
            -2.3401582241058350e-01 1.6428647935390472e-01</leafValues></_>
        <_>
          <internalNodes>
            0 -1 156 -5.4875545203685760e-02</internalNodes>
          <leafValues>
            2.5605452060699463e-01 -1.5396752953529358e-01</leafValues></_>
        <_>
          <internalNodes>
            0 -1 5 -6.1811439692974091e-02</internalNodes>
          <leafValues>
            4.2922756075859070e-01 -8.8362246751785278e-02</leafValues></_>
        <_>
          <internalNodes>
            0 -1 229 1.3979763025417924e-03</internalNodes>
          <leafValues>
            -7.3071695864200592e-02 4.5563563704490662e-01</leafValues></_>
        <_>
          <internalNodes>
            0 -1 229 -5.5876211263239384e-04</internalNodes>
          <leafValues>
            2.9506489634513855e-01 -1.2031728774309158e-01</leafValues></_>
        <_>
          <internalNodes>
            0 -1 31 -4.3148966506123543e-03</internalNodes>
          <leafValues>
            -5.7403188943862915e-01 6.6134005784988403e-02</leafValues></_>
        <_>
          <internalNodes>
            0 -1 228 -5.3551131859421730e-03</internalNodes>
          <leafValues>
            -5.2288484573364258e-01 6.9182172417640686e-02</leafValues></_>
        <_>
          <internalNodes>
            0 -1 117 -3.6877401173114777e-02</internalNodes>
          <leafValues>
            3.3143782615661621e-01 -1.2777587771415710e-01</leafValues></_>
        <_>
          <internalNodes>
            0 -1 364 4.1612848639488220e-02</internalNodes>
          <leafValues>
            -1.4963860809803009e-01 2.9361200332641602e-01</leafValues></_>
        <_>
          <internalNodes>
            0 -1 423 6.6619878634810448e-04</internalNodes>
          <leafValues>
            -1.8005952239036560e-01 2.1171462535858154e-01</leafValues></_>
        <_>
          <internalNodes>
            0 -1 155 2.2130949422717094e-02</internalNodes>
          <leafValues>
            5.7936761528253555e-02 -5.9410941600799561e-01</leafValues></_>
        <_>
          <internalNodes>
            0 -1 469 1.2182788923382759e-02</internalNodes>
          <leafValues>
            -1.1940150707960129e-01 2.9696035385131836e-01</leafValues></_>
        <_>
          <internalNodes>
            0 -1 182 2.8001153841614723e-03</internalNodes>
          <leafValues>
            -1.4503511786460876e-01 2.2681860625743866e-01</leafValues></_>
        <_>
          <internalNodes>
            0 -1 945 2.8729443438351154e-03</internalNodes>
          <leafValues>
            6.5800048410892487e-02 -4.9987852573394775e-01</leafValues></_>
        <_>
          <internalNodes>
            0 -1 63 -5.0598740577697754e-01</internalNodes>
          <leafValues>
            6.1999630928039551e-01 -5.6771270930767059e-02</leafValues></_>
        <_>
          <internalNodes>
            0 -1 219 -9.6983816474676132e-03</internalNodes>
          <leafValues>
            3.2087686657905579e-01 -9.7375035285949707e-02</leafValues></_>
        <_>
          <internalNodes>
            0 -1 497 3.0797901563346386e-03</internalNodes>
          <leafValues>
            -1.2448154389858246e-01 2.5827226042747498e-01</leafValues></_>
        <_>
          <internalNodes>
            0 -1 451 -1.5816848026588559e-03</internalNodes>
          <leafValues>
            4.1313612461090088e-01 -9.0998791158199310e-02</leafValues></_>
        <_>
          <internalNodes>
            0 -1 101 -9.5680113881826401e-03</internalNodes>
          <leafValues>
            -7.0231872797012329e-01 5.5185325443744659e-02</leafValues></_>
        <_>
          <internalNodes>
            0 -1 94 3.1543439254164696e-03</internalNodes>
          <leafValues>
            4.8739165067672729e-02 -5.4295998811721802e-01</leafValues></_>
        <_>
          <internalNodes>
            0 -1 224 -7.8436743933707476e-04</internalNodes>
          <leafValues>
            3.0286926031112671e-01 -1.0217373818159103e-01</leafValues></_>
        <_>
          <internalNodes>
            0 -1 143 4.3993473052978516e-01</internalNodes>
          <leafValues>
            -4.0746804326772690e-02 7.4451828002929688e-01</leafValues></_>
        <_>
          <internalNodes>
            0 -1 565 -3.5277460701763630e-03</internalNodes>
          <leafValues>
            -4.5241990685462952e-01 7.3149621486663818e-02</leafValues></_>
        <_>
          <internalNodes>
            0 -1 468 8.3879064768552780e-03</internalNodes>
          <leafValues>
            3.3294096589088440e-02 -7.2618806362152100e-01</leafValues></_>
        <_>
          <internalNodes>
            0 -1 818 9.9020544439554214e-04</internalNodes>
          <leafValues>
            -1.0716802626848221e-01 2.8766462206840515e-01</leafValues></_>
        <_>
          <internalNodes>
            0 -1 825 -2.9110300820320845e-03</internalNodes>
          <leafValues>
            2.8586754202842712e-01 -1.1559913307428360e-01</leafValues></_>
        <_>
          <internalNodes>
            0 -1 242 -5.1425592973828316e-03</internalNodes>
          <leafValues>
            -6.1106848716735840e-01 4.6430643647909164e-02</leafValues></_>
        <_>
          <internalNodes>
            0 -1 69 1.7738080024719238e-01</internalNodes>
          <leafValues>
            -7.0887565612792969e-02 4.1917768120765686e-01</leafValues></_>
        <_>
          <internalNodes>
            0 -1 389 -1.1850059032440186e-02</internalNodes>
          <leafValues>
            3.1747487187385559e-01 -1.0234380513429642e-01</leafValues></_>
        <_>
          <internalNodes>
            0 -1 529 -1.0039219632744789e-02</internalNodes>
          <leafValues>
            2.0376846194267273e-01 -1.4407536387443542e-01</leafValues></_>
        <_>
          <internalNodes>
            0 -1 676 1.9497467204928398e-02</internalNodes>
          <leafValues>
            4.7855406999588013e-02 -5.7639378309249878e-01</leafValues></_>
        <_>
          <internalNodes>
            0 -1 193 5.5466167628765106e-02</internalNodes>
          <leafValues>
            -7.4624486267566681e-02 4.1103851795196533e-01</leafValues></_>
        <_>
          <internalNodes>
            0 -1 893 -3.9324127137660980e-03</internalNodes>
          <leafValues>
            -5.5429047346115112e-01 5.0012629479169846e-02</leafValues></_>
        <_>
          <internalNodes>
            0 -1 662 -8.9037272846326232e-04</internalNodes>
          <leafValues>
            2.0536813139915466e-01 -1.3225764036178589e-01</leafValues></_>
        <_>
          <internalNodes>
            0 -1 3 4.6562731266021729e-02</internalNodes>
          <leafValues>
            -9.1293826699256897e-02 2.9735872149467468e-01</leafValues></_>
        <_>
          <internalNodes>
            0 -1 548 -1.5474244952201843e-01</internalNodes>
          <leafValues>
            -8.6353981494903564e-01 3.4763321280479431e-02</leafValues></_>
        <_>
          <internalNodes>
            0 -1 893 2.4359119124710560e-03</internalNodes>
          <leafValues>
            5.9721726924180984e-02 -4.1146609187126160e-01</leafValues></_>
        <_>
          <internalNodes>
            0 -1 402 1.3576634228229523e-02</internalNodes>
          <leafValues>
            -9.4201639294624329e-02 3.0719256401062012e-01</leafValues></_>
        <_>
          <internalNodes>
            0 -1 456 -9.8991915583610535e-03</internalNodes>
          <leafValues>
            2.6257899403572083e-01 -9.5683693885803223e-02</leafValues></_>
        <_>
          <internalNodes>
            0 -1 479 -3.0812243930995464e-03</internalNodes>
          <leafValues>
            2.1774919331073761e-01 -1.1509665846824646e-01</leafValues></_>
        <_>
          <internalNodes>
            0 -1 275 -1.9958070479333401e-03</internalNodes>
          <leafValues>
            3.5399836301803589e-01 -7.2066798806190491e-02</leafValues></_>
        <_>
          <internalNodes>
            0 -1 919 3.0025159940123558e-03</internalNodes>
          <leafValues>
            4.2854189872741699e-02 -6.0343819856643677e-01</leafValues></_>
        <_>
          <internalNodes>
            0 -1 836 -1.1377423070371151e-03</internalNodes>
          <leafValues>
            2.0119668543338776e-01 -1.2889184057712555e-01</leafValues></_>
        <_>
          <internalNodes>
            0 -1 661 3.7626659031957388e-03</internalNodes>
          <leafValues>
            4.6901285648345947e-02 -5.7279956340789795e-01</leafValues></_>
        <_>
          <internalNodes>
            0 -1 724 -3.9297584444284439e-03</internalNodes>
          <leafValues>
            3.5875543951988220e-01 -7.3908790946006775e-02</leafValues></_>
        <_>
          <internalNodes>
            0 -1 885 -2.5286607444286346e-02</internalNodes>
          <leafValues>
            3.5751584172248840e-01 -6.7418299615383148e-02</leafValues></_>
        <_>
          <internalNodes>
            0 -1 749 -3.9539579302072525e-03</internalNodes>
          <leafValues>
            2.0609807968139648e-01 -1.4521332085132599e-01</leafValues></_>
        <_>
          <internalNodes>
            0 -1 911 -5.7711899280548096e-03</internalNodes>
          <leafValues>
            -5.2898341417312622e-01 4.7179169952869415e-02</leafValues></_>
        <_>
          <internalNodes>
            0 -1 701 -3.3264106605201960e-03</internalNodes>
          <leafValues>
            2.2409056127071381e-01 -1.1467082053422928e-01</leafValues></_>
        <_>
          <internalNodes>
            0 -1 703 6.1332453042268753e-02</internalNodes>
          <leafValues>
            3.7662509828805923e-02 -7.1230965852737427e-01</leafValues></_>
        <_>
          <internalNodes>
            0 -1 251 -1.4834193512797356e-02</internalNodes>
          <leafValues>
            -5.5149120092391968e-01 3.9850924164056778e-02</leafValues></_>
        <_>
          <internalNodes>
            0 -1 7 -1.0773484408855438e-01</internalNodes>
          <leafValues>
            -4.9263399839401245e-01 4.9221854656934738e-02</leafValues></_>
        <_>
          <internalNodes>
            0 -1 648 -6.5140398219227791e-03</internalNodes>
          <leafValues>
            -6.7663580179214478e-01 3.3736269921064377e-02</leafValues></_>
        <_>
          <internalNodes>
            0 -1 30 -2.4242542684078217e-02</internalNodes>
          <leafValues>
            -6.9796782732009888e-01 2.7110328897833824e-02</leafValues></_>
        <_>
          <internalNodes>
            0 -1 393 -1.7814380116760731e-03</internalNodes>
          <leafValues>
            2.9062062501907349e-01 -8.0135107040405273e-02</leafValues></_>
        <_>
          <internalNodes>
            0 -1 801 4.7076190821826458e-03</internalNodes>
          <leafValues>
            3.7101462483406067e-02 -6.7659527063369751e-01</leafValues></_></weakClassifiers></_>
    <!-- stage 7 -->
    <_>
      <maxWeakCount>80</maxWeakCount>
      <stageThreshold>-1.5639265775680542e+00</stageThreshold>
      <weakClassifiers>
        <_>
          <internalNodes>
            0 -1 561 -4.3974462896585464e-03</internalNodes>
          <leafValues>
            7.1587848663330078e-01 8.4948554635047913e-02</leafValues></_>
        <_>
          <internalNodes>
            0 -1 198 1.8174322322010994e-03</internalNodes>
          <leafValues>
            -1.7691791057586670e-01 4.3212845921516418e-01</leafValues></_>
        <_>
          <internalNodes>
            0 -1 735 -5.5131856352090836e-03</internalNodes>
          <leafValues>
            4.5490756630897522e-01 -1.4189453423023224e-01</leafValues></_>
        <_>
          <internalNodes>
            0 -1 282 1.1955455876886845e-02</internalNodes>
          <leafValues>
            -2.0918996632099152e-01 4.3714949488639832e-01</leafValues></_>
        <_>
          <internalNodes>
            0 -1 819 -3.4246121067553759e-03</internalNodes>
          <leafValues>
            3.5878163576126099e-01 -1.5395726263523102e-01</leafValues></_>
        <_>
          <internalNodes>
            0 -1 187 -4.3844994157552719e-02</internalNodes>
          <leafValues>
            4.3700152635574341e-01 -1.2767519056797028e-01</leafValues></_>
        <_>
          <internalNodes>
            0 -1 839 -6.3555962406098843e-03</internalNodes>
          <leafValues>
            2.9515129327774048e-01 -1.6441816091537476e-01</leafValues></_>
        <_>
          <internalNodes>
            0 -1 534 -2.6965860743075609e-03</internalNodes>
          <leafValues>
            1.9414065778255463e-01 -2.0237676799297333e-01</leafValues></_>
        <_>
          <internalNodes>
            0 -1 460 -1.3908351771533489e-02</internalNodes>
          <leafValues>
            2.5903883576393127e-01 -1.5587335824966431e-01</leafValues></_>
        <_>
          <internalNodes>
            0 -1 343 -1.4053133316338062e-02</internalNodes>
          <leafValues>
            5.4957073926925659e-01 -8.1244736909866333e-02</leafValues></_>
        <_>
          <internalNodes>
            0 -1 918 -5.3004794754087925e-03</internalNodes>
          <leafValues>
            -5.8528614044189453e-01 7.3730856180191040e-02</leafValues></_>
        <_>
          <internalNodes>
            0 -1 491 -3.1702318228781223e-03</internalNodes>
          <leafValues>
            1.9391658902168274e-01 -1.8859483301639557e-01</leafValues></_>
        <_>
          <internalNodes>
            0 -1 474 -4.5197797007858753e-03</internalNodes>
          <leafValues>
            -5.4193162918090820e-01 5.9990171343088150e-02</leafValues></_>
        <_>
          <internalNodes>
            0 -1 956 -5.4979130625724792e-02</internalNodes>
          <leafValues>
            4.7812277078628540e-01 -6.7818723618984222e-02</leafValues></_>
        <_>
          <internalNodes>
            0 -1 876 8.1017805496230721e-04</internalNodes>
          <leafValues>
            -9.5595575869083405e-02 3.1569144129753113e-01</leafValues></_>
        <_>
          <internalNodes>
            0 -1 841 -2.8012446127831936e-03</internalNodes>
          <leafValues>
            -4.9929830431938171e-01 6.8443782627582550e-02</leafValues></_>
        <_>
          <internalNodes>
            0 -1 833 -6.0123754665255547e-03</internalNodes>
          <leafValues>
            3.8719713687896729e-01 -8.9717194437980652e-02</leafValues></_>
        <_>
          <internalNodes>
            0 -1 842 3.6350139416754246e-03</internalNodes>
          <leafValues>
            6.6413506865501404e-02 -4.8185935616493225e-01</leafValues></_>
        <_>
          <internalNodes>
            0 -1 452 -1.3544321991503239e-03</internalNodes>
          <leafValues>
            2.5372084975242615e-01 -1.2267075479030609e-01</leafValues></_>
        <_>
          <internalNodes>
            0 -1 827 -3.1020103488117456e-03</internalNodes>
          <leafValues>
            2.7389132976531982e-01 -1.1379010230302811e-01</leafValues></_>
        <_>
          <internalNodes>
            0 -1 767 1.5349574387073517e-03</internalNodes>
          <leafValues>
            -1.0861707478761673e-01 2.8958576917648315e-01</leafValues></_>
        <_>
          <internalNodes>
            0 -1 170 6.4284317195415497e-03</internalNodes>
          <leafValues>
            5.9735804796218872e-02 -5.6773471832275391e-01</leafValues></_>
        <_>
          <internalNodes>
            0 -1 280 -8.9295972138643265e-03</internalNodes>
          <leafValues>
            -6.7040807008743286e-01 3.8283705711364746e-02</leafValues></_>
        <_>
          <internalNodes>
            0 -1 764 -1.7896143253892660e-03</internalNodes>
          <leafValues>
            2.1716582775115967e-01 -1.4856858551502228e-01</leafValues></_>
        <_>
          <internalNodes>
            0 -1 523 6.2072295695543289e-03</internalNodes>
          <leafValues>
            -8.8489770889282227e-02 3.3571973443031311e-01</leafValues></_>
        <_>
          <internalNodes>
            0 -1 526 1.9034199649468064e-03</internalNodes>
          <leafValues>
            6.7696519196033478e-02 -4.5386880636215210e-01</leafValues></_>
        <_>
          <internalNodes>
            0 -1 524 -2.1953256800770760e-03</internalNodes>
          <leafValues>
            -4.2716285586357117e-01 6.5683454275131226e-02</leafValues></_>
        <_>
          <internalNodes>
            0 -1 215 5.3394897840917110e-03</internalNodes>
          <leafValues>
            -1.0160661488771439e-01 2.9586192965507507e-01</leafValues></_>
        <_>
          <internalNodes>
            0 -1 763 2.0328685641288757e-03</internalNodes>
          <leafValues>
            -9.5586851239204407e-02 3.0505907535552979e-01</leafValues></_>
        <_>
          <internalNodes>
            0 -1 160 4.3488927185535431e-03</internalNodes>
          <leafValues>
            7.9764112830162048e-02 -3.8651520013809204e-01</leafValues></_>
        <_>
          <internalNodes>
            0 -1 518 -4.0209172293543816e-03</internalNodes>
          <leafValues>
            3.0502754449844360e-01 -8.9127995073795319e-02</leafValues></_>
        <_>
          <internalNodes>
            0 -1 234 -4.8844739794731140e-02</internalNodes>
          <leafValues>
            4.2813199758529663e-01 -6.7647248506546021e-02</leafValues></_>
        <_>
          <internalNodes>
            0 -1 360 6.9915860891342163e-02</internalNodes>
          <leafValues>
            -8.3985306322574615e-02 3.2602414488792419e-01</leafValues></_>
        <_>
          <internalNodes>
            0 -1 535 4.9919363111257553e-02</internalNodes>
          <leafValues>
            -7.2998367249965668e-02 4.6169292926788330e-01</leafValues></_>
        <_>
          <internalNodes>
            0 -1 606 3.0068659689277411e-03</internalNodes>
          <leafValues>
            5.5069219321012497e-02 -6.1965858936309814e-01</leafValues></_>
        <_>
          <internalNodes>
            0 -1 158 1.7419853247702122e-03</internalNodes>
          <leafValues>
            -8.2020215690135956e-02 3.6006987094879150e-01</leafValues></_>
        <_>
          <internalNodes>
            0 -1 168 -4.1090780869126320e-03</internalNodes>
          <leafValues>
            -5.2174150943756104e-01 5.6436747312545776e-02</leafValues></_>
        <_>
          <internalNodes>
            0 -1 665 -4.5902859419584274e-03</internalNodes>
          <leafValues>
            2.2742575407028198e-01 -1.2061754614114761e-01</leafValues></_>
        <_>
          <internalNodes>
            0 -1 27 -2.8690489009022713e-02</internalNodes>
          <leafValues>
            -3.5808193683624268e-01 7.5659923255443573e-02</leafValues></_>
        <_>
          <internalNodes>
            0 -1 926 4.1000463068485260e-02</internalNodes>
          <leafValues>
            -6.2531292438507080e-02 4.5491513609886169e-01</leafValues></_>
        <_>
          <internalNodes>
            0 -1 126 -4.2531453073024750e-03</internalNodes>
          <leafValues>
            -6.1825770139694214e-01 4.9510892480611801e-02</leafValues></_>
        <_>
          <internalNodes>
            0 -1 670 -1.4550488442182541e-02</internalNodes>
          <leafValues>
            -7.7191162109375000e-01 2.5961024686694145e-02</leafValues></_>
        <_>
          <internalNodes>
            0 -1 288 -7.4881664477288723e-04</internalNodes>
          <leafValues>
            2.8547286987304688e-01 -8.8079601526260376e-02</leafValues></_>
        <_>
          <internalNodes>
            0 -1 337 1.3214498758316040e-03</internalNodes>
          <leafValues>
            -7.6633729040622711e-02 3.7057441473007202e-01</leafValues></_>
        <_>
          <internalNodes>
            0 -1 455 5.3907292895019054e-03</internalNodes>
          <leafValues>
            4.9379035830497742e-02 -5.7583230733871460e-01</leafValues></_>
        <_>
          <internalNodes>
            0 -1 838 -2.4113813415169716e-03</internalNodes>
          <leafValues>
            2.0829583704471588e-01 -1.3430447876453400e-01</leafValues></_>
        <_>
          <internalNodes>
            0 -1 87 1.1464932933449745e-02</internalNodes>
          <leafValues>
            4.9434442073106766e-02 -6.5971946716308594e-01</leafValues></_>
        <_>
          <internalNodes>
            0 -1 486 -1.3421529904007912e-02</internalNodes>
          <leafValues>
            -7.4524301290512085e-01 2.5121277198195457e-02</leafValues></_>
        <_>
          <internalNodes>
            0 -1 910 2.8626890853047371e-03</internalNodes>
          <leafValues>
            6.1505425721406937e-02 -3.5306212306022644e-01</leafValues></_>
        <_>
          <internalNodes>
            0 -1 416 1.1442219838500023e-02</internalNodes>
          <leafValues>
            5.3547207266092300e-02 -4.0409806370735168e-01</leafValues></_>
        <_>
          <internalNodes>
            0 -1 538 5.7390062138438225e-03</internalNodes>
          <leafValues>
            -9.7106143832206726e-02 2.4726873636245728e-01</leafValues></_>
        <_>
          <internalNodes>
            0 -1 485 -1.3369014486670494e-02</internalNodes>
          <leafValues>
            3.4151887893676758e-01 -9.5434606075286865e-02</leafValues></_>
        <_>
          <internalNodes>
            0 -1 611 3.3499381970614195e-03</internalNodes>
          <leafValues>
            4.9335762858390808e-02 -4.9601793289184570e-01</leafValues></_>
        <_>
          <internalNodes>
            0 -1 281 1.2374855577945709e-02</internalNodes>
          <leafValues>
            -5.7205036282539368e-02 5.0581747293472290e-01</leafValues></_>
        <_>
          <internalNodes>
            0 -1 500 2.7577474713325500e-02</internalNodes>
          <leafValues>
            -8.7777808308601379e-02 2.9972809553146362e-01</leafValues></_>
        <_>
          <internalNodes>
            0 -1 43 2.1137124300003052e-01</internalNodes>
          <leafValues>
            -6.2023047357797623e-02 4.0350961685180664e-01</leafValues></_>
        <_>
          <internalNodes>
            0 -1 221 -3.5103857517242432e-02</internalNodes>
          <leafValues>
            2.9696103930473328e-01 -8.2776337862014771e-02</leafValues></_>
        <_>
          <internalNodes>
            0 -1 292 -2.8949903789907694e-03</internalNodes>
          <leafValues>
            -3.7250569462776184e-01 6.6616289317607880e-02</leafValues></_>
        <_>
          <internalNodes>
            0 -1 511 3.6181407049298286e-03</internalNodes>
          <leafValues>
            -9.3407385051250458e-02 2.5402054190635681e-01</leafValues></_>
        <_>
          <internalNodes>
            0 -1 445 1.1848636902868748e-02</internalNodes>
          <leafValues>
            -8.2135058939456940e-02 2.9939675331115723e-01</leafValues></_>
        <_>
          <internalNodes>
            0 -1 438 -1.0207802988588810e-02</internalNodes>
          <leafValues>
            2.1719035506248474e-01 -1.1622364073991776e-01</leafValues></_>
        <_>
          <internalNodes>
            0 -1 257 3.0942540615797043e-02</internalNodes>
          <leafValues>
            4.5177377760410309e-02 -5.0523322820663452e-01</leafValues></_>
        <_>
          <internalNodes>
            0 -1 16 -3.1778869032859802e-01</internalNodes>
          <leafValues>
            -8.8358139991760254e-01 2.1195204928517342e-02</leafValues></_>
        <_>
          <internalNodes>
            0 -1 513 -1.0037058964371681e-02</internalNodes>
          <leafValues>
            -5.8986192941665649e-01 3.0863022431731224e-02</leafValues></_>
        <_>
          <internalNodes>
            0 -1 888 9.1691948473453522e-03</internalNodes>
          <leafValues>
            -6.4322948455810547e-02 3.7386918067932129e-01</leafValues></_>
        <_>
          <internalNodes>
            0 -1 658 1.3658402487635612e-02</internalNodes>
          <leafValues>
            -1.0158041864633560e-01 2.6782375574111938e-01</leafValues></_>
        <_>
          <internalNodes>
            0 -1 309 2.7183804195374250e-03</internalNodes>
          <leafValues>
            5.5635135620832443e-02 -3.9148023724555969e-01</leafValues></_>
        <_>
          <internalNodes>
            0 -1 310 1.3893332798033953e-03</internalNodes>
          <leafValues>
            -1.2399668246507645e-01 1.7072468996047974e-01</leafValues></_>
        <_>
          <internalNodes>
            0 -1 283 -1.8156928941607475e-02</internalNodes>
          <leafValues>
            -6.3868224620819092e-01 3.4263785928487778e-02</leafValues></_>
        <_>
          <internalNodes>
            0 -1 408 6.4471308141946793e-03</internalNodes>
          <leafValues>
            1.8927905708551407e-02 -8.5299736261367798e-01</leafValues></_>
        <_>
          <internalNodes>
            0 -1 44 1.4844031073153019e-02</internalNodes>
          <leafValues>
            -1.2482391297817230e-01 1.7663741111755371e-01</leafValues></_>
        <_>
          <internalNodes>
            0 -1 50 -1.9531816244125366e-02</internalNodes>
          <leafValues>
            3.1519362330436707e-01 -8.2499116659164429e-02</leafValues></_>
        <_>
          <internalNodes>
            0 -1 90 2.2133110091090202e-02</internalNodes>
          <leafValues>
            -9.0632885694503784e-02 2.2813312709331512e-01</leafValues></_>
        <_>
          <internalNodes>
            0 -1 119 -5.8851181529462337e-03</internalNodes>
          <leafValues>
            2.0633347332477570e-01 -1.1403661221265793e-01</leafValues></_>
        <_>
          <internalNodes>
            0 -1 773 1.4685674104839563e-03</internalNodes>
          <leafValues>
            -6.8528242409229279e-02 3.6765024065971375e-01</leafValues></_>
        <_>
          <internalNodes>
            0 -1 856 -5.6167589500546455e-03</internalNodes>
          <leafValues>
            2.1468248963356018e-01 -1.1975194513797760e-01</leafValues></_>
        <_>
          <internalNodes>
            0 -1 530 -1.0915055871009827e-01</internalNodes>
          <leafValues>
            4.9222618341445923e-01 -4.6790093183517456e-02</leafValues></_>
        <_>
          <internalNodes>
            0 -1 638 -4.3774135410785675e-03</internalNodes>
          <leafValues>
            2.6555654406547546e-01 -8.1355758011341095e-02</leafValues></_>
        <_>
          <internalNodes>
            0 -1 97 -5.5184490047395229e-03</internalNodes>
          <leafValues>
            -4.7854590415954590e-01 4.9387764185667038e-02</leafValues></_>
        <_>
          <internalNodes>
            0 -1 646 -1.8072805833071470e-03</internalNodes>
          <leafValues>
            -6.4401823282241821e-01 3.1085403636097908e-02</leafValues></_></weakClassifiers></_>
    <!-- stage 8 -->
    <_>
      <maxWeakCount>91</maxWeakCount>
      <stageThreshold>-1.5610778331756592e+00</stageThreshold>
      <weakClassifiers>
        <_>
          <internalNodes>
            0 -1 821 -1.1308195069432259e-02</internalNodes>
          <leafValues>
            6.4171379804611206e-01 6.3050843775272369e-02</leafValues></_>
        <_>
          <internalNodes>
            0 -1 454 -1.6007030382752419e-02</internalNodes>
          <leafValues>
            4.6389564871788025e-01 -1.2460056692361832e-01</leafValues></_>
        <_>
          <internalNodes>
            0 -1 782 1.5086517669260502e-03</internalNodes>
          <leafValues>
            -1.4270767569541931e-01 3.3293032646179199e-01</leafValues></_>
        <_>
          <internalNodes>
            0 -1 207 -5.5297352373600006e-02</internalNodes>
          <leafValues>
            4.7708284854888916e-01 -1.1913372576236725e-01</leafValues></_>
        <_>
          <internalNodes>
            0 -1 209 1.3316229917109013e-02</internalNodes>
          <leafValues>
            -1.6993317008018494e-01 3.8821667432785034e-01</leafValues></_>
        <_>
          <internalNodes>
            0 -1 752 8.1390906125307083e-03</internalNodes>
          <leafValues>
            -1.5329377353191376e-01 2.8196957707405090e-01</leafValues></_>
        <_>
          <internalNodes>
            0 -1 313 -1.5794128412380815e-03</internalNodes>
          <leafValues>
            -4.3692907691001892e-01 1.1585860699415207e-01</leafValues></_>
        <_>
          <internalNodes>
            0 -1 346 -7.4164522811770439e-03</internalNodes>
          <leafValues>
            -7.0102095603942871e-01 3.1883224844932556e-02</leafValues></_>
        <_>
          <internalNodes>
            0 -1 347 2.9237023554742336e-03</internalNodes>
          <leafValues>
            -1.2032959610223770e-01 3.1826072931289673e-01</leafValues></_>
        <_>
          <internalNodes>
            0 -1 412 8.3931483328342438e-02</internalNodes>
          <leafValues>
            -7.1062639355659485e-02 5.1401311159133911e-01</leafValues></_>
        <_>
          <internalNodes>
            0 -1 879 5.1326253451406956e-03</internalNodes>
          <leafValues>
            -1.5315851569175720e-01 2.3686404526233673e-01</leafValues></_>
        <_>
          <internalNodes>
            0 -1 10 1.2808490544557571e-02</internalNodes>
          <leafValues>
            -1.2817305326461792e-01 2.8131189942359924e-01</leafValues></_>
        <_>
          <internalNodes>
            0 -1 327 5.5591724812984467e-02</internalNodes>
          <leafValues>
            -9.7707554697990417e-02 3.7602767348289490e-01</leafValues></_>
        <_>
          <internalNodes>
            0 -1 650 -2.4632480926811695e-03</internalNodes>
          <leafValues>
            -5.5093276500701904e-01 6.5490268170833588e-02</leafValues></_>
        <_>
          <internalNodes>
            0 -1 661 -3.1798938289284706e-03</internalNodes>
          <leafValues>
            -5.6288594007492065e-01 5.3227964788675308e-02</leafValues></_>
        <_>
          <internalNodes>
            0 -1 652 -1.4345918316394091e-03</internalNodes>
          <leafValues>
            -5.1232701539993286e-01 5.7506360113620758e-02</leafValues></_>
        <_>
          <internalNodes>
            0 -1 861 1.9692238420248032e-03</internalNodes>
          <leafValues>
            -1.6736923158168793e-01 1.8856795132160187e-01</leafValues></_>
        <_>
          <internalNodes>
            0 -1 261 -5.5519137531518936e-03</internalNodes>
          <leafValues>
            -5.2823477983474731e-01 5.2204202860593796e-02</leafValues></_>
        <_>
          <internalNodes>
            0 -1 342 3.1600738875567913e-03</internalNodes>
          <leafValues>
            -8.0669216811656952e-02 3.6808264255523682e-01</leafValues></_>
        <_>
          <internalNodes>
            0 -1 144 7.3207332752645016e-03</internalNodes>
          <leafValues>
            5.4134551435709000e-02 -5.3350186347961426e-01</leafValues></_>
        <_>
          <internalNodes>
            0 -1 303 3.5804554354399443e-03</internalNodes>
          <leafValues>
            4.3425790965557098e-02 -5.3225243091583252e-01</leafValues></_>
        <_>
          <internalNodes>
            0 -1 368 -3.4314931835979223e-03</internalNodes>
          <leafValues>
            3.3590000867843628e-01 -7.8590616583824158e-02</leafValues></_>
        <_>
          <internalNodes>
            0 -1 958 6.8407682701945305e-03</internalNodes>
          <leafValues>
            4.5175880193710327e-02 -6.1210322380065918e-01</leafValues></_>
        <_>
          <internalNodes>
            0 -1 957 -4.1379006579518318e-03</internalNodes>
          <leafValues>
            -5.3888756036758423e-01 4.4202055782079697e-02</leafValues></_>
        <_>
          <internalNodes>
            0 -1 350 1.3155659660696983e-02</internalNodes>
          <leafValues>
            -7.9103693366050720e-02 3.3573821187019348e-01</leafValues></_>
        <_>
          <internalNodes>
            0 -1 356 3.1921269837766886e-03</internalNodes>
          <leafValues>
            5.7063572108745575e-02 -5.0549602508544922e-01</leafValues></_>
        <_>
          <internalNodes>
            0 -1 906 2.3588772863149643e-02</internalNodes>
          <leafValues>
            -8.3102487027645111e-02 3.0777907371520996e-01</leafValues></_>
        <_>
          <internalNodes>
            0 -1 464 -6.1599123291671276e-03</internalNodes>
          <leafValues>
            1.6074487566947937e-01 -1.5700389444828033e-01</leafValues></_>
        <_>
          <internalNodes>
            0 -1 830 6.4594233408570290e-03</internalNodes>
          <leafValues>
            -9.5241472125053406e-02 3.0516397953033447e-01</leafValues></_>
        <_>
          <internalNodes>
            0 -1 581 -2.0677673164755106e-03</internalNodes>
          <leafValues>
            -5.0822901725769043e-01 5.9834387153387070e-02</leafValues></_>
        <_>
          <internalNodes>
            0 -1 872 2.0666117779910564e-03</internalNodes>
          <leafValues>
            -7.2401538491249084e-02 3.5851547122001648e-01</leafValues></_>
        <_>
          <internalNodes>
            0 -1 231 5.3266487084329128e-03</internalNodes>
          <leafValues>
            5.4928623139858246e-02 -4.8396179080009460e-01</leafValues></_>
        <_>
          <internalNodes>
            0 -1 930 -7.7358852140605450e-03</internalNodes>
          <leafValues>
            -4.8261037468910217e-01 4.4207476079463959e-02</leafValues></_>
        <_>
          <internalNodes>
            0 -1 909 7.9007837921380997e-03</internalNodes>
          <leafValues>
            -9.4954080879688263e-02 2.7517431974411011e-01</leafValues></_>
        <_>
          <internalNodes>
            0 -1 470 4.0566008538007736e-03</internalNodes>
          <leafValues>
            4.3646700680255890e-02 -5.8921122550964355e-01</leafValues></_>
        <_>
          <internalNodes>
            0 -1 245 3.5946490243077278e-03</internalNodes>
          <leafValues>
            -1.3110473752021790e-01 1.8304315209388733e-01</leafValues></_>
        <_>
          <internalNodes>
            0 -1 206 -2.6677086949348450e-02</internalNodes>
          <leafValues>
            2.8980365395545959e-01 -8.3346247673034668e-02</leafValues></_>
        <_>
          <internalNodes>
            0 -1 213 5.4062507115304470e-03</internalNodes>
          <leafValues>
            -9.1766953468322754e-02 2.9673796892166138e-01</leafValues></_>
        <_>
          <internalNodes>
            0 -1 230 -5.1793372258543968e-03</internalNodes>
          <leafValues>
            -6.1112493276596069e-01 4.3332517147064209e-02</leafValues></_>
        <_>
          <internalNodes>
            0 -1 397 -9.1262701898813248e-03</internalNodes>
          <leafValues>
            2.1878185868263245e-01 -1.1105874925851822e-01</leafValues></_>
        <_>
          <internalNodes>
            0 -1 387 9.5943324267864227e-03</internalNodes>
          <leafValues>
            -8.7977558374404907e-02 3.2010060548782349e-01</leafValues></_>
        <_>
          <internalNodes>
            0 -1 668 -5.0256419926881790e-03</internalNodes>
          <leafValues>
            2.1040959656238556e-01 -1.0872460156679153e-01</leafValues></_>
        <_>
          <internalNodes>
            0 -1 681 3.0062482692301273e-03</internalNodes>
          <leafValues>
            -1.0699967294931412e-01 2.9316556453704834e-01</leafValues></_>
        <_>
          <internalNodes>
            0 -1 744 1.1852329596877098e-02</internalNodes>
          <leafValues>
            3.9550069719552994e-02 -6.0533910989761353e-01</leafValues></_>
        <_>
          <internalNodes>
            0 -1 533 -5.2753865718841553e-02</internalNodes>
          <leafValues>
            2.6370123028755188e-01 -9.2691496014595032e-02</leafValues></_>
        <_>
          <internalNodes>
            0 -1 446 3.8847257383167744e-03</internalNodes>
          <leafValues>
            6.4825706183910370e-02 -4.1523045301437378e-01</leafValues></_>
        <_>
          <internalNodes>
            0 -1 556 -2.6287192013114691e-03</internalNodes>
          <leafValues>
            -5.0846499204635620e-01 4.2991567403078079e-02</leafValues></_>
        <_>
          <internalNodes>
            0 -1 330 2.2053448483347893e-03</internalNodes>
          <leafValues>
            -1.0581049323081970e-01 2.3079065978527069e-01</leafValues></_>
        <_>
          <internalNodes>
            0 -1 552 -3.7466879002749920e-03</internalNodes>
          <leafValues>
            -5.2957397699356079e-01 4.6158149838447571e-02</leafValues></_>
        <_>
          <internalNodes>
            0 -1 501 -2.9029445722699165e-03</internalNodes>
          <leafValues>
            -4.1290035843849182e-01 5.1479596644639969e-02</leafValues></_>
        <_>
          <internalNodes>
            0 -1 13 3.7801317870616913e-02</internalNodes>
          <leafValues>
            -1.0680335760116577e-01 2.2418104112148285e-01</leafValues></_>
        <_>
          <internalNodes>
            0 -1 73 -8.4752835333347321e-02</internalNodes>
          <leafValues>
            -7.8421443700790405e-01 3.0642487108707428e-02</leafValues></_>
        <_>
          <internalNodes>
            0 -1 619 9.6596507355570793e-03</internalNodes>
          <leafValues>
            -9.7389675676822662e-02 2.4497544765472412e-01</leafValues></_>
        <_>
          <internalNodes>
            0 -1 519 7.2564175352454185e-03</internalNodes>
          <leafValues>
            -9.8195895552635193e-02 2.9686492681503296e-01</leafValues></_>
        <_>
          <internalNodes>
            0 -1 33 -1.0029030963778496e-02</internalNodes>
          <leafValues>
            -5.6505876779556274e-01 4.1911888867616653e-02</leafValues></_>
        <_>
          <internalNodes>
            0 -1 540 -9.7039304673671722e-03</internalNodes>
          <leafValues>
            2.1148304641246796e-01 -1.0376640409231186e-01</leafValues></_>
        <_>
          <internalNodes>
            0 -1 425 -1.8890092615038157e-03</internalNodes>
          <leafValues>
            2.2384525835514069e-01 -1.0597650706768036e-01</leafValues></_>
        <_>
          <internalNodes>
            0 -1 587 -1.4225458726286888e-03</internalNodes>
          <leafValues>
            2.1189780533313751e-01 -1.1053096503019333e-01</leafValues></_>
        <_>
          <internalNodes>
            0 -1 301 4.3249968439340591e-03</internalNodes>
          <leafValues>
