<?xml version="1.0"?>
<!----------------------------------------------------------------------------
 A frontal cat face detector using the basic set of Haar features, i.e.
 horizontal and vertical features but not diagonal features.

 Contributed by Joseph Howse (josephhowse@nummist.com).

 More information can be found in the following publications and
 presentations:

 Joseph Howse. OpenCV for Secret Agents (book). Packt Publishing, January
   2015.
 Joseph Howse. "Training Detectors and Recognizers in Python and OpenCV"
   (tutorial). ISMAR 2014. September 9, 2014.
   http://nummist.com/opencv/Howse_ISMAR_20140909.pdf
 Joseph Howse. "Training Intelligent Camera Systems with Python and OpenCV"
   (webcast). O’Reilly Media. June 17, 2014.
   http://www.oreilly.com/pub/e/3077

 Build scripts and demo applications can be found in the following repository:
 https://bitbucket.org/Joe_Howse/angora-blue

 KNOWN LIMITATIONS:

<<<<<<< HEAD
 Sometimes, the detector mistakenly thinks that a human face is a cat face. In
 situations where either a human or a cat might be encountered, use both a
 human face detector and a cat face detector. Then, if a detected human face
 and a detected cat face intersect, reject the cat face.

=======
>>>>>>> origin/master
 An upright subject is assumed. In situations where the cat's face might be
 sideways or upside down (e.g. the cat is rolling over), try various rotations
 of the input image.

<<<<<<< HEAD
=======
 CHANGELOG:

 2016-08-06: Re-trained with more negative samples and more stages. False
   positives are much rarer now. If you tailored your code for the cascade's
   previous version, now you should re-adjust the arguments of
   CascadeClassifier::detectMultiScale. For example, decrease the value of the
   minNeighbors argument. You do not need to use a human face detector to
   cross-check the positives anymore.
 2014-04-25: First release (at https://bitbucket.org/Joe_Howse/angora-blue)

>>>>>>> origin/master
 //////////////////////////////////////////////////////////////////////////
 | Contributors License Agreement
 | IMPORTANT: READ BEFORE DOWNLOADING, COPYING, INSTALLING OR USING.
 |   By downloading, copying, installing or using the software you agree
 |   to this license.
 |   If you do not agree to this license, do not download, install,
 |   copy or use the software.
 |
<<<<<<< HEAD
 | Copyright (c) 2014, Joseph Howse (Nummist Media Corporation Limited,
=======
 | Copyright (c) 2014-2016, Joseph Howse (Nummist Media Corporation Limited,
>>>>>>> origin/master
 | Halifax, Nova Scotia, Canada). All rights reserved.
 |
 | Redistribution and use in source and binary forms, with or without
 | modification, are permitted provided that the following conditions are
 | met:
 |
 |    * Redistributions of source code must retain the above copyright
 |       notice, this list of conditions and the following disclaimer.
 |    * Redistributions in binary form must reproduce the above
 |      copyright notice, this list of conditions and the following
 |      disclaimer in the documentation and/or other materials provided
 |      with the distribution.
 |    * The name of Contributor may not used to endorse or promote products
 |      derived from this software without specific prior written permission.
 |
 | THIS SOFTWARE IS PROVIDED BY THE COPYRIGHT HOLDERS AND CONTRIBUTORS
 | "AS IS" AND ANY EXPRESS OR IMPLIED WARRANTIES, INCLUDING, BUT NOT
 | LIMITED TO, THE IMPLIED WARRANTIES OF MERCHANTABILITY AND FITNESS FOR
 | A PARTICULAR PURPOSE ARE DISCLAIMED. IN NO EVENT SHALL THE
 | CONTRIBUTORS BE LIABLE FOR ANY DIRECT, INDIRECT, INCIDENTAL, SPECIAL,
 | EXEMPLARY, OR CONSEQUENTIAL DAMAGES (INCLUDING, BUT NOT LIMITED TO,
 | PROCUREMENT OF SUBSTITUTE GOODS OR SERVICES; LOSS OF USE, DATA, OR
 | PROFITS; OR BUSINESS INTERRUPTION) HOWEVER CAUSED AND ON ANY THEORY OF
 | LIABILITY, WHETHER IN CONTRACT, STRICT LIABILITY, OR TORT (INCLUDING
 | NEGLIGENCE OR OTHERWISE) ARISING IN ANY WAY OUT OF THE USE OF THIS
 | SOFTWARE, EVEN IF ADVISED OF THE POSSIBILITY OF SUCH DAMAGE.  Back to
 | Top
 //////////////////////////////////////////////////////////////////////////
 ---------------------------------------------------------------------------->
<opencv_storage>
<cascade>
  <stageType>BOOST</stageType>
  <featureType>HAAR</featureType>
  <height>24</height>
  <width>24</width>
  <stageParams>
    <boostType>GAB</boostType>
<<<<<<< HEAD
    <minHitRate>9.9900001287460327e-01</minHitRate>
=======
    <minHitRate>9.9500000476837158e-01</minHitRate>
>>>>>>> origin/master
    <maxFalseAlarm>5.0000000000000000e-01</maxFalseAlarm>
    <weightTrimRate>9.4999999999999996e-01</weightTrimRate>
    <maxDepth>1</maxDepth>
    <maxWeakCount>100</maxWeakCount></stageParams>
  <featureParams>
    <maxCatCount>0</maxCatCount>
    <featSize>1</featSize>
    <mode>BASIC</mode></featureParams>
<<<<<<< HEAD
  <stageNum>15</stageNum>
  <stages>
    <!-- stage 0 -->
    <_>
      <maxWeakCount>25</maxWeakCount>
      <stageThreshold>-1.7760953903198242e+00</stageThreshold>
      <weakClassifiers>
        <_>
          <internalNodes>
            0 -1 445 -1.4772760681807995e-02</internalNodes>
          <leafValues>
            8.4035199880599976e-01 -1.2701500952243805e-01</leafValues></_>
        <_>
          <internalNodes>
            0 -1 792 4.5831585302948952e-03</internalNodes>
          <leafValues>
            -2.3791725933551788e-01 6.1978793144226074e-01</leafValues></_>
        <_>
          <internalNodes>
            0 -1 813 -1.5044892206788063e-02</internalNodes>
          <leafValues>
            5.7160794734954834e-01 -2.0493283867835999e-01</leafValues></_>
        <_>
          <internalNodes>
            0 -1 367 -1.2275323271751404e-02</internalNodes>
          <leafValues>
            5.7243120670318604e-01 -1.9821420311927795e-01</leafValues></_>
        <_>
          <internalNodes>
            0 -1 842 8.3929381798952818e-04</internalNodes>
          <leafValues>
            -2.7865329384803772e-01 4.3508478999137878e-01</leafValues></_>
        <_>
          <internalNodes>
            0 -1 231 1.5758406370878220e-02</internalNodes>
          <leafValues>
            -2.2696593403816223e-01 4.9478942155838013e-01</leafValues></_>
        <_>
          <internalNodes>
            0 -1 581 5.0025805830955505e-02</internalNodes>
          <leafValues>
            -1.5532729029655457e-01 6.8103748559951782e-01</leafValues></_>
        <_>
          <internalNodes>
            0 -1 727 1.3194808736443520e-02</internalNodes>
          <leafValues>
            -1.7704419791698456e-01 5.8701574802398682e-01</leafValues></_>
        <_>
          <internalNodes>
            0 -1 5 2.8080096468329430e-02</internalNodes>
          <leafValues>
            -1.6797901690006256e-01 5.7502186298370361e-01</leafValues></_>
        <_>
          <internalNodes>
            0 -1 704 2.1941341459751129e-02</internalNodes>
          <leafValues>
            -1.4689344167709351e-01 5.2395468950271606e-01</leafValues></_>
        <_>
          <internalNodes>
            0 -1 279 -4.7663945704698563e-02</internalNodes>
          <leafValues>
            6.5710687637329102e-01 -1.1819842457771301e-01</leafValues></_>
        <_>
          <internalNodes>
            0 -1 278 3.5373851656913757e-02</internalNodes>
          <leafValues>
            -9.7323395311832428e-02 7.4618083238601685e-01</leafValues></_>
        <_>
          <internalNodes>
            0 -1 254 1.4257467410061508e-04</internalNodes>
          <leafValues>
            -2.8882622718811035e-01 2.8288537263870239e-01</leafValues></_>
        <_>
          <internalNodes>
            0 -1 253 3.8169793784618378e-02</internalNodes>
          <leafValues>
            -1.4375060796737671e-01 4.9739924073219299e-01</leafValues></_>
        <_>
          <internalNodes>
            0 -1 142 6.5595638006925583e-03</internalNodes>
          <leafValues>
            1.2217019498348236e-01 -6.4208990335464478e-01</leafValues></_>
        <_>
          <internalNodes>
            0 -1 753 -7.5260535813868046e-03</internalNodes>
          <leafValues>
            -7.7927684783935547e-01 8.4750138223171234e-02</leafValues></_>
        <_>
          <internalNodes>
            0 -1 754 1.1342750862240791e-02</internalNodes>
          <leafValues>
            -2.2101284563541412e-01 3.4454554319381714e-01</leafValues></_>
        <_>
          <internalNodes>
            0 -1 645 -1.8045576289296150e-03</internalNodes>
          <leafValues>
            -7.8645682334899902e-01 9.7392335534095764e-02</leafValues></_>
        <_>
          <internalNodes>
            0 -1 457 -6.6228499636054039e-03</internalNodes>
          <leafValues>
            3.1783181428909302e-01 -2.0665900409221649e-01</leafValues></_>
        <_>
          <internalNodes>
            0 -1 50 1.0336233302950859e-02</internalNodes>
          <leafValues>
            9.1840714216232300e-02 -7.7336055040359497e-01</leafValues></_>
        <_>
          <internalNodes>
            0 -1 552 -2.4216776713728905e-02</internalNodes>
          <leafValues>
            3.6742198467254639e-01 -1.9339990615844727e-01</leafValues></_>
        <_>
          <internalNodes>
            0 -1 64 1.4514809474349022e-02</internalNodes>
          <leafValues>
            -1.3652153313159943e-01 4.2311781644821167e-01</leafValues></_>
        <_>
          <internalNodes>
            0 -1 645 2.1728668361902237e-03</internalNodes>
          <leafValues>
            7.9096116125583649e-02 -7.6427251100540161e-01</leafValues></_>
        <_>
          <internalNodes>
            0 -1 467 -3.9529249072074890e-02</internalNodes>
          <leafValues>
            5.7755863666534424e-01 -1.0801278799772263e-01</leafValues></_>
        <_>
          <internalNodes>
            0 -1 640 1.5566367655992508e-02</internalNodes>
          <leafValues>
            -1.0259374976158142e-01 4.9773094058036804e-01</leafValues></_></weakClassifiers></_>
    <!-- stage 1 -->
    <_>
      <maxWeakCount>34</maxWeakCount>
      <stageThreshold>-1.6417213678359985e+00</stageThreshold>
      <weakClassifiers>
        <_>
          <internalNodes>
            0 -1 699 8.2648023962974548e-03</internalNodes>
          <leafValues>
            -1.0913594812154770e-01 7.7392864227294922e-01</leafValues></_>
        <_>
          <internalNodes>
            0 -1 697 1.4094283804297447e-02</internalNodes>
          <leafValues>
            -1.4461971819400787e-01 7.1108609437942505e-01</leafValues></_>
        <_>
          <internalNodes>
            0 -1 4 6.3192001543939114e-03</internalNodes>
          <leafValues>
            -2.3035119473934174e-01 4.4546401500701904e-01</leafValues></_>
        <_>
          <internalNodes>
            0 -1 227 2.0388111472129822e-02</internalNodes>
          <leafValues>
            -2.6455581188201904e-01 3.6559283733367920e-01</leafValues></_>
        <_>
          <internalNodes>
            0 -1 206 1.4826779253780842e-02</internalNodes>
          <leafValues>
            -2.0881411433219910e-01 4.6142515540122986e-01</leafValues></_>
        <_>
          <internalNodes>
            0 -1 821 2.1515905857086182e-02</internalNodes>
          <leafValues>
            -1.4785310626029968e-01 6.4220702648162842e-01</leafValues></_>
        <_>
          <internalNodes>
            0 -1 919 1.4720780309289694e-03</internalNodes>
          <leafValues>
            -2.2546350955963135e-01 3.6676284670829773e-01</leafValues></_>
        <_>
          <internalNodes>
            0 -1 814 -2.6044776663184166e-02</internalNodes>
          <leafValues>
            4.1465434432029724e-01 -1.5356495976448059e-01</leafValues></_>
        <_>
          <internalNodes>
            0 -1 202 -1.0589402168989182e-02</internalNodes>
          <leafValues>
            4.1222676634788513e-01 -1.6899079084396362e-01</leafValues></_>
        <_>
          <internalNodes>
            0 -1 203 6.9683273322880268e-03</internalNodes>
          <leafValues>
            1.0854535549879074e-01 -7.1554762125015259e-01</leafValues></_>
        <_>
          <internalNodes>
            0 -1 326 1.1014346033334732e-02</internalNodes>
          <leafValues>
            -1.7490877211093903e-01 4.4723153114318848e-01</leafValues></_>
        <_>
          <internalNodes>
            0 -1 387 -1.1037060990929604e-02</internalNodes>
          <leafValues>
            4.4173675775527954e-01 -1.3834878802299500e-01</leafValues></_>
        <_>
          <internalNodes>
            0 -1 581 6.2014400959014893e-02</internalNodes>
          <leafValues>
            -1.1345938593149185e-01 6.1101204156875610e-01</leafValues></_>
        <_>
          <internalNodes>
            0 -1 318 6.0412874445319176e-03</internalNodes>
          <leafValues>
            1.0154686868190765e-01 -7.2787815332412720e-01</leafValues></_>
        <_>
          <internalNodes>
            0 -1 281 -5.8582504279911518e-03</internalNodes>
          <leafValues>
            -6.0382944345474243e-01 8.4109157323837280e-02</leafValues></_>
        <_>
          <internalNodes>
            0 -1 885 7.3200068436563015e-04</internalNodes>
          <leafValues>
            -1.6661356389522552e-01 3.7944686412811279e-01</leafValues></_>
        <_>
          <internalNodes>
            0 -1 702 1.9083185121417046e-02</internalNodes>
          <leafValues>
            -1.2449446320533752e-01 4.2328220605850220e-01</leafValues></_>
        <_>
          <internalNodes>
            0 -1 978 6.8236114457249641e-03</internalNodes>
          <leafValues>
            1.0009460896253586e-01 -5.7412278652191162e-01</leafValues></_>
        <_>
          <internalNodes>
            0 -1 655 -8.0357380211353302e-03</internalNodes>
          <leafValues>
            3.5114383697509766e-01 -1.5984705090522766e-01</leafValues></_>
        <_>
          <internalNodes>
            0 -1 476 5.3236715495586395e-02</internalNodes>
          <leafValues>
            -1.1999151855707169e-01 4.5052844285964966e-01</leafValues></_>
        <_>
          <internalNodes>
            0 -1 380 -2.5083746761083603e-02</internalNodes>
          <leafValues>
            4.2925071716308594e-01 -1.3847301900386810e-01</leafValues></_>
        <_>
          <internalNodes>
            0 -1 834 -7.7097099274396896e-03</internalNodes>
          <leafValues>
            4.2245966196060181e-01 -1.4710718393325806e-01</leafValues></_>
        <_>
          <internalNodes>
            0 -1 22 1.1426717042922974e-02</internalNodes>
          <leafValues>
            7.3091737926006317e-02 -7.6901757717132568e-01</leafValues></_>
        <_>
          <internalNodes>
            0 -1 980 -4.7868257388472557e-03</internalNodes>
          <leafValues>
            -5.4498624801635742e-01 8.9874587953090668e-02</leafValues></_>
        <_>
          <internalNodes>
            0 -1 797 9.9204876460134983e-04</internalNodes>
          <leafValues>
            -1.5133780241012573e-01 3.5266080498695374e-01</leafValues></_>
        <_>
          <internalNodes>
            0 -1 747 -7.3156114667654037e-03</internalNodes>
          <leafValues>
            -7.7262216806411743e-01 7.4858717620372772e-02</leafValues></_>
        <_>
          <internalNodes>
            0 -1 239 5.6915655732154846e-03</internalNodes>
          <leafValues>
            5.7124871760606766e-02 -6.7257982492446899e-01</leafValues></_>
        <_>
          <internalNodes>
            0 -1 854 -9.5818340778350830e-03</internalNodes>
          <leafValues>
            3.5280853509902954e-01 -1.5295246243476868e-01</leafValues></_>
        <_>
          <internalNodes>
            0 -1 155 2.3029895499348640e-02</internalNodes>
          <leafValues>
            8.0654025077819824e-02 -6.6331261396408081e-01</leafValues></_>
        <_>
          <internalNodes>
            0 -1 63 8.3062853664159775e-03</internalNodes>
          <leafValues>
            -1.8261365592479706e-01 2.9241952300071716e-01</leafValues></_>
        <_>
          <internalNodes>
            0 -1 166 1.2940693646669388e-02</internalNodes>
          <leafValues>
            6.2763690948486328e-02 -7.9858863353729248e-01</leafValues></_>
        <_>
          <internalNodes>
            0 -1 855 4.5793736353516579e-03</internalNodes>
          <leafValues>
            -1.6761651635169983e-01 2.8498283028602600e-01</leafValues></_>
        <_>
          <internalNodes>
            0 -1 639 3.1311963684856892e-03</internalNodes>
          <leafValues>
            6.4963281154632568e-02 -7.1869355440139771e-01</leafValues></_>
        <_>
          <internalNodes>
            0 -1 438 6.2793528195470572e-04</internalNodes>
          <leafValues>
            -1.4610730111598969e-01 3.1872764229774475e-01</leafValues></_></weakClassifiers></_>
    <!-- stage 2 -->
    <_>
      <maxWeakCount>47</maxWeakCount>
      <stageThreshold>-1.8195210695266724e+00</stageThreshold>
      <weakClassifiers>
        <_>
          <internalNodes>
            0 -1 389 2.8032548725605011e-02</internalNodes>
          <leafValues>
            3.9794921875000000e-02 7.6527571678161621e-01</leafValues></_>
        <_>
          <internalNodes>
            0 -1 512 -1.3777698390185833e-02</internalNodes>
          <leafValues>
            4.8011425137519836e-01 -2.0891545712947845e-01</leafValues></_>
        <_>
          <internalNodes>
            0 -1 768 -1.5191626735031605e-03</internalNodes>
          <leafValues>
            4.3561527132987976e-01 -1.9825626909732819e-01</leafValues></_>
        <_>
          <internalNodes>
            0 -1 234 5.4982006549835205e-02</internalNodes>
          <leafValues>
            -1.9595552980899811e-01 5.1033991575241089e-01</leafValues></_>
        <_>
          <internalNodes>
            0 -1 2 -3.8968096487224102e-03</internalNodes>
          <leafValues>
            3.6698764562606812e-01 -2.1704223752021790e-01</leafValues></_>
        <_>
          <internalNodes>
            0 -1 875 -1.0689822956919670e-02</internalNodes>
          <leafValues>
            5.7506144046783447e-01 -1.2323237210512161e-01</leafValues></_>
        <_>
          <internalNodes>
            0 -1 423 -3.6211537662893534e-03</internalNodes>
          <leafValues>
            3.9189809560775757e-01 -2.0496053993701935e-01</leafValues></_>
        <_>
          <internalNodes>
            0 -1 368 -5.6232484057545662e-03</internalNodes>
          <leafValues>
            -7.0911335945129395e-01 8.9780956506729126e-02</leafValues></_>
        <_>
          <internalNodes>
            0 -1 311 7.6950237154960632e-02</internalNodes>
          <leafValues>
            -1.6086885333061218e-01 3.9858064055442810e-01</leafValues></_>
        <_>
          <internalNodes>
            0 -1 211 -9.4812046736478806e-03</internalNodes>
          <leafValues>
            4.4439849257469177e-01 -1.4388205111026764e-01</leafValues></_>
        <_>
          <internalNodes>
            0 -1 637 4.8636407591402531e-03</internalNodes>
          <leafValues>
            8.3068624138832092e-02 -7.4362516403198242e-01</leafValues></_>
        <_>
          <internalNodes>
            0 -1 616 -2.9443078674376011e-03</internalNodes>
          <leafValues>
            -6.1576569080352783e-01 8.1917040050029755e-02</leafValues></_>
        <_>
          <internalNodes>
            0 -1 573 -2.0938962697982788e-03</internalNodes>
          <leafValues>
            -5.7727062702178955e-01 9.1147974133491516e-02</leafValues></_>
        <_>
          <internalNodes>
            0 -1 796 2.7704227250069380e-03</internalNodes>
          <leafValues>
            -1.9285553693771362e-01 3.1007087230682373e-01</leafValues></_>
        <_>
          <internalNodes>
            0 -1 386 1.2979362159967422e-02</internalNodes>
          <leafValues>
            -1.4128974080085754e-01 3.8875201344490051e-01</leafValues></_>
        <_>
          <internalNodes>
            0 -1 61 -1.1832339689135551e-02</internalNodes>
          <leafValues>
            -7.8204095363616943e-01 7.2949714958667755e-02</leafValues></_>
        <_>
          <internalNodes>
            0 -1 265 3.3956445753574371e-02</internalNodes>
          <leafValues>
            -1.3892538845539093e-01 3.9772579073905945e-01</leafValues></_>
        <_>
          <internalNodes>
            0 -1 650 4.9063982442021370e-03</internalNodes>
          <leafValues>
            8.1131778657436371e-02 -7.2757917642593384e-01</leafValues></_>
        <_>
          <internalNodes>
            0 -1 649 -2.3896694183349609e-03</internalNodes>
          <leafValues>
            -6.3438212871551514e-01 7.6958425343036652e-02</leafValues></_>
        <_>
          <internalNodes>
            0 -1 27 2.7626976370811462e-02</internalNodes>
          <leafValues>
            -1.7219249904155731e-01 3.7336668372154236e-01</leafValues></_>
        <_>
          <internalNodes>
            0 -1 539 3.9899977855384350e-03</internalNodes>
          <leafValues>
            7.0482976734638214e-02 -6.6334074735641479e-01</leafValues></_>
        <_>
          <internalNodes>
            0 -1 503 -1.3984958641231060e-03</internalNodes>
          <leafValues>
            4.2500507831573486e-01 -1.2214981764554977e-01</leafValues></_>
        <_>
          <internalNodes>
            0 -1 878 1.3496846659108996e-03</internalNodes>
          <leafValues>
            -1.1209741979837418e-01 4.0830954909324646e-01</leafValues></_>
        <_>
          <internalNodes>
            0 -1 709 -3.9141997694969177e-03</internalNodes>
          <leafValues>
            -5.3290998935699463e-01 9.4373866915702820e-02</leafValues></_>
        <_>
          <internalNodes>
            0 -1 153 4.9622595310211182e-02</internalNodes>
          <leafValues>
            -9.4219848513603210e-02 4.9830704927444458e-01</leafValues></_>
        <_>
          <internalNodes>
            0 -1 89 -6.2201134860515594e-02</internalNodes>
          <leafValues>
            5.1749163866043091e-01 -9.4065755605697632e-02</leafValues></_>
        <_>
          <internalNodes>
            0 -1 100 -9.0873138979077339e-03</internalNodes>
          <leafValues>
            -6.6816878318786621e-01 7.1877375245094299e-02</leafValues></_>
        <_>
          <internalNodes>
            0 -1 142 7.8745372593402863e-03</internalNodes>
          <leafValues>
            6.2571905553340912e-02 -6.6562908887863159e-01</leafValues></_>
        <_>
          <internalNodes>
            0 -1 489 6.6907280124723911e-03</internalNodes>
          <leafValues>
            -1.0588129609823227e-01 4.0728682279586792e-01</leafValues></_>
        <_>
          <internalNodes>
            0 -1 811 8.9093092828989029e-03</internalNodes>
          <leafValues>
            -1.3461567461490631e-01 3.1837779283523560e-01</leafValues></_>
        <_>
          <internalNodes>
            0 -1 908 3.9681773632764816e-03</internalNodes>
          <leafValues>
            7.1942776441574097e-02 -6.0182863473892212e-01</leafValues></_>
        <_>
          <internalNodes>
            0 -1 547 1.1530296877026558e-02</internalNodes>
          <leafValues>
            -1.2775546312332153e-01 3.0782708525657654e-01</leafValues></_>
        <_>
          <internalNodes>
            0 -1 497 -3.0327122658491135e-02</internalNodes>
          <leafValues>
            3.6777910590171814e-01 -1.4219322800636292e-01</leafValues></_>
        <_>
          <internalNodes>
            0 -1 765 -8.5609289817512035e-04</internalNodes>
          <leafValues>
            2.3868902027606964e-01 -1.7458973824977875e-01</leafValues></_>
        <_>
          <internalNodes>
            0 -1 30 -8.7312739342451096e-03</internalNodes>
          <leafValues>
            -5.7229250669479370e-01 6.7568361759185791e-02</leafValues></_>
        <_>
          <internalNodes>
            0 -1 515 3.6238119006156921e-02</internalNodes>
          <leafValues>
            -9.3856818974018097e-02 4.3806123733520508e-01</leafValues></_>
        <_>
          <internalNodes>
            0 -1 859 -1.7243899405002594e-02</internalNodes>
          <leafValues>
            3.2672104239463806e-01 -1.2465524673461914e-01</leafValues></_>
        <_>
          <internalNodes>
            0 -1 571 3.0146117787808180e-03</internalNodes>
          <leafValues>
            8.4438301622867584e-02 -4.7965818643569946e-01</leafValues></_>
        <_>
          <internalNodes>
            0 -1 390 -6.5812864340841770e-03</internalNodes>
          <leafValues>
            -6.5075701475143433e-01 5.2506592124700546e-02</leafValues></_>
        <_>
          <internalNodes>
            0 -1 379 -2.6519154198467731e-03</internalNodes>
          <leafValues>
            3.9998021721839905e-01 -1.2199153006076813e-01</leafValues></_>
        <_>
          <internalNodes>
            0 -1 336 2.2568926215171814e-03</internalNodes>
          <leafValues>
            -1.1875165253877640e-01 3.6033150553703308e-01</leafValues></_>
        <_>
          <internalNodes>
            0 -1 342 7.8723561018705368e-03</internalNodes>
          <leafValues>
            6.2930762767791748e-02 -7.2076427936553955e-01</leafValues></_>
        <_>
          <internalNodes>
            0 -1 826 5.7557085528969765e-04</internalNodes>
          <leafValues>
            -1.9064085185527802e-01 1.9888252019882202e-01</leafValues></_>
        <_>
          <internalNodes>
            0 -1 197 -4.9874491989612579e-02</internalNodes>
          <leafValues>
            3.3844900131225586e-01 -1.0514739900827408e-01</leafValues></_>
        <_>
          <internalNodes>
            0 -1 934 -5.1496019586920738e-03</internalNodes>
          <leafValues>
            2.3594251275062561e-01 -1.7097522318363190e-01</leafValues></_>
        <_>
          <internalNodes>
            0 -1 800 -4.2706914246082306e-03</internalNodes>
          <leafValues>
            3.9194715023040771e-01 -9.3349114060401917e-02</leafValues></_>
        <_>
          <internalNodes>
            0 -1 493 -1.0737263411283493e-01</internalNodes>
          <leafValues>
            5.6014204025268555e-01 -6.5082974731922150e-02</leafValues></_></weakClassifiers></_>
    <!-- stage 3 -->
    <_>
      <maxWeakCount>54</maxWeakCount>
      <stageThreshold>-1.6577893495559692e+00</stageThreshold>
      <weakClassifiers>
        <_>
          <internalNodes>
            0 -1 508 -9.3684419989585876e-03</internalNodes>
          <leafValues>
            7.2173911333084106e-01 -1.8106427043676376e-02</leafValues></_>
        <_>
          <internalNodes>
            0 -1 255 1.2989062815904617e-03</internalNodes>
          <leafValues>
            -2.0532198250293732e-01 4.2473095655441284e-01</leafValues></_>
        <_>
          <internalNodes>
            0 -1 795 3.6645986139774323e-02</internalNodes>
          <leafValues>
            -1.6229844093322754e-01 5.1024991273880005e-01</leafValues></_>
        <_>
          <internalNodes>
            0 -1 163 7.4745947495102882e-03</internalNodes>
          <leafValues>
            -2.5622242689132690e-01 3.1706622242927551e-01</leafValues></_>
        <_>
          <internalNodes>
            0 -1 812 -6.4315330237150192e-03</internalNodes>
          <leafValues>
            3.1292220950126648e-01 -2.2839428484439850e-01</leafValues></_>
        <_>
          <internalNodes>
            0 -1 341 3.9290782064199448e-02</internalNodes>
          <leafValues>
            -1.3426035642623901e-01 5.8237910270690918e-01</leafValues></_>
        <_>
          <internalNodes>
            0 -1 459 7.8858569264411926e-02</internalNodes>
          <leafValues>
            -1.5872669219970703e-01 4.5478171110153198e-01</leafValues></_>
        <_>
          <internalNodes>
            0 -1 528 -2.8797138482332230e-02</internalNodes>
          <leafValues>
            5.3397864103317261e-01 -1.1107259988784790e-01</leafValues></_>
        <_>
          <internalNodes>
            0 -1 376 -1.0816241614520550e-02</internalNodes>
          <leafValues>
            4.7242766618728638e-01 -9.8347179591655731e-02</leafValues></_>
        <_>
          <internalNodes>
            0 -1 5 2.8447926044464111e-02</internalNodes>
          <leafValues>
            -1.5696190297603607e-01 3.9995491504669189e-01</leafValues></_>
        <_>
          <internalNodes>
            0 -1 594 -4.1472744196653366e-03</internalNodes>
          <leafValues>
            -6.5492427349090576e-01 8.9378200471401215e-02</leafValues></_>
        <_>
          <internalNodes>
            0 -1 780 3.7436613347381353e-03</internalNodes>
          <leafValues>
            -1.6716095805168152e-01 2.9251593351364136e-01</leafValues></_>
        <_>
          <internalNodes>
            0 -1 958 6.8116746842861176e-03</internalNodes>
          <leafValues>
            8.5507057607173920e-02 -6.0906678438186646e-01</leafValues></_>
        <_>
          <internalNodes>
            0 -1 128 4.9823587760329247e-03</internalNodes>
          <leafValues>
            6.6678501665592194e-02 -5.8637374639511108e-01</leafValues></_>
        <_>
          <internalNodes>
            0 -1 401 4.1811540722846985e-03</internalNodes>
          <leafValues>
            -1.0231449455022812e-01 4.5615595579147339e-01</leafValues></_>
        <_>
          <internalNodes>
            0 -1 162 -1.0445066727697849e-02</internalNodes>
          <leafValues>
            -7.6294642686843872e-01 5.7752605527639389e-02</leafValues></_>
        <_>
          <internalNodes>
            0 -1 315 -6.1920420266687870e-03</internalNodes>
          <leafValues>
            -6.6523051261901855e-01 5.2041802555322647e-02</leafValues></_>
        <_>
          <internalNodes>
            0 -1 925 -2.3358925245702267e-03</internalNodes>
          <leafValues>
            3.2779076695442200e-01 -1.3041152060031891e-01</leafValues></_>
        <_>
          <internalNodes>
            0 -1 314 -5.6658107787370682e-03</internalNodes>
          <leafValues>
            -6.8133842945098877e-01 5.6511644273996353e-02</leafValues></_>
        <_>
          <internalNodes>
            0 -1 819 -1.0911209508776665e-02</internalNodes>
          <leafValues>
            3.3160626888275146e-01 -1.2574554979801178e-01</leafValues></_>
        <_>
          <internalNodes>
            0 -1 765 -1.7958178650587797e-03</internalNodes>
          <leafValues>
            3.0492588877677917e-01 -1.5025834739208221e-01</leafValues></_>
        <_>
          <internalNodes>
            0 -1 961 -4.0859095752239227e-03</internalNodes>
          <leafValues>
            -5.3059929609298706e-01 7.3518328368663788e-02</leafValues></_>
        <_>
          <internalNodes>
            0 -1 232 -2.0980034023523331e-02</internalNodes>
          <leafValues>
            3.0610927939414978e-01 -1.2851184606552124e-01</leafValues></_>
        <_>
          <internalNodes>
            0 -1 452 -7.3018344119191170e-03</internalNodes>
          <leafValues>
            3.7514328956604004e-01 -1.2826474010944366e-01</leafValues></_>
        <_>
          <internalNodes>
            0 -1 465 -2.9183469712734222e-02</internalNodes>
          <leafValues>
            4.8722788691520691e-01 -8.4734588861465454e-02</leafValues></_>
        <_>
          <internalNodes>
            0 -1 609 4.1865529492497444e-03</internalNodes>
          <leafValues>
            7.4395999312400818e-02 -5.8252948522567749e-01</leafValues></_>
        <_>
          <internalNodes>
            0 -1 662 -1.3149678707122803e-02</internalNodes>
          <leafValues>
            2.9923921823501587e-01 -1.3687820732593536e-01</leafValues></_>
        <_>
          <internalNodes>
            0 -1 209 2.3594651371240616e-02</internalNodes>
          <leafValues>
            6.2197674065828323e-02 -6.3622504472732544e-01</leafValues></_>
        <_>
          <internalNodes>
            0 -1 630 -1.7678245902061462e-02</internalNodes>
          <leafValues>
            3.3281046152114868e-01 -1.2175620347261429e-01</leafValues></_>
        <_>
          <internalNodes>
            0 -1 544 -1.0656865313649178e-02</internalNodes>
          <leafValues>
            3.7733754515647888e-01 -1.0491474717855453e-01</leafValues></_>
        <_>
          <internalNodes>
            0 -1 710 5.6399200111627579e-03</internalNodes>
          <leafValues>
            5.4276369512081146e-02 -7.2659504413604736e-01</leafValues></_>
        <_>
          <internalNodes>
            0 -1 536 5.9759367257356644e-02</internalNodes>
          <leafValues>
            -9.3571089208126068e-02 4.3768402934074402e-01</leafValues></_>
        <_>
          <internalNodes>
            0 -1 836 1.5957858413457870e-03</internalNodes>
          <leafValues>
            -7.4856951832771301e-02 4.6114641427993774e-01</leafValues></_>
        <_>
          <internalNodes>
            0 -1 331 -3.4797050058841705e-02</internalNodes>
          <leafValues>
            4.3322169780731201e-01 -1.0314103215932846e-01</leafValues></_>
        <_>
          <internalNodes>
            0 -1 357 7.0810377597808838e-02</internalNodes>
          <leafValues>
            -1.3931407034397125e-01 2.7839028835296631e-01</leafValues></_>
        <_>
          <internalNodes>
            0 -1 688 1.0995890479534864e-03</internalNodes>
          <leafValues>
            8.2519724965095520e-02 -4.6114745736122131e-01</leafValues></_>
        <_>
          <internalNodes>
            0 -1 271 1.1323073413223028e-03</internalNodes>
          <leafValues>
            -1.1879909038543701e-01 3.1659367680549622e-01</leafValues></_>
        <_>
          <internalNodes>
            0 -1 59 2.5819817557930946e-02</internalNodes>
          <leafValues>
            -1.0563226789236069e-01 3.3343997597694397e-01</leafValues></_>
        <_>
          <internalNodes>
            0 -1 127 -3.0109258368611336e-03</internalNodes>
          <leafValues>
            -4.3363004922866821e-01 9.0100899338722229e-02</leafValues></_>
        <_>
          <internalNodes>
            0 -1 738 6.4696911722421646e-03</internalNodes>
          <leafValues>
            4.3469883501529694e-02 -6.7987263202667236e-01</leafValues></_>
        <_>
          <internalNodes>
            0 -1 659 1.6815876588225365e-02</internalNodes>
          <leafValues>
            -9.4611480832099915e-02 3.5600626468658447e-01</leafValues></_>
        <_>
          <internalNodes>
            0 -1 642 -1.0637525469064713e-02</internalNodes>
          <leafValues>
            1.9808849692344666e-01 -1.5571328997612000e-01</leafValues></_>
        <_>
          <internalNodes>
            0 -1 433 -4.1952659375965595e-03</internalNodes>
          <leafValues>
            -5.3476226329803467e-01 6.5039873123168945e-02</leafValues></_>
        <_>
          <internalNodes>
            0 -1 442 -1.5134566929191351e-03</internalNodes>
          <leafValues>
            4.2552566528320312e-01 -8.3483003079891205e-02</leafValues></_>
        <_>
          <internalNodes>
            0 -1 375 -1.1657587019726634e-03</internalNodes>
          <leafValues>
            2.4901403486728668e-01 -1.2862072885036469e-01</leafValues></_>
        <_>
          <internalNodes>
            0 -1 495 5.2369404584169388e-03</internalNodes>
          <leafValues>
            5.4264735430479050e-02 -6.5448409318923950e-01</leafValues></_>
        <_>
          <internalNodes>
            0 -1 325 3.1857702415436506e-03</internalNodes>
          <leafValues>
            -1.0423248261213303e-01 3.4729331731796265e-01</leafValues></_>
        <_>
          <internalNodes>
            0 -1 468 3.2315873540937901e-03</internalNodes>
          <leafValues>
            7.3592320084571838e-02 -4.5663174986839294e-01</leafValues></_>
        <_>
          <internalNodes>
            0 -1 61 8.1546325236558914e-03</internalNodes>
          <leafValues>
            5.8343004435300827e-02 -4.7462043166160583e-01</leafValues></_>
        <_>
          <internalNodes>
            0 -1 261 1.2796278111636639e-02</internalNodes>
          <leafValues>
            -1.0276926308870316e-01 3.4186348319053650e-01</leafValues></_>
        <_>
          <internalNodes>
            0 -1 321 -2.3663226515054703e-02</internalNodes>
          <leafValues>
            2.8974771499633789e-01 -1.2335656583309174e-01</leafValues></_>
        <_>
          <internalNodes>
            0 -1 648 -1.9080806523561478e-03</internalNodes>
          <leafValues>
            -7.0497012138366699e-01 5.8831237256526947e-02</leafValues></_>
        <_>
          <internalNodes>
            0 -1 633 3.0501103028655052e-03</internalNodes>
          <leafValues>
            5.1351051777601242e-02 -5.2438431978225708e-01</leafValues></_>
        <_>
          <internalNodes>
            0 -1 204 -4.1300453245639801e-02</internalNodes>
          <leafValues>
            -4.2261663079261780e-01 6.5464369952678680e-02</leafValues></_></weakClassifiers></_>
    <!-- stage 4 -->
    <_>
      <maxWeakCount>66</maxWeakCount>
      <stageThreshold>-1.6743642091751099e+00</stageThreshold>
      <weakClassifiers>
        <_>
          <internalNodes>
            0 -1 699 1.3901394791901112e-02</internalNodes>
          <leafValues>
            4.2875479906797409e-02 7.1057194471359253e-01</leafValues></_>
        <_>
          <internalNodes>
            0 -1 444 -1.0640731081366539e-02</internalNodes>
          <leafValues>
            5.9900563955307007e-01 -1.4475977420806885e-01</leafValues></_>
        <_>
          <internalNodes>
            0 -1 763 -4.2351996526122093e-03</internalNodes>
          <leafValues>
            4.9660456180572510e-01 -1.1618923395872116e-01</leafValues></_>
        <_>
          <internalNodes>
            0 -1 834 1.3073073700070381e-02</internalNodes>
          <leafValues>
            -1.6428959369659424e-01 5.0240677595138550e-01</leafValues></_>
        <_>
          <internalNodes>
            0 -1 879 -5.0384560599923134e-03</internalNodes>
          <leafValues>
            4.1822317242622375e-01 -1.4690572023391724e-01</leafValues></_>
        <_>
          <internalNodes>
            0 -1 443 1.2402677675709128e-03</internalNodes>
          <leafValues>
            -2.0295573770999908e-01 2.7518931031227112e-01</leafValues></_>
        <_>
          <internalNodes>
            0 -1 688 -1.8025336321443319e-03</internalNodes>
          <leafValues>
            -7.3610079288482666e-01 7.6008267700672150e-02</leafValues></_>
        <_>
          <internalNodes>
            0 -1 282 9.2999219894409180e-02</internalNodes>
          <leafValues>
            -1.4368277788162231e-01 3.3687326312065125e-01</leafValues></_>
        <_>
          <internalNodes>
            0 -1 293 2.1399226039648056e-02</internalNodes>
          <leafValues>
            -1.6605213284492493e-01 3.0147713422775269e-01</leafValues></_>
        <_>
          <internalNodes>
            0 -1 703 9.3348361551761627e-03</internalNodes>
          <leafValues>
            -1.6568347811698914e-01 3.0875685811042786e-01</leafValues></_>
        <_>
          <internalNodes>
            0 -1 382 -5.8921691961586475e-03</internalNodes>
          <leafValues>
            -5.6214910745620728e-01 8.5347160696983337e-02</leafValues></_>
        <_>
          <internalNodes>
            0 -1 260 -1.4118023682385683e-03</internalNodes>
          <leafValues>
            2.6530963182449341e-01 -1.8439114093780518e-01</leafValues></_>
        <_>
          <internalNodes>
            0 -1 360 -1.1060921475291252e-02</internalNodes>
          <leafValues>
            2.5005301833152771e-01 -1.7930330336093903e-01</leafValues></_>
        <_>
          <internalNodes>
            0 -1 751 -3.8227883633226156e-03</internalNodes>
          <leafValues>
            -6.9963920116424561e-01 6.4229309558868408e-02</leafValues></_>
        <_>
          <internalNodes>
            0 -1 900 -8.4845684468746185e-03</internalNodes>
          <leafValues>
            -6.6004335880279541e-01 5.2848633378744125e-02</leafValues></_>
        <_>
          <internalNodes>
            0 -1 21 6.9843865931034088e-03</internalNodes>
          <leafValues>
            5.5426578968763351e-02 -6.1068946123123169e-01</leafValues></_>
        <_>
          <internalNodes>
            0 -1 952 4.8600544687360525e-04</internalNodes>
          <leafValues>
            -1.8981190025806427e-01 2.1059055626392365e-01</leafValues></_>
        <_>
          <internalNodes>
            0 -1 111 3.5324528813362122e-02</internalNodes>
          <leafValues>
            -8.3993434906005859e-02 5.1941823959350586e-01</leafValues></_>
        <_>
          <internalNodes>
            0 -1 97 3.9002462290227413e-03</internalNodes>
          <leafValues>
            7.6367795467376709e-02 -5.7813030481338501e-01</leafValues></_>
        <_>
          <internalNodes>
            0 -1 374 -4.5398771762847900e-03</internalNodes>
          <leafValues>
            3.3430457115173340e-01 -1.2331557273864746e-01</leafValues></_>
        <_>
          <internalNodes>
            0 -1 652 -3.1904221978038549e-03</internalNodes>
          <leafValues>
            -5.5545800924301147e-01 7.3627986013889313e-02</leafValues></_>
        <_>
          <internalNodes>
            0 -1 14 -7.7975630760192871e-02</internalNodes>
          <leafValues>
            4.8881098628044128e-01 -8.1377774477005005e-02</leafValues></_>
        <_>
          <internalNodes>
            0 -1 7 -1.1978685855865479e-02</internalNodes>
          <leafValues>
            2.7509516477584839e-01 -1.6613669693470001e-01</leafValues></_>
        <_>
          <internalNodes>
            0 -1 29 -8.3151785656809807e-03</internalNodes>
          <leafValues>
            -5.9314393997192383e-01 7.2014525532722473e-02</leafValues></_>
        <_>
          <internalNodes>
            0 -1 466 1.3827871531248093e-02</internalNodes>
          <leafValues>
            -1.2803319096565247e-01 2.9465702176094055e-01</leafValues></_>
        <_>
          <internalNodes>
            0 -1 356 2.0103808492422104e-02</internalNodes>
          <leafValues>
            6.9175720214843750e-02 -5.6205666065216064e-01</leafValues></_>
        <_>
          <internalNodes>
            0 -1 530 -4.7183044254779816e-02</internalNodes>
          <leafValues>
            3.6449643969535828e-01 -1.0480687767267227e-01</leafValues></_>
        <_>
          <internalNodes>
            0 -1 613 9.7303036600351334e-03</internalNodes>
          <leafValues>
            -9.7578004002571106e-02 3.6821505427360535e-01</leafValues></_>
        <_>
          <internalNodes>
            0 -1 667 -3.9133569225668907e-03</internalNodes>
          <leafValues>
            -5.1443296670913696e-01 7.2868466377258301e-02</leafValues></_>
        <_>
          <internalNodes>
            0 -1 666 3.0236630700528622e-03</internalNodes>
          <leafValues>
            5.5799212306737900e-02 -5.3572463989257812e-01</leafValues></_>
        <_>
          <internalNodes>
            0 -1 304 4.3436158448457718e-03</internalNodes>
          <leafValues>
            -1.5579865872859955e-01 2.0468661189079285e-01</leafValues></_>
        <_>
          <internalNodes>
            0 -1 51 1.4063127338886261e-02</internalNodes>
          <leafValues>
            3.6827385425567627e-02 -8.5656464099884033e-01</leafValues></_>
        <_>
          <internalNodes>
            0 -1 842 1.3388927327468991e-03</internalNodes>
          <leafValues>
            -1.2769578397274017e-01 2.8884974122047424e-01</leafValues></_>
        <_>
          <internalNodes>
            0 -1 791 -1.0684424778446555e-03</internalNodes>
          <leafValues>
            3.4348404407501221e-01 -9.6543140709400177e-02</leafValues></_>
        <_>
          <internalNodes>
            0 -1 779 -2.3754546418786049e-03</internalNodes>
          <leafValues>
            -5.2730453014373779e-01 6.6801987588405609e-02</leafValues></_>
        <_>
          <internalNodes>
            0 -1 549 -4.5106699690222740e-03</internalNodes>
          <leafValues>
            -5.4066735506057739e-01 5.1074951887130737e-02</leafValues></_>
        <_>
          <internalNodes>
            0 -1 487 5.6549627333879471e-03</internalNodes>
          <leafValues>
            -9.0248994529247284e-02 3.5249757766723633e-01</leafValues></_>
        <_>
          <internalNodes>
            0 -1 494 -3.3719413913786411e-03</internalNodes>
          <leafValues>
            2.8907671570777893e-01 -1.1475016921758652e-01</leafValues></_>
        <_>
          <internalNodes>
            0 -1 135 1.2221395969390869e-02</internalNodes>
          <leafValues>
            -1.0579165816307068e-01 3.0012521147727966e-01</leafValues></_>
        <_>
          <internalNodes>
            0 -1 79 3.2931473106145859e-03</internalNodes>
          <leafValues>
            7.7675424516201019e-02 -4.1641706228256226e-01</leafValues></_>
        <_>
          <internalNodes>
            0 -1 79 -3.7331613712012768e-03</internalNodes>
          <leafValues>
            -4.6958047151565552e-01 7.6012723147869110e-02</leafValues></_>
        <_>
          <internalNodes>
            0 -1 15 -3.0090190470218658e-02</internalNodes>
          <leafValues>
            -6.2376546859741211e-01 4.4617597013711929e-02</leafValues></_>
        <_>
          <internalNodes>
            0 -1 538 -1.1998139321804047e-02</internalNodes>
          <leafValues>
            3.4000751376152039e-01 -9.7472421824932098e-02</leafValues></_>
        <_>
          <internalNodes>
            0 -1 592 2.5055123493075371e-02</internalNodes>
          <leafValues>
            -7.5190685689449310e-02 4.1993573307991028e-01</leafValues></_>
        <_>
          <internalNodes>
            0 -1 233 9.7161782905459404e-03</internalNodes>
          <leafValues>
            5.5982969701290131e-02 -6.0615026950836182e-01</leafValues></_>
        <_>
          <internalNodes>
            0 -1 198 -8.3486355841159821e-02</internalNodes>
          <leafValues>
            3.7426739931106567e-01 -8.7825424969196320e-02</leafValues></_>
        <_>
          <internalNodes>
            0 -1 110 3.8952599279582500e-03</internalNodes>
          <leafValues>
            -1.3330259919166565e-01 2.6031884551048279e-01</leafValues></_>
        <_>
          <internalNodes>
            0 -1 648 -9.8262424580752850e-04</internalNodes>
          <leafValues>
            -3.9980980753898621e-01 8.2922257483005524e-02</leafValues></_>
        <_>
          <internalNodes>
            0 -1 58 8.4215197712182999e-03</internalNodes>
          <leafValues>
            -1.3371372222900391e-01 2.4220858514308929e-01</leafValues></_>
        <_>
          <internalNodes>
            0 -1 287 1.2292047031223774e-03</internalNodes>
          <leafValues>
            -7.7718295156955719e-02 3.8342806696891785e-01</leafValues></_>
        <_>
          <internalNodes>
            0 -1 682 -1.2375478632748127e-02</internalNodes>
          <leafValues>
            2.3885957896709442e-01 -1.2220640480518341e-01</leafValues></_>
        <_>
          <internalNodes>
            0 -1 292 5.4268687963485718e-03</internalNodes>
          <leafValues>
            5.5337987840175629e-02 -5.6287312507629395e-01</leafValues></_>
        <_>
          <internalNodes>
            0 -1 418 -5.5062575265765190e-03</internalNodes>
          <leafValues>
            -5.7845181226730347e-01 4.2599424719810486e-02</leafValues></_>
        <_>
          <internalNodes>
            0 -1 614 1.0439271107316017e-02</internalNodes>
          <leafValues>
            -8.1215575337409973e-02 3.8115817308425903e-01</leafValues></_>
        <_>
          <internalNodes>
            0 -1 296 -2.6399283669888973e-03</internalNodes>
          <leafValues>
            -4.5001742243766785e-01 6.7338116466999054e-02</leafValues></_>
        <_>
          <internalNodes>
            0 -1 898 2.6166734751313925e-03</internalNodes>
          <leafValues>
            5.5316500365734100e-02 -4.4958963990211487e-01</leafValues></_>
        <_>
          <internalNodes>
            0 -1 759 5.4496107622981071e-03</internalNodes>
          <leafValues>
            -8.1449449062347412e-02 3.8300925493240356e-01</leafValues></_>
        <_>
          <internalNodes>
            0 -1 762 3.4203347750008106e-03</internalNodes>
          <leafValues>
            -8.8027402758598328e-02 3.0551746487617493e-01</leafValues></_>
        <_>
          <internalNodes>
            0 -1 19 9.3909027054905891e-03</internalNodes>
          <leafValues>
            5.8738458901643753e-02 -4.9437648057937622e-01</leafValues></_>
        <_>
          <internalNodes>
            0 -1 276 9.6318572759628296e-03</internalNodes>
          <leafValues>
            -1.0816254466772079e-01 2.7723982930183411e-01</leafValues></_>
        <_>
          <internalNodes>
            0 -1 87 1.9004285335540771e-02</internalNodes>
          <leafValues>
            -8.2863554358482361e-02 3.1288793683052063e-01</leafValues></_>
        <_>
          <internalNodes>
            0 -1 580 -8.5283098742365837e-03</internalNodes>
          <leafValues>
            2.9951119422912598e-01 -8.9406743645668030e-02</leafValues></_>
        <_>
          <internalNodes>
            0 -1 242 6.2621399760246277e-02</internalNodes>
          <leafValues>
            -1.0106554627418518e-01 2.6782277226448059e-01</leafValues></_>
        <_>
          <internalNodes>
            0 -1 372 1.5604515559971333e-02</internalNodes>
          <leafValues>
            -1.0081429034471512e-01 2.9597061872482300e-01</leafValues></_>
        <_>
          <internalNodes>
            0 -1 351 1.3034233450889587e-01</internalNodes>
          <leafValues>
            -8.0539934337139130e-02 3.4444472193717957e-01</leafValues></_>
        <_>
          <internalNodes>
            0 -1 53 4.5186877250671387e-02</internalNodes>
          <leafValues>
            5.8131664991378784e-02 -5.4693692922592163e-01</leafValues></_></weakClassifiers></_>
    <!-- stage 5 -->
    <_>
      <maxWeakCount>72</maxWeakCount>
      <stageThreshold>-1.6700928211212158e+00</stageThreshold>
      <weakClassifiers>
        <_>
          <internalNodes>
            0 -1 763 -2.0017849747091532e-03</internalNodes>
          <leafValues>
            6.7056620121002197e-01 1.8883759155869484e-02</leafValues></_>
        <_>
          <internalNodes>
            0 -1 508 -1.5712467953562737e-02</internalNodes>
          <leafValues>
            5.8154827356338501e-01 -1.4273743331432343e-01</leafValues></_>
        <_>
          <internalNodes>
            0 -1 146 2.4972280953079462e-03</internalNodes>
          <leafValues>
            -1.8454430997371674e-01 3.4281551837921143e-01</leafValues></_>
        <_>
          <internalNodes>
            0 -1 824 5.7405559346079826e-03</internalNodes>
          <leafValues>
            -1.7856663465499878e-01 5.1571351289749146e-01</leafValues></_>
        <_>
          <internalNodes>
            0 -1 869 8.1182969734072685e-04</internalNodes>
          <leafValues>
            -2.6075574755668640e-01 2.2161382436752319e-01</leafValues></_>
        <_>
          <internalNodes>
            0 -1 889 1.9957972690463066e-03</internalNodes>
          <leafValues>
            -1.6690193116664886e-01 3.1083983182907104e-01</leafValues></_>
        <_>
          <internalNodes>
            0 -1 943 7.9797822982072830e-03</internalNodes>
          <leafValues>
            -1.7903617024421692e-01 2.7573335170745850e-01</leafValues></_>
        <_>
          <internalNodes>
            0 -1 733 1.0206390172243118e-02</internalNodes>
          <leafValues>
            -9.3843363225460052e-02 5.3358590602874756e-01</leafValues></_>
        <_>
          <internalNodes>
            0 -1 388 3.4904260188341141e-02</internalNodes>
          <leafValues>
            -8.6874812841415405e-02 5.0340282917022705e-01</leafValues></_>
        <_>
          <internalNodes>
            0 -1 564 -3.8090778980404139e-03</internalNodes>
          <leafValues>
            2.3382174968719482e-01 -1.7857478559017181e-01</leafValues></_>
        <_>
          <internalNodes>
            0 -1 160 2.0690055098384619e-03</internalNodes>
          <leafValues>
            -1.8347945809364319e-01 2.1276330947875977e-01</leafValues></_>
        <_>
          <internalNodes>
            0 -1 367 -1.3203858397901058e-02</internalNodes>
          <leafValues>
            3.0799895524978638e-01 -1.0921970754861832e-01</leafValues></_>
        <_>
          <internalNodes>
            0 -1 91 1.6044422984123230e-02</internalNodes>
          <leafValues>
            -1.2722490727901459e-01 3.5042104125022888e-01</leafValues></_>
        <_>
          <internalNodes>
            0 -1 52 -2.8435707092285156e-02</internalNodes>
          <leafValues>
            -6.9257086515426636e-01 6.0832630842924118e-02</leafValues></_>
        <_>
          <internalNodes>
            0 -1 593 -3.5719089210033417e-03</internalNodes>
          <leafValues>
            -6.1009460687637329e-01 5.5150210857391357e-02</leafValues></_>
        <_>
          <internalNodes>
            0 -1 526 -3.3032532781362534e-02</internalNodes>
          <leafValues>
            3.9706656336784363e-01 -1.0905303061008453e-01</leafValues></_>
        <_>
          <internalNodes>
            0 -1 863 -3.4918042365461588e-03</internalNodes>
          <leafValues>
            2.2872641682624817e-01 -1.6809244453907013e-01</leafValues></_>
        <_>
          <internalNodes>
            0 -1 449 -1.2281725648790598e-03</internalNodes>
          <leafValues>
            2.8336051106452942e-01 -1.2107009440660477e-01</leafValues></_>
        <_>
          <internalNodes>
            0 -1 268 1.5130165964365005e-02</internalNodes>
          <leafValues>
            7.4081726372241974e-02 -5.0906944274902344e-01</leafValues></_>
        <_>
          <internalNodes>
            0 -1 342 -5.2624624222517014e-03</internalNodes>
          <leafValues>
            -5.1471787691116333e-01 5.6423079222440720e-02</leafValues></_>
        <_>
          <internalNodes>
            0 -1 438 1.3198424130678177e-03</internalNodes>
          <leafValues>
            -9.7633212804794312e-02 3.6938476562500000e-01</leafValues></_>
        <_>
          <internalNodes>
            0 -1 194 -3.9102118462324142e-03</internalNodes>
          <leafValues>
            -7.5149536132812500e-01 5.1220502704381943e-02</leafValues></_>
        <_>
          <internalNodes>
            0 -1 235 7.7746850438416004e-03</internalNodes>
          <leafValues>
            -1.6232925653457642e-01 2.0670217275619507e-01</leafValues></_>
        <_>
          <internalNodes>
            0 -1 555 -1.9946731626987457e-02</internalNodes>
          <leafValues>
            3.0092230439186096e-01 -9.9984362721443176e-02</leafValues></_>
        <_>
          <internalNodes>
            0 -1 457 -4.9132145941257477e-03</internalNodes>
          <leafValues>
            2.1954736113548279e-01 -1.6271042823791504e-01</leafValues></_>
        <_>
          <internalNodes>
            0 -1 970 -6.4505757763981819e-03</internalNodes>
          <leafValues>
            -4.9815052747726440e-01 6.7167595028877258e-02</leafValues></_>
        <_>
          <internalNodes>
            0 -1 581 -6.7926600575447083e-02</internalNodes>
          <leafValues>
            4.3458208441734314e-01 -7.7230423688888550e-02</leafValues></_>
        <_>
          <internalNodes>
            0 -1 789 -3.7927636876702309e-03</internalNodes>
          <leafValues>
            2.6469963788986206e-01 -1.2098944932222366e-01</leafValues></_>
        <_>
          <internalNodes>
            0 -1 38 -2.7826299890875816e-02</internalNodes>
          <leafValues>
            2.9173719882965088e-01 -1.0972167551517487e-01</leafValues></_>
        <_>
          <internalNodes>
            0 -1 332 6.0029705055058002e-03</internalNodes>
          <leafValues>
            -1.0543220490217209e-01 3.6175185441970825e-01</leafValues></_>
        <_>
          <internalNodes>
            0 -1 972 1.4797106850892305e-03</internalNodes>
          <leafValues>
            6.5247461199760437e-02 -5.3303873538970947e-01</leafValues></_>
        <_>
          <internalNodes>
            0 -1 102 9.7709074616432190e-03</internalNodes>
          <leafValues>
            3.5595752298831940e-02 -6.8972426652908325e-01</leafValues></_>
        <_>
          <internalNodes>
            0 -1 874 4.5413424959406257e-04</internalNodes>
          <leafValues>
            -1.7233507335186005e-01 1.6001893579959869e-01</leafValues></_>
        <_>
          <internalNodes>
            0 -1 687 -1.4395804610103369e-03</internalNodes>
          <leafValues>
            -5.1606172323226929e-01 5.5443800985813141e-02</leafValues></_>
        <_>
          <internalNodes>
            0 -1 25 -2.4502794444561005e-01</internalNodes>
          <leafValues>
            -8.0270200967788696e-01 2.9995493590831757e-02</leafValues></_>
        <_>
          <internalNodes>
            0 -1 410 4.2062443681061268e-03</internalNodes>
          <leafValues>
            5.0134483724832535e-02 -4.9082162976264954e-01</leafValues></_>
        <_>
          <internalNodes>
            0 -1 46 1.4561998657882214e-02</internalNodes>
          <leafValues>
            -1.2065179646015167e-01 2.4143299460411072e-01</leafValues></_>
        <_>
          <internalNodes>
            0 -1 74 -3.3104062080383301e-02</internalNodes>
          <leafValues>
            3.6770820617675781e-01 -7.8033976256847382e-02</leafValues></_>
        <_>
          <internalNodes>
            0 -1 463 3.2625906169414520e-02</internalNodes>
          <leafValues>
            -8.5231229662895203e-02 3.3994022011756897e-01</leafValues></_>
        <_>
          <internalNodes>
            0 -1 411 -1.1897137388586998e-02</internalNodes>
          <leafValues>
            2.6476562023162842e-01 -1.0443684458732605e-01</leafValues></_>
        <_>
          <internalNodes>
            0 -1 816 5.7352259755134583e-03</internalNodes>
          <leafValues>
            5.5395182222127914e-02 -5.1973640918731689e-01</leafValues></_>
        <_>
          <internalNodes>
            0 -1 170 -1.5062794089317322e-02</internalNodes>
          <leafValues>
            -7.5300645828247070e-01 3.0149688944220543e-02</leafValues></_>
        <_>
          <internalNodes>
            0 -1 661 -7.9075228422880173e-03</internalNodes>
          <leafValues>
            2.8287026286125183e-01 -1.0227695107460022e-01</leafValues></_>
        <_>
          <internalNodes>
            0 -1 394 3.2159998081624508e-03</internalNodes>
          <leafValues>
            -6.5929308533668518e-02 3.6590230464935303e-01</leafValues></_>
        <_>
          <internalNodes>
            0 -1 987 -2.5269058533012867e-03</internalNodes>
          <leafValues>
            -4.7419819235801697e-01 5.8165557682514191e-02</leafValues></_>
        <_>
          <internalNodes>
            0 -1 845 -1.8206760287284851e-03</internalNodes>
          <leafValues>
            2.5627982616424561e-01 -1.1308469623327255e-01</leafValues></_>
        <_>
          <internalNodes>
            0 -1 66 1.4899271540343761e-02</internalNodes>
          <leafValues>
            3.6266356706619263e-02 -7.6167815923690796e-01</leafValues></_>
        <_>
          <internalNodes>
            0 -1 965 3.8532419130206108e-03</internalNodes>
          <leafValues>
            2.6696149259805679e-02 -7.5058454275131226e-01</leafValues></_>
        <_>
          <internalNodes>
            0 -1 723 -6.1673661693930626e-03</internalNodes>
          <leafValues>
            3.5572922229766846e-01 -8.2323268055915833e-02</leafValues></_>
        <_>
          <internalNodes>
            0 -1 822 -7.0832269266247749e-03</internalNodes>
          <leafValues>
            2.1490900218486786e-01 -1.3906964659690857e-01</leafValues></_>
        <_>
          <internalNodes>
            0 -1 724 3.5079419612884521e-03</internalNodes>
          <leafValues>
            4.7017443925142288e-02 -6.3156962394714355e-01</leafValues></_>
        <_>
          <internalNodes>
            0 -1 878 1.2706735869869590e-03</internalNodes>
          <leafValues>
            -1.0659208893775940e-01 3.1986060738563538e-01</leafValues></_>
        <_>
          <internalNodes>
            0 -1 362 -3.0069730710238218e-03</internalNodes>
          <leafValues>
            -7.9292476177215576e-01 3.8936499506235123e-02</leafValues></_>
        <_>
          <internalNodes>
            0 -1 3 2.5489944964647293e-03</internalNodes>
          <leafValues>
            -1.4662979543209076e-01 2.0257341861724854e-01</leafValues></_>
        <_>
          <internalNodes>
            0 -1 151 2.7439245022833347e-03</internalNodes>
          <leafValues>
            -9.1609120368957520e-02 3.0721578001976013e-01</leafValues></_>
        <_>
          <internalNodes>
            0 -1 608 -2.5972947478294373e-03</internalNodes>
          <leafValues>
            -4.2591169476509094e-01 6.7926779389381409e-02</leafValues></_>
        <_>
          <internalNodes>
            0 -1 717 1.4116591773927212e-03</internalNodes>
          <leafValues>
            -1.2321621179580688e-01 2.4072754383087158e-01</leafValues></_>
        <_>
          <internalNodes>
            0 -1 603 -2.5579232722520828e-02</internalNodes>
          <leafValues>
            5.7537192106246948e-01 -4.9050308763980865e-02</leafValues></_>
        <_>
          <internalNodes>
            0 -1 407 -5.6264195591211319e-03</internalNodes>
          <leafValues>
            -5.2892494201660156e-01 6.0454059392213821e-02</leafValues></_>
        <_>
          <internalNodes>
            0 -1 413 -1.8926127813756466e-03</internalNodes>
          <leafValues>
            2.4074989557266235e-01 -1.2150175124406815e-01</leafValues></_>
        <_>
          <internalNodes>
            0 -1 96 -1.0207362473011017e-02</internalNodes>
          <leafValues>
            -6.7782247066497803e-01 4.3572813272476196e-02</leafValues></_>
        <_>
          <internalNodes>
            0 -1 157 -3.1391347292810678e-03</internalNodes>
          <leafValues>
            1.9982162117958069e-01 -1.3408482074737549e-01</leafValues></_>
        <_>
          <internalNodes>
            0 -1 218 -3.1065782532095909e-03</internalNodes>
          <leafValues>
            2.2946853935718536e-01 -1.2754726409912109e-01</leafValues></_>
        <_>
          <internalNodes>
            0 -1 866 -5.2223210223019123e-03</internalNodes>
          <leafValues>
            -5.0463259220123291e-01 4.9872294068336487e-02</leafValues></_>
        <_>
          <internalNodes>
            0 -1 428 -3.4163258969783783e-03</internalNodes>
          <leafValues>
            2.1628817915916443e-01 -1.1369658261537552e-01</leafValues></_>
        <_>
          <internalNodes>
            0 -1 901 5.1404302939772606e-03</internalNodes>
          <leafValues>
            -9.6477277576923370e-02 2.4602085351943970e-01</leafValues></_>
        <_>
          <internalNodes>
            0 -1 425 5.8603808283805847e-03</internalNodes>
          <leafValues>
            4.0628310292959213e-02 -6.3314515352249146e-01</leafValues></_>
        <_>
          <internalNodes>
            0 -1 936 -1.1338826734572649e-03</internalNodes>
          <leafValues>
            3.4083816409111023e-01 -7.9400509595870972e-02</leafValues></_>
        <_>
          <internalNodes>
            0 -1 936 8.0572068691253662e-04</internalNodes>
          <leafValues>
            -9.5763482153415680e-02 3.2283502817153931e-01</leafValues></_>
        <_>
          <internalNodes>
            0 -1 431 -4.8957285471260548e-03</internalNodes>
          <leafValues>
            -5.3353887796401978e-01 4.9622885882854462e-02</leafValues></_>
        <_>
          <internalNodes>
            0 -1 675 7.1027994155883789e-02</internalNodes>
          <leafValues>
            -6.2327813357114792e-02 4.5151355862617493e-01</leafValues></_>
        <_>
          <internalNodes>
            0 -1 911 -1.5200550667941570e-02</internalNodes>
          <leafValues>
            2.5859493017196655e-01 -1.0548926889896393e-01</leafValues></_></weakClassifiers></_>
    <!-- stage 6 -->
    <_>
      <maxWeakCount>81</maxWeakCount>
      <stageThreshold>-1.5793150663375854e+00</stageThreshold>
      <weakClassifiers>
        <_>
          <internalNodes>
            0 -1 562 -5.8624427765607834e-03</internalNodes>
          <leafValues>
            6.2237185239791870e-01 -1.5120165422558784e-02</leafValues></_>
        <_>
          <internalNodes>
            0 -1 507 4.7948276624083519e-03</internalNodes>
          <leafValues>
            -1.8684723973274231e-01 4.3783110380172729e-01</leafValues></_>
        <_>
          <internalNodes>
            0 -1 870 2.4864529259502888e-03</internalNodes>
          <leafValues>
            -1.9763210415840149e-01 3.4098726511001587e-01</leafValues></_>
        <_>
          <internalNodes>
            0 -1 210 -7.7013596892356873e-03</internalNodes>
          <leafValues>
            3.4580937027931213e-01 -2.2749660909175873e-01</leafValues></_>
        <_>
          <internalNodes>
            0 -1 768 -1.8182904459536076e-03</internalNodes>
          <leafValues>
            3.7125843763351440e-01 -1.4019212126731873e-01</leafValues></_>
        <_>
          <internalNodes>
            0 -1 791 -1.4325398951768875e-03</internalNodes>
          <leafValues>
            4.4040992856025696e-01 -1.0599569976329803e-01</leafValues></_>
        <_>
          <internalNodes>
            0 -1 161 5.4927580058574677e-03</internalNodes>
          <leafValues>
            8.4835931658744812e-02 -5.3435057401657104e-01</leafValues></_>
        <_>
          <internalNodes>
            0 -1 837 -7.0448440965265036e-04</internalNodes>
          <leafValues>
            2.8704917430877686e-01 -1.4405579864978790e-01</leafValues></_>
        <_>
          <internalNodes>
            0 -1 220 -5.7945270091295242e-03</internalNodes>
          <leafValues>
            -5.1373738050460815e-01 8.3974525332450867e-02</leafValues></_>
        <_>
          <internalNodes>
            0 -1 376 -1.1944295838475227e-02</internalNodes>
          <leafValues>
            3.5980853438377380e-01 -1.0862441360950470e-01</leafValues></_>
        <_>
          <internalNodes>
            0 -1 385 3.4179994836449623e-03</internalNodes>
          <leafValues>
            -1.2899027764797211e-01 3.3064863085746765e-01</leafValues></_>
        <_>
          <internalNodes>
            0 -1 805 -7.2756269946694374e-03</internalNodes>
          <leafValues>
            2.3903866112232208e-01 -1.6133096814155579e-01</leafValues></_>
        <_>
          <internalNodes>
            0 -1 647 -8.5910838097333908e-03</internalNodes>
          <leafValues>
            -8.4211397171020508e-01 4.1614245623350143e-02</leafValues></_>
        <_>
          <internalNodes>
            0 -1 283 -3.7941135466098785e-02</internalNodes>
          <leafValues>
            2.4674071371555328e-01 -1.4177341759204865e-01</leafValues></_>
        <_>
          <internalNodes>
            0 -1 149 -3.6782763898372650e-02</internalNodes>
          <leafValues>
            3.1695553660392761e-01 -1.1061279475688934e-01</leafValues></_>
        <_>
          <internalNodes>
            0 -1 31 -1.1086702346801758e-01</internalNodes>
          <leafValues>
            -7.7248167991638184e-01 4.9090590327978134e-02</leafValues></_>
        <_>
          <internalNodes>
            0 -1 23 -4.3419219553470612e-02</internalNodes>
          <leafValues>
            -6.3905894756317139e-01 4.7248683869838715e-02</leafValues></_>
        <_>
          <internalNodes>
            0 -1 229 7.1155801415443420e-03</internalNodes>
          <leafValues>
            5.5369954556226730e-02 -5.6675219535827637e-01</leafValues></_>
        <_>
          <internalNodes>
            0 -1 9 2.9427852481603622e-02</internalNodes>
          <leafValues>
            -1.0744783282279968e-01 3.1137129664421082e-01</leafValues></_>
        <_>
          <internalNodes>
            0 -1 13 -5.6870315223932266e-02</internalNodes>
          <leafValues>
            4.8549285531044006e-01 -8.4140487015247345e-02</leafValues></_>
        <_>
          <internalNodes>
            0 -1 845 -2.1800836548209190e-03</internalNodes>
          <leafValues>
            3.0136430263519287e-01 -1.0869345813989639e-01</leafValues></_>
        <_>
          <internalNodes>
            0 -1 345 1.2336489744484425e-03</internalNodes>
          <leafValues>
            -8.9073576033115387e-02 3.3233630657196045e-01</leafValues></_>
        <_>
          <internalNodes>
            0 -1 737 2.7930366341024637e-03</internalNodes>
          <leafValues>
            -1.1784177273511887e-01 2.3968270421028137e-01</leafValues></_>
        <_>
          <internalNodes>
            0 -1 300 -1.4338749647140503e-01</internalNodes>
          <leafValues>
            4.7303047776222229e-01 -5.1608867943286896e-02</leafValues></_>
        <_>
          <internalNodes>
            0 -1 113 7.9552028328180313e-03</internalNodes>
          <leafValues>
            6.0302641242742538e-02 -4.7011384367942810e-01</leafValues></_>
        <_>
          <internalNodes>
            0 -1 397 -4.6112807467579842e-03</internalNodes>
          <leafValues>
            -4.2084765434265137e-01 7.6558656990528107e-02</leafValues></_>
        <_>
          <internalNodes>
            0 -1 361 7.8915785998106003e-03</internalNodes>
          <leafValues>
            -1.3884299993515015e-01 2.0495900511741638e-01</leafValues></_>
        <_>
          <internalNodes>
            0 -1 196 -2.9021099209785461e-02</internalNodes>
          <leafValues>
            3.3683353662490845e-01 -8.6431317031383514e-02</leafValues></_>
        <_>
          <internalNodes>
            0 -1 32 8.7932050228118896e-03</internalNodes>
          <leafValues>
            -1.2117365747690201e-01 2.3939569294452667e-01</leafValues></_>
        <_>
          <internalNodes>
            0 -1 692 -4.3326904997229576e-03</internalNodes>
          <leafValues>
            -6.3044422864913940e-01 4.8393115401268005e-02</leafValues></_>
        <_>
          <internalNodes>
            0 -1 729 -1.6151482705026865e-03</internalNodes>
          <leafValues>
            3.0203807353973389e-01 -9.2361047863960266e-02</leafValues></_>
        <_>
          <internalNodes>
            0 -1 239 -3.6242920905351639e-03</internalNodes>
          <leafValues>
            -4.0946927666664124e-01 7.3978066444396973e-02</leafValues></_>
        <_>
          <internalNodes>
            0 -1 142 -8.0828834325075150e-03</internalNodes>
          <leafValues>
            -6.1597609519958496e-01 4.0132850408554077e-02</leafValues></_>
        <_>
          <internalNodes>
            0 -1 427 -1.8987425137311220e-03</internalNodes>
          <leafValues>
            2.5910443067550659e-01 -1.0553860664367676e-01</leafValues></_>
        <_>
          <internalNodes>
            0 -1 776 3.4845639020204544e-03</internalNodes>
          <leafValues>
            4.1376896202564240e-02 -6.4275610446929932e-01</leafValues></_>
        <_>
          <internalNodes>
            0 -1 728 -1.3704899698495865e-02</internalNodes>
          <leafValues>
            2.7235555648803711e-01 -1.0047114640474319e-01</leafValues></_>
        <_>
          <internalNodes>
            0 -1 88 -9.5059927552938461e-03</internalNodes>
          <leafValues>
            2.3305405676364899e-01 -1.2722322344779968e-01</leafValues></_>
        <_>
          <internalNodes>
            0 -1 424 -1.7753308638930321e-02</internalNodes>
          <leafValues>
            2.7121108770370483e-01 -9.8972275853157043e-02</leafValues></_>
        <_>
          <internalNodes>
            0 -1 60 4.1816420853137970e-02</internalNodes>
          <leafValues>
            -8.6314909160137177e-02 2.9308396577835083e-01</leafValues></_>
        <_>
          <internalNodes>
            0 -1 470 -5.2781165577471256e-03</internalNodes>
          <leafValues>
            -4.3240407109260559e-01 6.6678449511528015e-02</leafValues></_>
        <_>
          <internalNodes>
            0 -1 947 -3.5982416011393070e-03</internalNodes>
          <leafValues>
            -4.0664613246917725e-01 5.9939380735158920e-02</leafValues></_>
        <_>
          <internalNodes>
            0 -1 350 -3.3817887306213379e-03</internalNodes>
          <leafValues>
            2.1198178827762604e-01 -1.2401402741670609e-01</leafValues></_>
        <_>
          <internalNodes>
            0 -1 148 -8.4468610584735870e-03</internalNodes>
          <leafValues>
            -5.0658410787582397e-01 5.6176334619522095e-02</leafValues></_>
        <_>
          <internalNodes>
            0 -1 522 -1.5873050317168236e-02</internalNodes>
          <leafValues>
            3.0237907171249390e-01 -8.9766949415206909e-02</leafValues></_>
        <_>
          <internalNodes>
            0 -1 948 5.2925320342183113e-03</internalNodes>
          <leafValues>
            4.7194946557283401e-02 -5.8447927236557007e-01</leafValues></_>
        <_>
          <internalNodes>
            0 -1 514 -1.4822685159742832e-02</internalNodes>
          <leafValues>
            2.7581340074539185e-01 -1.0343603044748306e-01</leafValues></_>
        <_>
          <internalNodes>
            0 -1 678 -1.2328238226473331e-02</internalNodes>
          <leafValues>
            1.9257421791553497e-01 -1.3730424642562866e-01</leafValues></_>
        <_>
          <internalNodes>
            0 -1 887 5.4736144840717316e-02</internalNodes>
          <leafValues>
            -1.0764957219362259e-01 2.4070124328136444e-01</leafValues></_>
        <_>
          <internalNodes>
            0 -1 484 -2.0030699670314789e-03</internalNodes>
          <leafValues>
            2.8992170095443726e-01 -8.6155213415622711e-02</leafValues></_>
        <_>
          <internalNodes>
            0 -1 347 4.9616778269410133e-03</internalNodes>
          <leafValues>
            3.7793070077896118e-02 -6.8241751194000244e-01</leafValues></_>
        <_>
          <internalNodes>
            0 -1 171 2.1582433953881264e-02</internalNodes>
          <leafValues>
            -9.2316769063472748e-02 2.6424714922904968e-01</leafValues></_>
        <_>
          <internalNodes>
            0 -1 131 -9.5060802996158600e-03</internalNodes>
          <leafValues>
            2.0518042147159576e-01 -1.1375468224287033e-01</leafValues></_>
        <_>
          <internalNodes>
            0 -1 238 7.4238084256649017e-02</internalNodes>
          <leafValues>
            -7.0650860667228699e-02 3.3061835169792175e-01</leafValues></_>
        <_>
          <internalNodes>
            0 -1 567 5.8014206588268280e-03</internalNodes>
          <leafValues>
            3.9557952433824539e-02 -6.0553658008575439e-01</leafValues></_>
        <_>
          <internalNodes>
            0 -1 489 8.3722146227955818e-03</internalNodes>
          <leafValues>
            -6.6242359578609467e-02 3.5559263825416565e-01</leafValues></_>
        <_>
          <internalNodes>
            0 -1 115 5.9322156012058258e-03</internalNodes>
          <leafValues>
            5.1374353468418121e-02 -4.4348692893981934e-01</leafValues></_>
        <_>
          <internalNodes>
            0 -1 503 -1.5613199211657047e-03</internalNodes>
          <leafValues>
            3.3984366059303284e-01 -7.1964941918849945e-02</leafValues></_>
        <_>
          <internalNodes>
            0 -1 201 -1.6189547255635262e-02</internalNodes>
          <leafValues>
            2.0777270197868347e-01 -1.2065915018320084e-01</leafValues></_>
        <_>
          <internalNodes>
            0 -1 589 3.7794266827404499e-03</internalNodes>
          <leafValues>
            4.0290340781211853e-02 -5.5574357509613037e-01</leafValues></_>
        <_>
          <internalNodes>
            0 -1 213 -9.3125496059656143e-03</internalNodes>
          <leafValues>
            2.5648719072341919e-01 -9.4139434397220612e-02</leafValues></_>
        <_>
          <internalNodes>
            0 -1 927 8.9797464897856116e-04</internalNodes>
          <leafValues>
            -1.0596609860658646e-01 3.0083754658699036e-01</leafValues></_>
        <_>
          <internalNodes>
            0 -1 593 4.1124280542135239e-03</internalNodes>
          <leafValues>
            4.3452557176351547e-02 -5.6017982959747314e-01</leafValues></_>
        <_>
          <internalNodes>
            0 -1 447 -5.7592550292611122e-03</internalNodes>
          <leafValues>
            -5.5715996026992798e-01 3.6530554294586182e-02</leafValues></_>
        <_>
          <internalNodes>
            0 -1 956 -1.7109992913901806e-03</internalNodes>
          <leafValues>
            2.4350115656852722e-01 -9.9780716001987457e-02</leafValues></_>
        <_>
          <internalNodes>
            0 -1 975 -1.9408876076340675e-02</internalNodes>
          <leafValues>
            -7.3736822605133057e-01 3.4421972930431366e-02</leafValues></_>
        <_>
          <internalNodes>
            0 -1 269 -1.8505988642573357e-02</internalNodes>
          <leafValues>
            2.3959811031818390e-01 -1.0179302841424942e-01</leafValues></_>
        <_>
          <internalNodes>
            0 -1 974 -3.4968159161508083e-03</internalNodes>
          <leafValues>
            -4.5450085401535034e-01 5.2533198148012161e-02</leafValues></_>
        <_>
          <internalNodes>
            0 -1 722 3.2340791076421738e-03</internalNodes>
          <leafValues>
            -9.7867593169212341e-02 2.5210717320442200e-01</leafValues></_>
        <_>
          <internalNodes>
            0 -1 853 -2.1103646140545607e-03</internalNodes>
          <leafValues>
            2.7718135714530945e-01 -8.3934187889099121e-02</leafValues></_>
        <_>
          <internalNodes>
            0 -1 310 -6.0913376510143280e-03</internalNodes>
          <leafValues>
            -5.0269359350204468e-01 4.7654323279857635e-02</leafValues></_>
        <_>
          <internalNodes>
            0 -1 316 -1.4657910168170929e-01</internalNodes>
          <leafValues>
            -5.8180803060531616e-01 3.7255339324474335e-02</leafValues></_>
        <_>
          <internalNodes>
            0 -1 721 -5.7285130023956299e-02</internalNodes>
          <leafValues>
            -8.1681364774703979e-01 2.3416126146912575e-02</leafValues></_>
        <_>
          <internalNodes>
            0 -1 560 -1.0855928063392639e-02</internalNodes>
          <leafValues>
            1.6488714516162872e-01 -1.3668881356716156e-01</leafValues></_>
        <_>
          <internalNodes>
            0 -1 511 1.4742083847522736e-02</internalNodes>
          <leafValues>
            3.0842842534184456e-02 -7.8335261344909668e-01</leafValues></_>
        <_>
          <internalNodes>
            0 -1 701 -1.8798124045133591e-02</internalNodes>
          <leafValues>
            3.1507465243339539e-01 -7.6406344771385193e-02</leafValues></_>
        <_>
          <internalNodes>
            0 -1 458 1.8614485859870911e-02</internalNodes>
          <leafValues>
            -8.0178938806056976e-02 3.0463775992393494e-01</leafValues></_>
        <_>
          <internalNodes>
            0 -1 803 -4.1011158376932144e-02</internalNodes>
          <leafValues>
            -6.7428815364837646e-01 3.5076040774583817e-02</leafValues></_>
        <_>
          <internalNodes>
            0 -1 260 -1.5514190308749676e-03</internalNodes>
          <leafValues>
            1.9351305067539215e-01 -1.0952673852443695e-01</leafValues></_>
        <_>
          <internalNodes>
            0 -1 83 7.6966043561697006e-03</internalNodes>
          <leafValues>
            3.2414216548204422e-02 -6.0751897096633911e-01</leafValues></_>
        <_>
          <internalNodes>
            0 -1 154 -1.7850721254944801e-02</internalNodes>
          <leafValues>
            2.0461367070674896e-01 -1.0080502927303314e-01</leafValues></_>
        <_>
          <internalNodes>
            0 -1 298 2.3059733211994171e-03</internalNodes>
          <leafValues>
            -1.3565167784690857e-01 1.7179486155509949e-01</leafValues></_></weakClassifiers></_>
    <!-- stage 7 -->
    <_>
      <maxWeakCount>88</maxWeakCount>
      <stageThreshold>-1.6158927679061890e+00</stageThreshold>
      <weakClassifiers>
        <_>
          <internalNodes>
            0 -1 877 3.6321599036455154e-03</internalNodes>
          <leafValues>
            8.3464950323104858e-02 7.0313382148742676e-01</leafValues></_>
        <_>
          <internalNodes>
            0 -1 450 -2.8561335057020187e-03</internalNodes>
          <leafValues>
            5.3444284200668335e-01 -1.4426039159297943e-01</leafValues></_>
        <_>
          <internalNodes>
            0 -1 767 -1.6910845879465342e-03</internalNodes>
          <leafValues>
            4.5417416095733643e-01 -1.4539502561092377e-01</leafValues></_>
        <_>
          <internalNodes>
            0 -1 330 2.4872912093997002e-02</internalNodes>
          <leafValues>
            -1.5180622041225433e-01 4.7290563583374023e-01</leafValues></_>
        <_>
          <internalNodes>
            0 -1 326 -1.3844612985849380e-02</internalNodes>
          <leafValues>
            4.3979367613792419e-01 -1.9149754941463470e-01</leafValues></_>
        <_>
          <internalNodes>
            0 -1 223 -2.0526167005300522e-02</internalNodes>
          <leafValues>
            3.5583654046058655e-01 -1.7526121437549591e-01</leafValues></_>
        <_>
          <internalNodes>
            0 -1 513 -1.0601939633488655e-02</internalNodes>
          <leafValues>
            2.1787860989570618e-01 -1.8377628922462463e-01</leafValues></_>
        <_>
          <internalNodes>
            0 -1 43 1.5976445749402046e-02</internalNodes>
          <leafValues>
            8.6497880518436432e-02 -4.3799200654029846e-01</leafValues></_>
        <_>
          <internalNodes>
            0 -1 698 -4.9493601545691490e-03</internalNodes>
          <leafValues>
            2.3401068150997162e-01 -1.5603557229042053e-01</leafValues></_>
        <_>
          <internalNodes>
            0 -1 182 2.8549194335937500e-02</internalNodes>
          <leafValues>
            -1.4324828982353210e-01 2.4674744904041290e-01</leafValues></_>
        <_>
          <internalNodes>
            0 -1 125 5.9233225882053375e-02</internalNodes>
          <leafValues>
            -1.0831536352634430e-01 3.3649173378944397e-01</leafValues></_>
        <_>
          <internalNodes>
            0 -1 436 9.5888428390026093e-02</internalNodes>
          <leafValues>
            -1.0589215904474258e-01 3.7052422761917114e-01</leafValues></_>
        <_>
          <internalNodes>
            0 -1 453 -7.5694853439927101e-03</internalNodes>
          <leafValues>
            2.3113159835338593e-01 -1.4907826483249664e-01</leafValues></_>
        <_>
          <internalNodes>
            0 -1 496 4.7857249155640602e-03</internalNodes>
          <leafValues>
            5.1639214158058167e-02 -6.2650465965270996e-01</leafValues></_>
        <_>
          <internalNodes>
            0 -1 145 5.4310320410877466e-04</internalNodes>
          <leafValues>
            -1.8886238336563110e-01 1.5287129580974579e-01</leafValues></_>
        <_>
          <internalNodes>
            0 -1 941 2.6117763482034206e-03</internalNodes>
          <leafValues>
            6.6002741456031799e-02 -4.4275501370429993e-01</leafValues></_>
        <_>
          <internalNodes>
            0 -1 940 -8.0328416079282761e-03</internalNodes>
          <leafValues>
            -5.1598960161209106e-01 5.6888539344072342e-02</leafValues></_>
        <_>
          <internalNodes>
            0 -1 842 1.2324389535933733e-03</internalNodes>
          <leafValues>
            -1.2387900799512863e-01 2.6769712567329407e-01</leafValues></_>
        <_>
          <internalNodes>
            0 -1 830 -9.7260549664497375e-03</internalNodes>
          <leafValues>
            3.5000637173652649e-01 -1.0784699767827988e-01</leafValues></_>
        <_>
          <internalNodes>
            0 -1 334 8.6696096695959568e-04</internalNodes>
          <leafValues>
            -1.1435680836439133e-01 2.5563576817512512e-01</leafValues></_>
        <_>
          <internalNodes>
            0 -1 258 -3.4542869776487350e-02</internalNodes>
          <leafValues>
            -5.8313912153244019e-01 5.1875289529561996e-02</leafValues></_>
        <_>
          <internalNodes>
            0 -1 342 7.5529976747930050e-03</internalNodes>
          <leafValues>
            3.6179721355438232e-02 -6.9380182027816772e-01</leafValues></_>
        <_>
          <internalNodes>
            0 -1 550 4.0939049795269966e-03</internalNodes>
          <leafValues>
            4.1062511503696442e-02 -5.9848028421401978e-01</leafValues></_>
        <_>
          <internalNodes>
            0 -1 354 2.8113774023950100e-03</internalNodes>
          <leafValues>
            5.5211704224348068e-02 -4.7554171085357666e-01</leafValues></_>
        <_>
          <internalNodes>
            0 -1 353 -3.5045309923589230e-03</internalNodes>
          <leafValues>
            -3.9402753114700317e-01 6.9415092468261719e-02</leafValues></_>
        <_>
          <internalNodes>
            0 -1 373 1.7898422665894032e-03</internalNodes>
          <leafValues>
            -7.6636046171188354e-02 4.0437600016593933e-01</leafValues></_>
        <_>
          <internalNodes>
            0 -1 486 4.0369415655732155e-03</internalNodes>
          <leafValues>
            -9.7471550107002258e-02 2.7784994244575500e-01</leafValues></_>
        <_>
          <internalNodes>
            0 -1 430 -8.5533969104290009e-03</internalNodes>
          <leafValues>
            3.3252051472663879e-01 -1.0098887234926224e-01</leafValues></_>
        <_>
          <internalNodes>
            0 -1 69 2.6041156053543091e-01</internalNodes>
          <leafValues>
            -4.3942935764789581e-02 5.0610113143920898e-01</leafValues></_>
        <_>
          <internalNodes>
            0 -1 892 1.4894269406795502e-03</internalNodes>
          <leafValues>
            -7.6404698193073273e-02 3.0335766077041626e-01</leafValues></_>
        <_>
          <internalNodes>
            0 -1 101 -4.8547232151031494e-01</internalNodes>
          <leafValues>
            6.1892670392990112e-01 -3.9150018244981766e-02</leafValues></_>
        <_>
          <internalNodes>
            0 -1 895 -7.6227495446801186e-04</internalNodes>
          <leafValues>
            1.9151827692985535e-01 -1.2709514796733856e-01</leafValues></_>
        <_>
          <internalNodes>
            0 -1 553 -4.8853931948542595e-03</internalNodes>
          <leafValues>
            -5.6353646516799927e-01 4.4611949473619461e-02</leafValues></_>
        <_>
          <internalNodes>
            0 -1 649 1.8246687250211835e-03</internalNodes>
          <leafValues>
            6.3832193613052368e-02 -3.6079093813896179e-01</leafValues></_>
        <_>
          <internalNodes>
            0 -1 2 -3.7001366727054119e-03</internalNodes>
          <leafValues>
            1.9149990379810333e-01 -1.3052800297737122e-01</leafValues></_>
        <_>
          <internalNodes>
            0 -1 324 -5.1008379086852074e-03</internalNodes>
          <leafValues>
            4.0633511543273926e-01 -6.6167853772640228e-02</leafValues></_>
        <_>
          <internalNodes>
            0 -1 15 -1.7046853899955750e-02</internalNodes>
          <leafValues>
            -3.5266619920730591e-01 7.1908973157405853e-02</leafValues></_>
        <_>
          <internalNodes>
            0 -1 415 7.4824336916208267e-03</internalNodes>
          <leafValues>
            5.7628002017736435e-02 -4.6899631619453430e-01</leafValues></_>
        <_>
          <internalNodes>
            0 -1 955 -1.0255416855216026e-02</internalNodes>
          <leafValues>
            -5.3142738342285156e-01 4.1362568736076355e-02</leafValues></_>
        <_>
          <internalNodes>
            0 -1 500 2.2401358000934124e-03</internalNodes>
          <leafValues>
            -7.4236951768398285e-02 3.2401573657989502e-01</leafValues></_>
        <_>
          <internalNodes>
            0 -1 893 -1.1338146403431892e-02</internalNodes>
          <leafValues>
            -5.8281844854354858e-01 4.3767549097537994e-02</leafValues></_>
        <_>
          <internalNodes>
            0 -1 532 8.4229296771809459e-04</internalNodes>
          <leafValues>
            -1.2624698877334595e-01 1.8474358320236206e-01</leafValues></_>
        <_>
          <internalNodes>
            0 -1 117 2.7594935148954391e-02</internalNodes>
          <leafValues>
            4.2021647095680237e-02 -5.0711041688919067e-01</leafValues></_>
        <_>
          <internalNodes>
            0 -1 828 3.0329828150570393e-03</internalNodes>
          <leafValues>
            -7.0778228342533112e-02 3.3471760153770447e-01</leafValues></_>
        <_>
          <internalNodes>
            0 -1 984 -8.9767086319625378e-04</internalNodes>
          <leafValues>
            -2.8313115239143372e-01 8.4212802350521088e-02</leafValues></_>
        <_>
          <internalNodes>
            0 -1 912 -4.3688914738595486e-03</internalNodes>
          <leafValues>
            -4.8104682564735413e-01 4.6536806970834732e-02</leafValues></_>
        <_>
          <internalNodes>
            0 -1 817 -6.5738772973418236e-03</internalNodes>
          <leafValues>
            1.8955506384372711e-01 -1.1803213506937027e-01</leafValues></_>
        <_>
          <internalNodes>
            0 -1 768 1.6207897569984198e-03</internalNodes>
          <leafValues>
            -6.5827853977680206e-02 3.2122904062271118e-01</leafValues></_>
        <_>
          <internalNodes>
            0 -1 641 4.8786089755594730e-03</internalNodes>
          <leafValues>
            3.4384466707706451e-02 -7.0796263217926025e-01</leafValues></_>
        <_>
          <internalNodes>
            0 -1 118 -7.3928516358137131e-03</internalNodes>
          <leafValues>
            -4.5154401659965515e-01 4.3622057884931564e-02</leafValues></_>
        <_>
          <internalNodes>
            0 -1 287 2.2087101824581623e-03</internalNodes>
          <leafValues>
            -4.4949851930141449e-02 4.9991622567176819e-01</leafValues></_>
        <_>
          <internalNodes>
            0 -1 187 2.9001948423683643e-03</internalNodes>
          <leafValues>
            5.1781963557004929e-02 -4.2971140146255493e-01</leafValues></_>
        <_>
          <internalNodes>
            0 -1 287 -9.9636090453714132e-04</internalNodes>
          <leafValues>
            3.0347472429275513e-01 -7.4883252382278442e-02</leafValues></_>
        <_>
          <internalNodes>
            0 -1 121 6.3986405730247498e-03</internalNodes>
          <leafValues>
            3.8914524018764496e-02 -5.6881076097488403e-01</leafValues></_>
        <_>
          <internalNodes>
            0 -1 433 -5.2966945804655552e-03</internalNodes>
          <leafValues>
            -5.5442500114440918e-01 3.3734291791915894e-02</leafValues></_>
        <_>
          <internalNodes>
            0 -1 540 9.2505104839801788e-03</internalNodes>
          <leafValues>
            -9.5525965094566345e-02 2.2353705763816833e-01</leafValues></_>
        <_>
          <internalNodes>
            0 -1 942 3.2701031304895878e-03</internalNodes>
          <leafValues>
            -8.7515957653522491e-02 2.7356430888175964e-01</leafValues></_>
        <_>
          <internalNodes>
            0 -1 938 -9.0824589133262634e-03</internalNodes>
          <leafValues>
            2.2333034873008728e-01 -9.6923373639583588e-02</leafValues></_>
        <_>
          <internalNodes>
            0 -1 981 -3.0515873804688454e-03</internalNodes>
          <leafValues>
            -4.0757030248641968e-01 5.0947520881891251e-02</leafValues></_>
        <_>
          <internalNodes>
            0 -1 518 6.3385991379618645e-03</internalNodes>
          <leafValues>
            -6.0888923704624176e-02 3.5273307561874390e-01</leafValues></_>
        <_>
          <internalNodes>
            0 -1 568 -3.4346987958997488e-03</internalNodes>
          <leafValues>
            2.9356080293655396e-01 -8.1172131001949310e-02</leafValues></_>
        <_>
          <internalNodes>
            0 -1 141 -3.9428919553756714e-03</internalNodes>
          <leafValues>
            -4.9512249231338501e-01 4.4033303856849670e-02</leafValues></_>
        <_>
          <internalNodes>
            0 -1 363 -9.1780513525009155e-02</internalNodes>
          <leafValues>
            -3.9046007394790649e-01 5.0150144845247269e-02</leafValues></_>
        <_>
          <internalNodes>
            0 -1 259 -6.6375046968460083e-02</internalNodes>
          <leafValues>
            -6.0851734876632690e-01 3.0974121764302254e-02</leafValues></_>
        <_>
          <internalNodes>
            0 -1 621 -6.9266660138964653e-03</internalNodes>
          <leafValues>
            -7.3090195655822754e-01 2.3663638159632683e-02</leafValues></_>
        <_>
          <internalNodes>
            0 -1 105 -3.5928614437580109e-02</internalNodes>
          <leafValues>
            1.8060323596000671e-01 -1.1467467248439789e-01</leafValues></_>
        <_>
          <internalNodes>
            0 -1 848 -4.6623144298791885e-03</internalNodes>
          <leafValues>
            2.3666681349277496e-01 -1.0607369244098663e-01</leafValues></_>
        <_>
          <internalNodes>
            0 -1 597 6.3546001911163330e-02</internalNodes>
          <leafValues>
            3.3510908484458923e-02 -6.6823011636734009e-01</leafValues></_>
        <_>
          <internalNodes>
            0 -1 303 1.0070858988910913e-03</internalNodes>
          <leafValues>
            -1.1336669325828552e-01 1.9138091802597046e-01</leafValues></_>
        <_>
          <internalNodes>
            0 -1 297 2.0964080467820168e-03</internalNodes>
          <leafValues>
            -1.3783766329288483e-01 1.6943521797657013e-01</leafValues></_>
        <_>
          <internalNodes>
            0 -1 278 -3.7955917418003082e-02</internalNodes>
          <leafValues>
            4.2277663946151733e-01 -5.3925208747386932e-02</leafValues></_>
        <_>
          <internalNodes>
            0 -1 915 1.5981765463948250e-03</internalNodes>
          <leafValues>
            7.2201833128929138e-02 -2.9906082153320312e-01</leafValues></_>
        <_>
          <internalNodes>
            0 -1 266 -1.0036448948085308e-03</internalNodes>
          <leafValues>
            3.0661484599113464e-01 -7.1594037115573883e-02</leafValues></_>
        <_>
          <internalNodes>
            0 -1 167 -8.7398784235119820e-03</internalNodes>
          <leafValues>
            -4.0562248229980469e-01 5.0554409623146057e-02</leafValues></_>
        <_>
          <internalNodes>
            0 -1 132 3.8445743266493082e-03</internalNodes>
          <leafValues>
            3.0860245227813721e-02 -5.6328177452087402e-01</leafValues></_>
        <_>
          <internalNodes>
            0 -1 559 2.9180462006479502e-03</internalNodes>
          <leafValues>
            -9.4123579561710358e-02 2.1829530596733093e-01</leafValues></_>
        <_>
          <internalNodes>
            0 -1 705 -4.4532963074743748e-03</internalNodes>
          <leafValues>
            2.2356307506561279e-01 -1.0032130777835846e-01</leafValues></_>
        <_>
          <internalNodes>
            0 -1 979 2.8718812391161919e-03</internalNodes>
          <leafValues>
            5.8825947344303131e-02 -3.5275349020957947e-01</leafValues></_>
        <_>
          <internalNodes>
            0 -1 392 -9.6740125445649028e-04</internalNodes>
          <leafValues>
            2.2895433008670807e-01 -8.8445298373699188e-02</leafValues></_>
        <_>
          <internalNodes>
            0 -1 384 6.3862642273306847e-03</internalNodes>
          <leafValues>
            -7.9845495522022247e-02 2.6533949375152588e-01</leafValues></_>
        <_>
          <internalNodes>
            0 -1 739 -1.8584533827379346e-03</internalNodes>
          <leafValues>
            -3.5019376873970032e-01 5.8831077069044113e-02</leafValues></_>
        <_>
          <internalNodes>
            0 -1 47 -4.1777163743972778e-02</internalNodes>
          <leafValues>
            -7.5915527343750000e-01 2.5032732635736465e-02</leafValues></_>
        <_>
          <internalNodes>
            0 -1 798 1.7466493882238865e-03</internalNodes>
          <leafValues>
            -7.8535526990890503e-02 2.5856694579124451e-01</leafValues></_>
        <_>
          <internalNodes>
            0 -1 873 -1.7557941377162933e-02</internalNodes>
          <leafValues>
            1.5769363939762115e-01 -1.2735258042812347e-01</leafValues></_>
        <_>
          <internalNodes>
            0 -1 622 -2.0210664719343185e-02</internalNodes>
          <leafValues>
            2.4479819834232330e-01 -8.0905362963676453e-02</leafValues></_>
        <_>
          <internalNodes>
            0 -1 623 -1.2817385140806437e-03</internalNodes>
          <leafValues>
            2.0145194232463837e-01 -1.1555081605911255e-01</leafValues></_>
        <_>
          <internalNodes>
            0 -1 173 -4.6622417867183685e-03</internalNodes>
          <leafValues>
            -5.7475388050079346e-01 3.5327285528182983e-02</leafValues></_>
        <_>
          <internalNodes>
            0 -1 624 7.2181676514446735e-03</internalNodes>
          <leafValues>
            -6.5562173724174500e-02 2.9846385121345520e-01</leafValues></_></weakClassifiers></_>
    <!-- stage 8 -->
    <_>
      <maxWeakCount>91</maxWeakCount>
      <stageThreshold>-1.4331817626953125e+00</stageThreshold>
      <weakClassifiers>
        <_>
          <internalNodes>
            0 -1 508 -1.0981839150190353e-02</internalNodes>
          <leafValues>
            6.4476418495178223e-01 5.4893907159566879e-02</leafValues></_>
        <_>
          <internalNodes>
            0 -1 256 4.4120610691606998e-03</internalNodes>
          <leafValues>
            -1.1835748702287674e-01 5.0045996904373169e-01</leafValues></_>
        <_>
          <internalNodes>
            0 -1 735 2.8575016185641289e-03</internalNodes>
          <leafValues>
            -1.3248406350612640e-01 4.2942702770233154e-01</leafValues></_>
        <_>
          <internalNodes>
            0 -1 326 2.0933073014020920e-02</internalNodes>
          <leafValues>
            -1.2826231122016907e-01 5.0430470705032349e-01</leafValues></_>
        <_>
          <internalNodes>
            0 -1 742 -1.4590121805667877e-02</internalNodes>
          <leafValues>
            3.1983098387718201e-01 -1.6088847815990448e-01</leafValues></_>
        <_>
          <internalNodes>
            0 -1 581 6.0559157282114029e-02</internalNodes>
          <leafValues>
            -7.2834797203540802e-02 4.6935465931892395e-01</leafValues></_>
        <_>
          <internalNodes>
            0 -1 537 3.3241603523492813e-02</internalNodes>
          <leafValues>
